\data\
ngram 1=3768
ngram 2=32826

\1-grams:
-4.5279593	<unk>	0
0	<s>	-1.6347656
-2.6940303	</s>	0
-4.3948264	Ngõ	-0.30103
-3.4591992	Đường	-0.56110144
-4.3948264	Số	-0.30103
-4.135466	Tổ	-0.30103
-4.3948264	Ngách	-0.30103
-4.3948264	Khu	-0.30103
-4.088622	Hẻm	-0.30103
-3.7835839	Thôn	-0.39794
-4.088622	Ấp	-0.30103
-4.3948264	Xóm	-0.30103
-4.3948264	số	-0.30103
-4.3948264	ngách	-0.30103
-4.3948264	ngõ	-0.30103
-4.3948264	hẻm	-0.30103
-4.3948264	thôn	-0.30103
-4.3948264	tổ	-0.30103
-4.3948264	ấp	-0.30103
-4.3948264	xóm	-0.30103
-4.3948264	khu	-0.30103
-4.3948264	đường	-0.30103
-4.088622	Phường	-0.72083384
-2.7280285	Phúc	-0.99333125
-2.8591335	Xá	-0.6833649
-2.1575162	Quận	-0.9152559
-2.497505	Ba	-0.9262499
-2.979622	Đình	-0.6592029
-1.6194696	Thành	-1.7186635
-4.088622	phố	-1.8911036
-2.4615934	Hà	-1.616174
-3.4591992	Nội	-2.1539533
-3.709835	Trúc	-0.30103
-3.1469467	Bạch	-0.60206
-2.5059054	Vĩnh	-1.0520589
-3.9843574	Cống	-1.0700378
-2.9206889	Vị	-0.9378521
-3.4226916	Liễu	-0.40457058
-3.9843574	Giai	-0.39794
-3.8724701	Nguyễn	-0.5472113
-2.6218853	Trung	-0.70363986
-3.094565	Trực	-0.7082878
-3.591784	Quán	-0.5244552
-4.3948264	Thánh	-0.30103
-2.7497828	Ngọc	-0.5877675
-2.764916	Điện	-1.3341594
-3.3890164	Biên	-1.3789011
-3.8724701	Đội	-0.50514996
-3.9843574	Cấn	-0.30103
-2.7210126	Khánh	-1.0035374
-2.5321274	Kim	-0.7471372
-3.709835	Mã	-0.6963299
-4.135466	Giảng	-0.30103
-3.128775	Võ	-0.8176598
-3.1113331	Công	-0.75528836
-2.2847407	Tân	-1.0235773
-3.1113331	Hoàn	-0.8750613
-4.088622	Kiếm	-0.9777236
-2.5458572	Đồng	-1.1792964
-2.5648658	Xuân	-0.73976105
-3.542952	Hàng	-0.3174204
-4.3948264	Buồm	-0.30103
-3.542952	Đào	-0.40205657
-3.6468108	Bồ	-0.34845465
-3.709835	Cửa	-0.5039934
-2.3845897	Đông	-0.86197895
-2.8313458	Lý	-0.8160668
-2.6055775	Thái	-1.4026521
-3.4226916	Bạc	-1.6092386
-4.088622	Gai	-0.30103
-2.979622	Chương	-1.1574091
-2.7073119	Dương	-1.3553877
-4.3948264	Trống	-0.30103
-2.4009304	Nam	-1.2844901
-3.591784	Bông	-0.6087934
-3.1113331	Tràng	-0.7166332
-2.8404121	Tiền	-1.6266825
-3.07842	Trần	-0.94966614
-2.4852016	Hưng	-1.097968
-3.2065241	Đạo	-0.61429447
-3.49906	Phan	-0.81476533
-3.4591992	Chu	-0.4181434
-3.3890164	Trinh	-0.42596874
-3.591784	Bài	-0.34242266
-2.279673	Phú	-1.1275938
-2.764916	Thượng	-0.53495854
-2.541232	Tây	-1.0098039
-2.9924326	Hồ	-1.5609916
-3.6468108	Nhật	-0.43786797
-3.1113331	Tứ	-0.75739604
-2.955081	Liên	-0.5472544
-2.497505	Quảng	-1.361073
-2.387809	An	-1.2528416
-3.094565	La	-1.3187244
-2.227515	Yên	-1.2536904
-3.8724701	Phụ	-1.0211893
-4.135466	Bưởi	-0.30103
-3.49906	Thụy	-0.5621566
-3.7835839	Khuê	-0.3309932
-2.305624	Thanh	-1.2437733
-2.4355807	Long	-1.1524528
-2.6564615	Giang	-1.8103583
-2.501685	Đức	-0.89118195
-2.9433117	Việt	-0.7083775
-2.5505319	Gia	-1.0848796
-2.5600352	Lâm	-1.1258333
-2.955081	Lợi	-0.72651803
-3.591784	Đề	-0.6320232
-3.7835839	Sài	-0.30103
-2.650504	Thạch	-0.7432894
-3.709835	Bàn	-0.9388055
-3.8724701	Cự	-0.30103
-4.3948264	Khối	-0.30103
-2.6274602	Nghĩa	-0.75927544
-3.2065241	Đô	-1.0165691
-2.8991861	Cầu	-0.7707777
-4.3948264	Giấy	-0.72699875
-2.7210126	Mai	-0.7781512
-3.709835	Dịch	-0.39794
-3.9843574	Vọng	-0.30103
-3.0628538	Hậu	-1.2952005
-2.8991861	Quan	-0.9426606
-2.979622	Hoa	-0.69897
-2.650504	Hoà	-1.1689309
-2.9098043	Cát	-0.6449882
-3.019247	Linh	-0.99540424
-3.128775	Đống	-1.1999239
-3.0333016	Đa	-0.75182235
-2.4248922	Văn	-0.829463
-4.135466	Miếu	-0.39794
-3.0333016	Quốc	-0.7857044
-3.591784	Tử	-0.3332147
-4.088622	Giám	-0.30103
-3.6468108	Láng	-0.30103
-3.328613	Ô	-0.60206
-2.6940303	Chợ	-1.1808901
-4.135466	Dừa	-0.30103
-3.9843574	Bột	-0.30103
-2.7073119	Hạ	-0.9429615
-3.709835	Khâm	-0.30103
-3.6468108	Thiên	-1.5689347
-3.542952	Thổ	-0.62433636
-3.1469467	Phụng	-0.7447275
-2.7073119	Quang	-1.0313263
-3.709835	Liệt	-0.34449568
-2.979622	Phương	-0.48077083
-2.7805953	Thịnh	-0.6975891
-3.6468108	Tự	-0.33403024
-3.709835	Ngã	-0.8547853
-3.2283492	Tư	-0.8966559
-3.6468108	Sở	-0.34242266
-3.4226916	Khương	-0.5898255
-3.542952	Du	-0.6277654
-3.1113331	Hai	-1.0463
-3.2513297	Bà	-1.5070179
-3.542952	Trưng	-0.6821021
-3.8724701	Đằng	-0.34242266
-3.709835	Phạm	-0.4929155
-4.088622	Hổ	-0.30103
-3.165912	Lê	-0.7377226
-2.7351596	Đại	-0.66900676
-3.542952	Hành	-0.5128368
-3.2283492	Nhân	-0.5757311
-3.4226916	Phố	-0.7812205
-4.135466	Huế	-1.9542425
-4.3948264	Mác	-0.30103
-2.7210126	Lương	-0.79981446
-4.088622	Nhàn	-0.30103
-3.9843574	Dền	-0.30103
-3.8724701	Bách	-0.30103
-3.7835839	Khoa	-0.44715804
-3.2283492	Tâm	-0.68824613
-2.8224647	Tuy	-1.0259358
-2.6331077	Quỳnh	-0.7004912
-3.9843574	Lôi	-0.3631779
-2.6625016	Minh	-1.1376519
-3.542952	Khai	-0.47374153
-3.8724701	Trương	-0.33881855
-2.7805953	Định	-1.39654
-3.49906	Trì	-0.8758431
-2.7726848	Hoàng	-0.7064122
-3.2065241	Động	-0.8626613
-3.165912	Tương	-0.87380064
-4.088622	Thụ	-0.45364016
-3.4226916	Giáp	-0.41300377
-3.07842	Bát	-0.9502025
-3.1469467	Lĩnh	-0.59310514
-3.07842	Chính	-0.5656792
-2.3219728	Bắc	-1.4241712
-1.8704	Thị	-2.1564817
-4.088622	trấn	-0.6198083
-2.9206889	Sóc	-1.7752463
-2.155619	Sơn	-1.2908306
-1.34001	Huyện	-1.3760233
-3.9843574	Xã	-1.0239012
-3.591784	Trí	-0.30103
-2.7726848	Hồng	-0.7035176
-2.7280285	Kỳ	-0.8501776
-3.9843574	Giã	-0.38021123
-2.6446276	Phù	-0.97794986
-2.6686268	Tiến	-0.769395
-3.709835	Hiền	-0.37358066
-2.5600352	Ninh	-1.4117018
-3.2755942	Dân	-0.6316152
-2.6218853	Tiên	-0.7568675
-4.3948264	Dược	-0.30103
-4.088622	Lũ	-0.30103
-3.019247	Cường	-0.68888646
-3.6468108	Lỗ	-0.43933266
-3.4591992	Thu	-0.35100394
-3.3012948	Anh	-1.096154
-4.088622	Nộn	-0.30103
-3.9843574	Thuỵ	-0.86297274
-2.8688056	Nguyên	-1.4294894
-2.8786983	Khê	-0.9459247
-2.6940303	Vân	-0.6643733
-3.9843574	Uy	-0.30103
-4.088622	Nỗ	-0.30103
-3.1469467	Hùng	-0.6634317
-3.4226916	Chung	-0.4988405
-3.709835	Dục	-0.30103
-3.3890164	Tú	-0.47712123
-4.3948264	Mạch	-0.30103
-3.709835	Cổ	-0.38021123
-4.3948264	Loa	-0.30103
-2.4213872	Hải	-1.2407947
-3.9843574	Bối	-0.30103
-3.6468108	Canh	-0.45046908
-4.135466	Võng	-0.30103
-4.135466	Tàm	-0.30103
-2.9318528	Hội	-0.7383641
-3.2755942	Viên	-0.5211381
-2.8404121	Thường	-1.00934
-2.6875386	Hiệp	-0.8372727
-2.8688056	Xuyên	-1.1752863
-3.7835839	Đổng	-0.3332147
-4.3948264	Mầu	-0.30103
-3.3577652	Lệ	-0.81645286
-3.07842	Chi	-1.0125287
-4.135466	Bi	-0.30103
-4.135466	Đặng	-0.30103
-4.088622	Trâu	-0.30103
-3.019247	Quỳ	-1.128869
-3.9843574	Dư	-0.49732465
-4.3948264	Tốn	-0.30103
-3.9843574	Kiêu	-0.30103
-4.088622	Kỵ	-0.30103
-3.8724701	Lan	-0.30103
-2.8786983	Diễn	-0.58524656
-3.7835839	Từ	-1.2370222
-3.3890164	Liêm	-0.7781512
-2.541232	Mỹ	-0.89679927
-3.0628538	1	-0.87960887
-3.2755942	2	-0.841203
-3.9843574	Mỗ	-0.30103
-3.7835839	Mễ	-0.30103
-4.3948264	Điển	-0.30103
-3.709835	Triều	-0.8091855
-4.135466	Tả	-0.44824514
-3.9843574	Oai	-1.1714956
-2.979622	Hữu	-0.6236321
-2.6625016	Tam	-0.783621
-3.49906	Ngũ	-0.529912
-3.328613	Duyên	-0.914371
-3.7835839	Hồi	-0.51908576
-3.1469467	Vạn	-0.5150885
-4.3948264	áng	-0.30103
-3.7835839	Mạc	-0.38021123
-4.135466	Ngạc	-0.30103
-2.7497828	Thắng	-0.75032216
-4.088622	Tựu	-0.30103
-3.9843574	Đỉnh	-0.30103
-3.6468108	Tảo	-0.32451108
-3.9843574	Nhuế	-0.30103
-3.165912	Mê	-1.1260802
-3.0478265	Đà	-1.2530736
-2.8313458	Lập	-0.8812616
-2.5458572	Phong	-0.8876173
-3.9843574	Tráng	-0.30103
-4.3948264	Trãi	-0.47712123
-3.2065241	Mộ	-0.9610819
-3.4591992	Lao	-0.63591826
-3.8724701	Yết	-0.60206
-2.7726848	Kiến	-1.0600462
-3.7835839	Lãm	-0.3357921
-4.088622	xã	-1.2656361
-3.2065241	Ngô	-0.8946568
-3.9843574	Quyền	-0.74036264
-2.5232096	Lộc	-0.99370795
-4.3948264	Khanh	-0.30103
-3.9843574	Trầm	-0.30103
-4.088622	Vì	-1.0543576
-4.135466	Tản	-0.30103
-2.3782218	Châu	-1.2007256
-2.5321274	Hòa	-1.0684137
-4.135466	Vật	-0.30103
-3.709835	Lại	-0.30103
-3.709835	Tòng	-0.33881855
-4.135466	Bạt	-0.30103
-2.584745	Cẩm	-0.75603694
-3.128775	Cam	-0.70626926
-4.135466	Thuần	-0.30103
-3.7835839	Trại	-0.38021123
-2.7280285	Thọ	-1.1763836
-3.7835839	Sen	-0.30103
-3.4591992	Cốc	-0.3493347
-3.9843574	Hát	-0.39120662
-3.3577652	Môn	-0.93694824
-3.7835839	Tích	-0.30103
-2.9318528	Trạch	-1.0835904
-4.3948264	Thuấn	-0.30103
-2.541232	Thuận	-1.1638021
-3.542952	Phùng	-0.44863272
-3.2283492	Đan	-0.8750613
-3.4226916	Phượng	-0.5682018
-3.3577652	Tháp	-1.9242793
-3.6468108	Song	-0.40854484
-3.2513297	Trạm	-0.7781512
-4.088622	Trôi	-0.30103
-2.955081	Hoài	-0.9367731
-3.1469467	Di	-1.0296224
-2.967178	Quế	-0.7558749
-3.7835839	Đắc	-0.30103
-3.6468108	Côn	-0.34449568
-3.709835	Cách	-0.30103
-3.9843574	Liệp	-0.30103
-3.9843574	Tuyết	-0.30103
-4.3948264	Thán	-0.30103
-2.7141082	Hương	-0.724762
-3.8724701	Cộng	-0.6478175
-3.9843574	Mãn	-0.30103
-3.8724701	Thất	-0.9570718
-2.2297547	Bình	-1.4084554
-4.088622	Ngải	-0.30103
-4.088622	Nậu	-0.38021123
-3.709835	Dị	-0.36469907
-4.135466	Chàng	-0.30103
-2.8786983	Cần	-1.2575643
-3.8724701	Kiệm	-0.43572855
-3.1857436	Bằng	-1.2158358
-3.9843574	Chúc	-0.30103
-2.9924326	Trường	-0.6505066
-2.796862	Thủy	-0.95384353
-4.135466	Tốt	-0.30103
-3.591784	Lam	-0.5757311
-2.9433117	Điền	-0.69703555
-3.128775	Hợp	-0.7144096
-4.135466	Diệu	-0.39794
-4.088622	Bị	-0.30103
-4.088622	Vực	-0.30103
-2.7006204	Lạc	-0.81656694
-3.591784	Bích	-0.30103
-2.7351596	Cao	-1.189091
-4.3948264	Thùy	-0.30103
-3.9843574	Đỗ	-0.30103
-3.7835839	Thư	-0.97144455
-4.3948264	Ước	-0.30103
-3.591784	Tín	-0.858063
-3.7835839	Nhị	-0.42881656
-4.3948264	Nhiên	-0.30103
-3.9843574	Quất	-0.30103
-3.3577652	Dũng	-0.69339013
-3.2755942	Thống	-1.2477845
-3.49906	Nhất	-0.7089542
-3.8724701	Nghiêm	-0.30103
-3.4226916	Tô	-0.5351132
-3.9843574	Hiệu	-0.3631779
-4.088622	Điểm	-0.30103
-3.8724701	Dực	-0.30103
-3.1857436	Tri	-0.8628268
-3.591784	Túc	-0.42160395
-4.135466	Chuyên	-0.30103
-3.328613	Lãng	-0.81033593
-3.4226916	Can	-1.0211893
-2.9924326	Ứng	-1.2769917
-4.088622	Lộng	-0.30103
-3.4591992	Lưu	-0.7416344
-2.9098043	Lai	-1.5774918
-4.135466	Xuy	-0.30103
-3.7835839	Tế	-0.30103
-3.7835839	Đốc	-0.50267535
-2.014607	Tỉnh	-2.1752567
-3.9843574	Độ	-0.42596874
-3.128775	Thiện	-0.5660624
-4.088622	Phó	-0.30103
-3.9843574	Bảng	-0.845098
-3.591784	Lũng	-0.6182066
-4.088622	Cú	-0.9107768
-4.135466	Má	-0.30103
-4.3948264	Lé	-0.30103
-4.3948264	Táo	-0.30103
-3.9843574	Là	-0.38021123
-3.9843574	Thài	-0.36797678
-3.4226916	Phìn	-0.5329791
-4.088622	Tủng	-0.30103
-4.135466	Sủng	-0.30103
-4.135466	Xà	-0.30103
-4.135466	Lủng	-0.38021123
-4.3948264	Cáo	-0.30103
-3.9843574	Sính	-0.30103
-4.135466	Sảng	-0.30103
-4.135466	Thầu	-0.38021123
-3.8724701	Hố	-0.46375728
-4.3948264	Quáng	-0.30103
-4.135466	Vần	-0.30103
-3.49906	Chải	-0.748188
-4.3948264	Trái	-0.30103
-3.2065241	Mèo	-1.2444146
-4.3948264	Vạc	-0.9777236
-4.135466	Pải	-0.30103
-3.1469467	Xín	-1.0047989
-2.9206889	Cái	-0.91111785
-3.9843574	Pả	-0.30103
-3.7835839	Vi	-0.30103
-3.591784	Giàng	-0.738898
-2.7726848	Trà	-0.9486144
-4.3948264	Máng	-0.30103
-3.6468108	Vĩ	-0.35538766
-4.135466	Cán	-0.3290587
-3.9843574	Pù	-0.30103
-3.9843574	Chinh	-0.30103
-4.135466	Tát	-0.30103
-4.135466	Ngà	-0.30103
-3.0056329	Nậm	-0.4576429
-3.709835	Ban	-0.40369233
-3.9843574	Khâu	-0.30103
-4.088622	Vai	-0.30103
-3.9843574	Niêm	-0.30103
-4.088622	Mố	-0.30103
-4.3948264	Đích	-0.30103
-2.9206889	Na	-0.6928674
-2.9924326	Vinh	-1.171135
-4.088622	Và	-0.30103
-3.6468108	Mậu	-0.30103
-4.135466	Duệ	-0.30103
-3.9843574	Ngam	-0.30103
-4.3948264	Già	-0.30103
-3.2513297	Quản	-1.0369836
-4.088622	Bạ	-0.7781512
-4.088622	Tỷ	-0.30103
-3.9843574	Pờ	-0.3309932
-3.49906	Tùng	-0.39978415
-4.088622	Vài	-0.30103
-3.8724701	Lùng	-0.31399497
-4.3948264	Tám	-0.30103
-3.8724701	Quyết	-0.748188
-4.088622	Ván	-0.30103
-2.8137617	Nông	-1.1951032
-3.0333016	Bá	-0.9069504
-4.088622	Ngần	-0.30103
-4.088622	Âm	-0.30103
-3.9843574	Phiêng	-0.34523368
-3.49906	Luông	-0.60206
-4.135466	Su	-1.1719353
-3.9843574	Phì	-0.9736711
-3.7835839	Bản	-0.4331473
-3.9843574	Máy	-0.30103
-3.49906	Thàng	-0.44715804
-3.9843574	Thèn	-0.3309932
-4.135466	Pố	-0.30103
-4.3948264	Lồ	-0.30103
-4.135466	Túng	-0.30103
-3.8724701	Sán	-0.3332147
-3.6468108	Chiến	-0.43066385
-4.135466	Đản	-0.30103
-3.8724701	Tụ	-0.30103
-3.6468108	Nàng	-0.3467875
-3.709835	Đôn	-0.41017446
-3.7835839	Ly	-0.3467875
-4.135466	Ngài	-0.30103
-4.088622	Xả	-0.30103
-4.3948264	Luốc	-0.30103
-3.9843574	Ngàm	-0.36797678
-3.4226916	Đăng	-0.63346845
-4.3948264	Nhùng	-0.30103
-3.9843574	Sử	-0.30103
-4.3948264	Choóng	-0.30103
-4.3948264	Tỵ	-0.30103
-3.3577652	Thông	-0.5793169
-4.3948264	Khòa	-0.30103
-4.3948264	Pài	-0.30103
-4.3948264	Mần	-0.9777236
-4.135466	Nàn	-0.30103
-4.3948264	Xỉn	-0.30103
-4.3948264	Díu	-0.30103
-3.542952	Chí	-1.6722544
-3.328613	Cà	-1.5941715
-4.3948264	Phàng	-0.30103
-4.135466	Pà	-0.35902193
-3.9843574	Vầy	-0.30103
-4.3948264	Sủ	-0.30103
-4.3948264	Rế	-0.30103
-3.8724701	Tà	-0.30582887
-3.3890164	Ma	-0.8024198
-4.3948264	Nhìu	-0.30103
-4.3948264	Ngò	-0.30103
-3.8724701	Chế	-0.3258536
-4.135466	Nấm	-0.30103
-4.3948264	Dẩn	-0.30103
-3.8724701	Nà	-0.30103
-4.3948264	Chì	-0.30103
-4.135466	Khuôn	-0.30103
-4.3948264	Sản	-0.30103
-4.135466	Vô	-0.45593196
-4.3948264	Điếm	-0.30103
-3.7835839	Kiều	-0.6812413
-3.6468108	Hảo	-0.38021123
-4.088622	Rịa	-1.6872317
-3.9843574	Trịnh	-0.30103
-3.1113331	Lang	-0.72379357
-2.7886524	Sông	-0.8803469
-3.709835	Hiến	-0.38021123
-4.088622	Thám	-0.50930595
-3.9843574	Duyệt	-0.30103
-3.3890164	Pác	-0.9444827
-4.3948264	Miầu	-0.30103
-2.6564615	Bảo	-0.90916413
-3.542952	Hạnh	-0.36431184
-4.3948264	Bôn	-0.30103
-3.6468108	Mông	-0.34845465
-2.967178	Ân	-0.71305645
-4.135466	Học	-0.44235915
-4.3948264	Pàng	-0.30103
-3.4226916	Cô	-0.49415457
-3.591784	Toàn	-0.45425838
-3.3890164	Trị	-1.3480265
-3.8724701	Cúc	-0.30103
-3.709835	Huy	-0.3309932
-3.591784	Lộ	-0.76900786
-3.8724701	Nặm	-0.6651117
-3.7835839	Cải	-0.30103
-3.8724701	Tổng	-0.30103
-4.3948264	Cọt	-0.30103
-3.9843574	Sỹ	-0.30103
-3.328613	Quý	-0.43408662
-3.6468108	Quân	-0.37161106
-3.094565	Trùng	-1.4866666
-3.709835	Hán	-0.30103
-4.135466	Đàm	-0.30103
-2.8991861	Thuỷ	-0.95660925
-3.6468108	Viễn	-0.80416465
-3.3890164	Lăng	-0.80711496
-3.4591992	Hiếu	-0.45781612
-3.0628538	Thăng	-0.87942606
-3.7835839	Đoài	-0.30103
-3.6468108	Loan	-0.40369233
-3.3577652	Ngân	-0.8591845
-4.3948264	Toản	-0.30103
-3.6468108	Uyên	-1.0486432
-3.9843574	Phi	-0.30103
-4.135466	Độc	-0.60206
-3.1469467	Cai	-1.678128
-4.088622	Bộ	-0.30103
-3.9843574	Thảo	-0.30103
-4.088622	Do	-0.30103
-4.135466	Bế	-0.42596874
-3.8724701	Đàn	-1.1492192
-4.135466	Nước	-0.69897
-4.3948264	Chủ	-0.39794
-3.7835839	Tuấn	-0.41497335
-3.7835839	Lão	-0.7820463
-3.8724701	Tung	-0.3467875
-4.135466	Huệ	-0.66900676
-3.542952	Tĩnh	-1.750999
-2.8688056	Triệu	-0.80561996
-3.8724701	Ca	-0.3332147
-2.849672	Vũ	-0.6431911
-3.9843574	Thể	-0.30103
-3.6468108	Vượng	-0.3756636
-4.088622	Trình	-0.30103
-3.8724701	Trọng	-0.66900676
-3.3890164	Con	-1.1176395
-4.3948264	Kạn	-1.8808136
-2.9433117	Kiên	-1.3683972
-3.8724701	Huyền	-0.30103
-4.3948264	Tụng	-0.30103
-3.8724701	Xuất	-0.42596874
-2.8404121	Hóa	-1.902949
-3.8724701	Nhạn	-0.30103
-4.135466	Bộc	-0.30103
-3.3890164	Bố	-1.1832699
-3.591784	Giáo	-0.83559453
-4.135466	Nghiên	-0.30103
-4.3948264	Rã	-0.30103
-4.3948264	Bể	-1
-4.135466	Bành	-0.30103
-3.49906	Khang	-0.4701724
-3.8724701	Mẫu	-0.40576535
-4.135466	Địa	-0.30103
-3.709835	Yến	-0.30103
-4.3948264	Trĩ	-0.30103
-4.3948264	Phặc	-0.30103
-3.9843574	Đán	-0.30103
-3.7835839	Lực	-0.35902193
-3.128775	Mang	-1
-3.591784	Phủ	-1.0163904
-4.135466	Sĩ	-0.30103
-4.088622	Muộn	-0.30103
-2.7141082	Lục	-1.1406513
-3.709835	Đồn	-1.0454578
-3.709835	Thi	-0.8325089
-4.135466	Phái	-0.30103
-4.3948264	Sảo	-0.30103
-3.9843574	Tá	-0.30103
-4.135466	Mới	-1
-4.088622	Vận	-0.30103
-4.3948264	Lạp	-0.30103
-4.088622	Mục	-0.30103
-2.8786983	Cư	-0.5652957
-4.3948264	Hân	-0.30103
-3.019247	Như	-0.98741084
-4.3948264	Cố	-0.30103
-4.3948264	Rì	-1.0543576
-4.088622	Hỷ	-0.90309
-3.591784	Lư	-0.6642079
-3.2283492	Lễ	-0.64345264
-3.709835	Thiết	-0.7103995
-3.2755942	Tuyên	-1.845098
-4.135466	Ỷ	-0.30103
-3.3890164	Tường	-0.72699875
-4.135466	Lưỡng	-0.30103
-3.8724701	Hang	-0.63827217
-3.591784	Sinh	-0.40823996
-4.3948264	Lôn	-0.30103
-4.135466	Khau	-0.30103
-3.8724701	Tinh	-0.30103
-3.49906	Năng	-0.6087934
-3.9843574	Khả	-0.30103
-3.2755942	Chiêm	-1.50515
-3.49906	Đài	-0.39120662
-2.8224647	Hàm	-0.81954396
-3.591784	Xa	-0.41497335
-3.6468108	Quí	-0.33724216
-4.135466	Chiêu	-0.30103
-4.3948264	Viện	-0.30103
-3.7835839	Chân	-0.7201593
-4.135466	Nhữ	-0.30103
-4.3948264	Trào	-0.30103
-3.9843574	Ấm	-0.30103
-4.135466	Cấp	-0.42596874
-3.8724701	Kháng	-0.30103
-3.2065241	Kế	-0.82011575
-3.6468108	Hào	-0.67966485
-3.3012948	Lào	-1.963158
-4.3948264	Lếu	-0.30103
-4.3948264	Lệnh	-0.30103
-3.8724701	Pom	-0.30103
-3.542952	Tăng	-0.42596874
-4.3948264	Tuyển	-0.30103
-4.3948264	Phời	-0.30103
-3.49906	San	-0.46943444
-4.3948264	Xát	-1.0413927
-2.7424097	A	-0.70774394
-4.3948264	Mú	-0.30103
-4.135466	Sung	-0.30103
-4.3948264	Chạc	-0.30103
-4.3948264	Lù	-0.30103
-3.9843574	Y	-0.30103
-4.3948264	Tý	-0.30103
-4.088622	Mỳ	-0.30103
-3.7835839	Sáng	-0.30103
-4.3948264	Vược	-0.30103
-3.8724701	Sàng	-0.3467875
-4.3948264	Sáo	-0.30103
-4.088622	Qua	-0.30103
-2.5950363	Mường	-0.62995696
-4.3948264	Xèo	-0.30103
-4.3948264	Hum	-0.30103
-4.135466	Lèng	-0.30103
-3.6468108	Pa	-0.84859574
-3.9843574	Cheo	-0.30103
-4.3948264	Pung	-0.30103
-4.135466	Ngan	-0.30103
-4.3948264	Sành	-0.30103
-3.709835	Pha	-0.30103
-4.3948264	Chồ	-0.30103
-4.135466	Dìn	-0.30103
-4.3948264	Chin	-0.30103
-4.3948264	Chảy	-0.30103
-4.3948264	Khấu	-0.30103
-4.088622	Nhin	-0.30103
-3.8724701	Lầu	-0.43572855
-4.3948264	Pan	-0.30103
-4.088622	Tẩn	-0.30103
-3.3012948	Si	-0.90309
-4.135466	Thào	-0.42596874
-2.7141082	Chư	-0.8253074
-4.3948264	Mế	-0.30103
-4.088622	Thẩn	-0.30103
-4.3948264	Cấu	-0.30103
-3.9843574	Sín	-0.30103
-4.3948264	Chéng	-0.30103
-3.709835	Phình	-0.33881855
-4.3948264	Van	-0.30103
-3.2283492	Củ	-1.2648178
-3.9843574	Thải	-0.36797678
-4.3948264	Liền	-0.30103
-4.088622	Hối	-0.30103
-3.9843574	Mòn	-0.38021123
-4.3948264	Đét	-0.30103
-4.135466	Nhai	-1.0334238
-4.3948264	Lúc	-0.30103
-4.088622	N.T	-0.42596874
-4.088622	Lu	-0.30103
-4.088622	Tằng	-0.30103
-4.3948264	Loỏng	-0.30103
-4.3948264	Phiệt	-0.30103
-4.135466	Cầm	-0.30103
-4.088622	Niên	-0.30103
-3.0333016	Giao	-0.6205434
-3.709835	Nhuận	-0.6423546
-4.3948264	Ràng	-0.30103
-4.3948264	Cọn	-0.30103
-3.165912	Sa	-0.7696769
-3.8724701	Chỉ	-0.30103
-4.088622	Păng	-0.30103
-4.088622	Rồng	-0.30103
-4.088622	Mây	-0.5228787
-3.8724701	Bo	-0.30103
-4.3948264	Mả	-0.30103
-3.8724701	Rạng	-0.43933266
-4.3948264	Chầy	-0.30103
-4.3948264	Xé	-0.30103
-4.135466	Dần	-0.30103
-3.7835839	Chiềng	-0.3174204
-4.3948264	Ken	-0.30103
-4.135466	Làng	-0.30103
-4.3948264	Tha	-0.30103
-4.135466	Thẩm	-0.30103
-4.3948264	Xây	-0.30103
-3.8724701	Noong	-0.30103
-4.088622	Bua	-0.30103
-4.135466	Him	-0.30103
-4.088622	Tấu	-0.69897
-3.9843574	Phăng	-0.36797678
-4.135466	Pá	-0.3195134
-4.088622	Khoang	-0.30103
-3.7835839	Lay	-0.30103
-3.542952	Nưa	-0.50194484
-4.3948264	Nhé	-0.7781512
-3.9843574	Leng	-0.36797678
-3.1113331	Sìn	-1.1827219
-4.088622	Kè	-0.71600336
-4.088622	Toong	-0.30103
-4.135466	Huổi	-0.30103
-4.3948264	Lếnh	-0.30103
-3.1469467	Trấn	-0.76793206
-3.8724701	Chà	-0.54935366
-3.9843574	Hừa	-0.30103
-4.3948264	Mí	-0.30103
-4.3948264	Ham	-0.30103
-4.3948264	Nèn	-0.30103
-4.088622	Lông	-0.30103
-4.3948264	Thì	-0.30103
-3.7835839	Sang	-0.47712123
-4.3948264	Mươn	-0.30103
-3.328613	Tủa	-0.96523786
-3.8724701	Chùa	-0.6850342
-4.3948264	Só	-0.30103
-4.3948264	Nhè	-0.30103
-4.3948264	Đun	-0.30103
-4.3948264	Báng	-0.30103
-3.1469467	Tuần	-1.2253093
-3.9843574	Mùn	-0.30103
-3.7835839	Ta	-0.30103
-3.8724701	Pú	-0.30103
-4.3948264	Xi	-0.30103
-4.3948264	Nhung	-0.30103
-4.135466	Quài	-0.30103
-4.3948264	Thín	-0.30103
-4.135466	Tỏa	-0.30103
-4.088622	Tình	-0.30103
-4.3948264	Sáy	-0.30103
-4.3948264	Khong	-0.30103
-3.6468108	Cang	-0.5351132
-3.9843574	Tở	-0.38021123
-4.135466	Tênh	-0.30103
-4.3948264	Phông	-0.30103
-4.3948264	Pồn	-0.30103
-4.135466	Hua	-0.30103
-3.3577652	Xương	-0.977237
-3.8724701	Chăn	-0.30103
-4.088622	Thơm	-0.30103
-4.3948264	Luống	-0.30103
-4.135466	Noọng	-0.30103
-4.3948264	Hẹt	-0.30103
-3.7835839	Sam	-0.30103
-4.3948264	Mứn	-0.30103
-4.088622	Lót	-0.30103
-4.135466	Núa	-0.30103
-3.9843574	Hẹ	-0.30103
-4.3948264	Muông	-0.30103
-4.3948264	Ư	-0.30103
-3.3890164	Nhà	-0.7040495
-3.8724701	Tông	-0.3258536
-4.3948264	Lói	-0.30103
-4.135466	Phu	-0.30103
-4.3948264	Son	-0.30103
-4.088622	Nhừ	-0.30103
-3.8724701	Sơ	-0.30103
-3.8724701	Luân	-0.30103
-3.8724701	Nhi	-0.30103
-4.135466	Nong	-0.30103
-3.3012948	U	-1.146128
-4.135466	Dung	-0.56427145
-4.135466	Keo	-0.30103
-4.3948264	Lôm	-0.30103
-3.7835839	Giới	-0.30103
-4.135466	Tìa	-0.30103
-4.3948264	Dình	-0.30103
-4.135466	Háng	-0.30103
-3.9843574	Lìa	-0.30103
-4.3948264	Ảng	-0.74036264
-4.135466	Ngối	-0.30103
-4.3948264	Cáy	-0.30103
-4.135466	Ẳng	-0.30103
-3.8724701	Búng	-0.30103
-3.709835	Lịch	-0.45229766
-3.9843574	Lạn	-0.43572855
-4.3948264	Tin	-0.30103
-4.3948264	Pồ	-1
-4.3948264	Tần	-0.30103
-4.3948264	Hỳ	-0.30103
-4.3948264	Bủng	-0.30103
-4.3948264	Chua	-0.30103
-4.3948264	Khăn	-0.30103
-3.6468108	Vàng	-0.3187588
-3.709835	Đoàn	-0.64097804
-4.088622	Kết	-0.5563025
-4.135466	Sùng	-0.30103
-4.3948264	Phài	-0.30103
-3.7835839	Sin	-0.3357921
-4.135466	Nùng	-0.30103
-4.3948264	Hon	-0.30103
-4.088622	Tăm	-0.30103
-4.135466	Khun	-0.30103
-4.3948264	Há	-0.30103
-4.088622	Tè	-0.75467014
-4.3948264	Lũm	-0.30103
-3.6468108	Ka	-0.30103
-4.3948264	ủ	-0.30103
-3.709835	Vệ	-0.30103
-3.2283492	Mù	-1.0061603
-4.135466	Cả	-0.30103
-4.135466	Bum	-0.30103
-3.9843574	Khao	-0.30103
-3.8724701	Kan	-0.30103
-4.088622	Sô	-0.30103
-4.3948264	Lin	-0.30103
-4.3948264	Quai	-0.30103
-4.135466	Sà	-0.42596874
-4.088622	Dề	-0.30103
-4.3948264	Ngảo	-0.30103
-3.9843574	Pu	-0.36797678
-4.3948264	Cáp	-0.30103
-4.3948264	Cha	-0.30103
-4.3948264	Khoá	-0.30103
-3.6468108	Mô	-0.7653769
-4.3948264	Hẻo	-0.30103
-4.088622	Mạ	-0.30103
-3.9843574	Căn	-0.58827174
-3.9843574	Co	-0.30103
-4.3948264	Cuổi	-0.30103
-4.3948264	Hăn	-0.30103
-4.135466	Lả	-0.42596874
-3.7835839	Nhì	-0.30103
-3.9843574	Sì	-0.35902193
-4.3948264	Lở	-0.30103
-4.135466	Mồ	-0.35902193
-4.3948264	Vây	-0.30103
-4.3948264	Lìn	-0.30103
-4.135466	Dào	-0.30103
-4.088622	Pho	-0.30103
-4.135466	Hoang	-0.30103
-4.135466	Khổng	-0.30103
-4.3948264	Xe	-0.30103
-4.088622	So	-0.30103
-3.7835839	Suối	-0.32790214
-3.2513297	Than	-0.90309
-3.9843574	Mít	-0.38021123
-4.3948264	Mu	-0.30103
-4.135466	Mung	-0.30103
-4.135466	Khoen	-0.30103
-4.088622	On	-0.30103
-3.9843574	Thân	-0.34242266
-4.3948264	Thuộc	-0.30103
-4.3948264	Sỏ	-0.30103
-3.9843574	Pắc	-0.8187691
-4.3948264	Nhùn	-0.7781512
-4.3948264	Bun	-0.30103
-4.3948264	Manh	-0.30103
-4.3948264	Đao	-0.30103
-4.3948264	Pì	-0.30103
-4.3948264	Lề	-0.30103
-4.088622	Cọ	-0.30103
-4.088622	Đen	-0.30103
-4.3948264	Xôm	-0.30103
-4.088622	Cơi	-0.30103
-4.088622	Chiên	-0.30103
-4.3948264	Khay	-0.30103
-4.088622	Giôn	-0.30103
-4.3948264	Khinh	-0.30103
-4.3948264	Ơn	-0.30103
-4.088622	Sại	-0.30103
-4.3948264	ét	-0.30103
-4.135466	Phổng	-0.30103
-3.8724701	Lái	-0.30103
-3.9843574	é	-0.30103
-4.3948264	Khiêng	-0.30103
-4.3948264	Bám	-0.30103
-4.3948264	Bôm	-0.30103
-4.135466	Thôm	-0.30103
-4.088622	Lạnh	-0.30103
-4.135466	Bó	-0.30103
-3.9843574	Mười	-0.7124725
-4.135466	Púng	-0.30103
-4.088622	Tra	-0.30103
-4.3948264	Pấc	-0.30103
-3.8724701	Bon	-0.30103
-4.3948264	Phặng	-0.30103
-4.135466	Muổi	-0.30103
-4.088622	Nọi	-0.30103
-4.135466	Lầm	-0.30103
-4.088622	Ít	-0.30103
-4.3948264	Ong	-0.30103
-4.135466	Trai	-0.30103
-4.3948264	Păm	-0.30103
-4.3948264	Muôn	-0.30103
-4.135466	Pi	-0.30103
-4.135466	Tạ	-0.50514996
-4.088622	Bú	-0.30103
-4.3948264	Chùm	-0.30103
-4.3948264	Chú	-0.30103
-4.135466	Xím	-0.30103
-4.3948264	Xùa	-0.30103
-4.3948264	Chếu	-0.30103
-3.8724701	Chim	-0.30103
-4.3948264	Vàn	-0.30103
-4.3948264	Pe	-0.30103
-4.3948264	Tọ	-0.30103
-4.3948264	Bau	-0.30103
-3.8724701	Sập	-0.30103
-4.135466	Bang	-0.30103
-3.8724701	Đá	-0.30103
-3.9843574	Đỏ	-0.6892102
-3.0628538	Mộc	-0.9002971
-4.088622	NT	-0.42596874
-4.135466	Qui	-0.30103
-3.094565	Hướng	-0.7074032
-3.9843574	Hắc	-0.30103
-4.3948264	Khừa	-0.30103
-4.135466	Lóng	-0.30103
-4.3948264	Vạt	-0.30103
-4.088622	Pằn	-0.30103
-4.135466	Viêng	-0.30103
-4.3948264	Lán	-0.30103
-4.3948264	Hặc	-0.30103
-4.3948264	Lựm	-0.30103
-4.3948264	Khoi	-0.30103
-3.9843574	Nang	-0.38021123
-4.3948264	Khoài	-0.30103
-4.135466	Mương	-0.30103
-4.088622	Chanh	-0.30103
-4.3948264	Pó	-0.30103
-3.8724701	Cò	-0.30103
-4.3948264	Nòi	-0.30103
-4.3948264	Nơi	-0.30103
-4.3948264	Cằm	-0.30103
-4.088622	Dong	-0.30103
-4.3948264	Kheo	-0.30103
-4.3948264	Ve	-0.30103
-4.3948264	Ơt	-0.30103
-4.3948264	Hộc	-0.30103
-4.3948264	Pẩu	-0.30103
-4.3948264	Phung	-0.30103
-4.3948264	En	-0.30103
-4.088622	Ty	-0.30103
-4.135466	Đứa	-0.30103
-4.3948264	Nghịu	-0.30103
-4.3948264	Mằn	-0.30103
-4.3948264	Khoong	-0.30103
-3.8724701	Một	-0.73827976
-4.3948264	Sai	-0.30103
-4.088622	Hung	-0.30103
-3.7835839	Kha	-0.30103
-3.4226916	Sốp	-1.0791812
-4.3948264	Cộp	-0.6532125
-4.3948264	Bánh	-0.30103
-4.135466	Dồm	-0.30103
-4.3948264	Lèo	-0.30103
-3.6468108	Bàng	-0.76870966
-4.3948264	Khủa	-0.30103
-4.3948264	Múa	-0.30103
-4.088622	Men	-0.30103
-3.591784	Nha	-1.0826144
-3.8724701	Bái	-1.8330891
-3.8724701	Âu	-0.30103
-3.4591992	Lâu	-0.5136381
-4.135466	Phiên	-0.30103
-4.3948264	Trạng	-0.30103
-4.3948264	Thia	-0.30103
-3.6468108	Nham	-0.38818017
-4.135466	Thế	-0.80370533
-4.088622	Chuẩn	-0.30103
-4.3948264	Thíp	-0.30103
-4.135466	Cuông	-0.72699875
-4.135466	Dụ	-0.30103
-3.9843574	Ngòi	-0.30103
-4.135466	Tầm	-0.30103
-4.3948264	Phác	-0.30103
-3.4591992	Ái	-0.5155795
-3.0478265	Mỏ	-1.1526102
-4.3948264	Hẩu	-0.30103
-4.3948264	Căng	-1.30103
-4.3948264	Bốn	-0.30103
-4.3948264	Có	-0.30103
-4.3948264	Cu	-0.30103
-4.3948264	Phạ	-0.30103
-4.3948264	Pán	-0.30103
-4.135466	Dế	-0.42596874
-4.088622	Tạo	-0.30103
-4.3948264	Khắt	-0.30103
-4.135466	Báo	-0.30103
-3.8724701	Đáp	-0.30103
-3.6468108	Quy	-0.7781512
-2.9924326	Nga	-0.5710258
-4.3948264	Lau	-0.30103
-4.088622	Hu	-0.30103
-4.3948264	Lìu	-0.30103
-3.709835	Chấn	-0.85248
-4.3948264	Lành	-0.30103
-4.3948264	Bu	-0.30103
-3.9843574	Thác	-0.30103
-4.135466	Cảm	-0.30103
-3.7835839	Nghị	-0.39120662
-4.135466	Nánh	-0.30103
-4.3948264	Nghê	-0.30103
-4.3948264	Đắt	-0.30103
-4.088622	Pheo	-0.30103
-4.3948264	Chum	-0.30103
-4.088622	Ruộng	-0.30103
-4.3948264	Bôi	-0.9542425
-4.135466	Đú	-0.30103
-4.135466	Cuối	-0.30103
-3.9843574	Sào	-0.30103
-4.3948264	Báy	-0.30103
-3.9843574	Mi	-0.30103
-4.135466	Nuông	-0.30103
-4.3948264	Dăm	-0.30103
-4.135466	Thung	-0.30103
-4.135466	Nai	-1.8432328
-4.135466	Nê	-0.30103
-4.135466	Ngổ	-0.30103
-4.088622	Kia	-0.30103
-4.135466	Cun	-0.30103
-3.8724701	Bao	-0.30103
-3.9843574	Đậu	-0.30103
-4.3948264	Phòn	-0.30103
-4.135466	Săm	-0.30103
-4.3948264	Khóe	-0.30103
-4.3948264	Hịch	-0.30103
-3.1857436	Vụ	-1.0791812
-4.135466	Miền	-0.30103
-3.7835839	Đồi	-0.30103
-4.135466	Tuân	-0.30103
-4.135466	Nhượng	-0.30103
-3.7835839	Nghiệp	-0.34242266
-3.9843574	Khoan	-0.30103
-3.6468108	Bồng	-0.6892102
-3.7835839	Vương	-0.47712123
-4.135466	Giá	-0.9433846
-4.3948264	Trìu	-0.30103
-3.49906	Cương	-0.44235915
-3.9843574	Ngạn	-1.1072099
-4.3948264	Bẩm	-0.30103
-4.135466	Huống	-0.30103
-4.3948264	Chè	-0.30103
-3.8724701	Vỹ	-0.30103
-3.9843574	Điềm	-0.30103
-4.3948264	Mặc	-0.30103
-4.3948264	Nhiêu	-0.30103
-4.135466	Đu	-0.30103
-4.088622	Đổ	-0.30103
-3.9843574	Ôn	-0.7871061
-3.709835	Đạt	-0.35902193
-3.8724701	Tức	-0.30103
-4.088622	Tranh	-0.38021123
-4.135466	Phấn	-0.30103
-4.3948264	Cau	-0.30103
-3.9843574	Khe	-0.30103
-4.3948264	Mo	-0.30103
-3.9843574	Cây	-0.3290587
-4.135466	Nghinh	-0.30103
-4.135466	Thần	-0.30103
-4.135466	Nung	-0.30103
-3.7835839	Hiên	-0.30103
-3.9843574	Mao	-0.30103
-3.7835839	Phục	-0.33881855
-3.9843574	Ngoại	-0.42596874
-3.3890164	Cù	-0.8269998
-3.8724701	Khôi	-0.30103
-4.135466	Ký	-0.30103
-3.8724701	Bãi	-0.30103
-3.6468108	Phổ	-0.6673923
-3.9843574	Nhã	-0.30103
-4.135466	Úc	-0.30103
-4.135466	My	-0.9307614
-2.967178	Lạng	-1.8103716
-3.6468108	Kinh	-0.89978737
-4.3948264	Thuật	-0.30103
-4.088622	Sầm	-1.0188854
-4.3948264	Tác	-0.30103
-4.3948264	Hoan	-0.30103
-4.3948264	Miễn	-0.30103
-3.9843574	Nhạc	-0.30103
-4.3948264	Lòa	-0.30103
-4.3948264	Đạn	-0.30103
-4.3948264	He	-0.30103
-3.8724701	Các	-0.30103
-4.3948264	ý	-0.30103
-3.591784	Sao	-0.40170014
-4.3948264	Tịch	-0.30103
-3.1469467	Khoái	-1.3761712
-4.3948264	Mịch	-0.30103
-4.3948264	Bục	-0.30103
-4.3948264	Đoạn	-0.30103
-4.135466	Khuất	-0.30103
-4.135466	Sàn	-0.30103
-3.9843574	Lân	-0.38021123
-3.4226916	Bác	-0.845098
-3.9843574	Bính	-0.30103
-4.3948264	Khẩu	-0.30103
-4.3948264	Xanh	-0.30103
-4.135466	Giếng	-0.30103
-4.3948264	Đáy	-0.30103
-3.3012948	Tu	-0.94729364
-4.3948264	Cháy	-0.30103
-3.8724701	Hoành	-0.39120662
-4.3948264	Móng	-1.3553877
-4.3948264	Thực	-0.30103
-3.7835839	Phả	-0.8187691
-3.7835839	Ông	-0.30103
-3.6468108	Hanh	-0.3756636
-3.9843574	Danh	-0.30103
-4.3948264	Uông	-1.1249387
-4.3948264	Bí	-0.8239087
-3.7835839	Liêu	-1.345137
-4.3948264	Ngại	-0.30103
-4.3948264	Hồn	-0.30103
-3.9843574	Húc	-0.30103
-4.3948264	Rui	-0.30103
-3.0478265	Đầm	-1.1856365
-4.3948264	Chẽ	-0.6532125
-4.135466	Đạp	-0.30103
-4.3948264	Đạc	-0.30103
-4.3948264	Vừng	-0.30103
-4.135466	Mạo	-0.30103
-4.3948264	Khoai	-0.30103
-4.3948264	Hãn	-0.30103
-3.7835839	Dĩnh	-0.30103
-4.088622	Hưu	-0.30103
-4.088622	Phồn	-0.30103
-4.088622	Sỏi	-0.30103
-4.3948264	Cốt	-0.30103
-4.088622	Vôi	-0.30103
-4.088622	Kép	-0.30103
-4.135466	Khám	-0.30103
-4.088622	Chũ	-0.30103
-3.9843574	Cấm	-0.30103
-3.6468108	Hộ	-0.30103
-3.9843574	Biển	-0.40369233
-3.8724701	Trù	-0.30103
-3.709835	Hựu	-0.30103
-3.9843574	Đèo	-0.30103
-3.8724701	Luận	-0.30103
-4.3948264	Biền	-0.30103
-3.9843574	Gián	-0.30103
-3.709835	Cảnh	-0.30103
-4.3948264	Mại	-0.30103
-4.088622	Nếnh	-0.30103
-3.0628538	Đoan	-1.0999649
-4.135466	Dữu	-0.30103
-3.709835	Cơ	-0.5843313
-3.3890164	Trang	-0.7781512
-4.088622	Hạc	-0.30103
-2.967178	Bến	-1.4832816
-4.3948264	Gót	-0.30103
-3.8724701	Lô	-0.8822399
-3.9843574	Hy	-0.30103
-3.9843574	Lung	-0.30103
-4.3948264	Doãn	-0.30103
-4.088622	Đám	-0.30103
-3.9843574	Kiện	-0.30103
-3.8724701	Tiêu	-0.30103
-4.3948264	Mộng	-0.30103
-4.3948264	Xạ	-0.30103
-4.3948264	Áng	-0.30103
-4.3948264	Luật	-0.30103
-4.088622	Côi	-0.30103
-3.9843574	Khải	-0.30103
-4.135466	Mạn	-0.30103
-4.3948264	Thản	-0.30103
-4.3948264	Bán	-0.30103
-4.3948264	Dẫn	-0.30103
-3.6468108	Tập	-0.39378405
-3.8724701	Khúc	-0.30103
-3.9843574	Dưỡng	-0.30103
-4.135466	Điêu	-0.30103
-4.3948264	Hoá	-0.30103
-4.135466	Tề	-0.30103
-4.088622	Thao	-0.69897
-4.135466	Địch	-0.30103
-4.088622	Quả	-0.30103
-4.135466	Thục	-0.30103
-4.3948264	Luyện	-0.30103
-4.3948264	Khoán	-0.30103
-4.135466	Tất	-0.30103
-3.6468108	Cửu	-0.5797836
-4.088622	Nhuệ	-0.30103
-3.7835839	Kiệt	-0.30103
-4.3948264	Trắc	-0.30103
-4.3948264	Viêm	-0.30103
-3.9843574	Liễn	-0.30103
-4.3948264	Trục	-0.30103
-4.3948264	Giản	-0.30103
-3.8724701	Ích	-0.30103
-4.3948264	Lữ	-0.90309
-3.2065241	Duy	-0.67402756
-4.088622	Đảo	-0.71321046
-4.135466	Nguyệt	-0.39120662
-4.3948264	Tang	-0.30103
-4.088622	Lựu	-0.30103
-4.135466	Nhạo	-0.30103
-4.135466	Khắc	-0.30103
-3.8724701	Niệm	-0.30103
-3.9843574	Hạp	-0.30103
-4.088622	Chờ	-0.30103
-4.3948264	Giả	-0.30103
-4.088622	Lim	-0.30103
-4.3948264	Bão	-0.30103
-4.135466	Phật	-0.30103
-3.9843574	Ngàn	-0.30103
-4.3948264	Chẩn	-0.30103
-4.135466	Mão	-0.30103
-4.3948264	Ngâm	-0.30103
-4.3948264	Cứu	-0.30103
-4.088622	Thứa	-0.30103
-3.542952	Tài	-0.71213144
-3.49906	Kênh	-0.3320642
-4.135466	Trừng	-0.30103
-4.3948264	Hàn	-0.30103
-4.3948264	Tắm	-0.30103
-4.088622	Sách	-1.0543576
-4.135466	Thứ	-0.32735893
-4.088622	Vu	-0.30103
-4.3948264	Đính	-0.30103
-4.3948264	Lỗi	-0.30103
-4.088622	Kẻ	-0.30103
-4.3948264	Sặt	-0.30103
-4.135466	Thúc	-0.30103
-4.3948264	Bì	-0.30103
-4.135466	Tái	-0.30103
-4.135466	Tố	-0.30103
-4.3948264	Hoè	-0.30103
-4.3948264	Miện	-0.9542425
-4.3948264	Toan	-0.30103
-4.088622	Phòng	-2.463395
-3.2755942	Dầu	-0.9118052
-4.3948264	Chuối	-0.30103
-4.3948264	Bội	-0.30103
-4.3948264	Chai	-0.30103
-3.6468108	Tơ	-0.6833649
-3.8724701	Tre	-1.7546031
-3.328613	Đất	-0.73282826
-4.135466	Lạch	-0.30103
-4.3948264	Tray	-0.30103
-4.135466	Dài	-0.30103
-4.3948264	Trữ	-0.30103
-4.3948264	Ngọ	-0.30103
-4.3948264	Đẩu	-0.30103
-3.709835	Đồ	-0.90309
-3.128775	Núi	-0.76955104
-3.9843574	Kiền	-0.30103
-4.3948264	Đối	-0.30103
-3.8724701	Khởi	-0.30103
-4.088622	Am	-0.30103
-3.8724701	Trân	-0.30103
-4.3948264	nan	-0.5228787
-3.8724701	Chiểu	-0.6532125
-4.3948264	Dù	-0.30103
-4.135466	Trụ	-0.6368221
-4.135466	Bần	-0.42596874
-4.3948264	Ủng	-0.30103
-4.3948264	Sậy	-0.30103
-3.7835839	Dạ	-0.30103
-3.3012948	Thủ	-1.3407027
-4.3948264	Phiến	-0.30103
-4.088622	Cừ	-0.8750613
-4.135466	Tống	-0.30103
-3.9843574	Điệp	-0.6784483
-4.135466	Á	-0.30103
-3.9843574	Diêm	-0.30103
-3.9843574	Tuyền	-0.39794
-4.3948264	Tiết	-0.30103
-3.9843574	Đinh	-0.42596874
-4.135466	Trác	-0.30103
-4.3948264	Úy	-0.30103
-3.7835839	Tượng	-0.40170014
-4.088622	Gôi	-0.30103
-3.8724701	Hiển	-0.54406804
-3.0056329	Ý	-1.6163005
-4.088622	Quỹ	-0.30103
-3.8724701	Cồn	-0.30103
-3.07842	Nho	-1.1903317
-4.135466	Xích	-0.30103
-4.135466	Me	-0.30103
-4.088622	Tôn	-0.8325089
-3.9843574	Phát	-0.30103
-4.088622	Diệm	-0.30103
-4.135466	Chất	-0.30103
-4.3948264	Thoi	-0.30103
-4.3948264	Trạo	-0.30103
-3.0056329	Thiệu	-0.5853543
-3.8724701	Tào	-0.30103
-2.9098043	Hoằng	-0.57949424
-4.3948264	Bỉm	-0.97003675
-3.9843574	Lát	-0.60206
-4.135466	Cành	-0.30103
-4.3948264	Thước	-1.146128
-4.3948264	Ống	-0.30103
-4.3948264	Mìn	-0.30103
-3.165912	Chánh	-0.6966161
-4.3948264	Lặc	-1.0413927
-4.135466	Thúy	-0.30103
-4.088622	Ấn	-0.30103
-4.135466	Hoạt	-0.30103
-4.3948264	Toại	-0.30103
-3.094565	Diên	-0.5733574
-4.3948264	Mọt	-0.30103
-4.3948264	Lẹ	-0.30103
-4.135466	Khuyến	-0.30103
-4.3948264	Toán	-0.30103
-4.088622	Bút	-0.30103
-4.135466	Ngư	-0.46375728
-4.088622	Vịnh	-0.30103
-4.3948264	Trành	-0.30103
-2.8052297	Nghi	-0.75722826
-4.088622	Rừng	-0.30103
-3.1857436	Nghệ	-2.6130192
-3.3890164	Bàu	-0.5290391
-4.088622	Cung	-0.30103
-4.3948264	Lò	-0.66900676
-4.3948264	Giải	-0.30103
-4.3948264	Nọc	-0.30103
-4.3948264	Nhoóng	-0.30103
-4.135466	Căm	-0.30103
-4.3948264	Xén	-0.30103
-4.135466	Keng	-0.30103
-4.135466	Đoọc	-0.30103
-4.3948264	Mạy	-0.30103
-4.135466	Huồi	-0.30103
-4.3948264	Lống	-0.30103
-4.3948264	Loi	-0.30103
-4.3948264	Cắn	-0.30103
-4.135466	Phà	-0.30103
-4.3948264	Đánh	-0.30103
-4.3948264	Cạ	-0.30103
-4.3948264	Típ	-0.30103
-4.3948264	Ải	-0.30103
-4.3948264	Ngoi	-0.30103
-4.3948264	Càn	-0.30103
-4.135466	Nhôn	-0.30103
-4.3948264	Khuông	-0.30103
-4.135466	Xiêng	-0.30103
-4.3948264	Lượng	-0.30103
-4.3948264	Giát	-0.30103
-4.088622	Đôi	-0.30103
-4.088622	Kỷ	-0.30103
-4.135466	Bồi	-0.30103
-4.3948264	Nài	-0.30103
-4.3948264	Ảnh	-0.30103
-3.7835839	Bùi	-0.39794
-4.135466	Cỗ	-0.30103
-3.9843574	Đạm	-0.30103
-4.088622	Nghèn	-0.30103
-4.3948264	Hới	-1
-4.088622	Nẫm	-0.30103
-4.3948264	Hàu	-0.30103
-3.2755942	4	-1.161368
-3.2513297	5	-1.146128
-3.2065241	3	-0.9672075
-4.3948264	Chấp	-0.30103
-4.088622	Sanh	-0.30103
-4.3948264	Tầng	-0.30103
-4.088622	Dơi	-0.85733247
-4.135466	Xy	-0.30103
-3.2513297	Gio	-0.73827976
-2.600275	Krông	-1.0625556
-4.3948264	Klang	-0.30103
-4.135466	Mò	-0.30103
-4.3948264	Ó	-0.30103
-4.3948264	Lòng	-0.30103
-4.3948264	Nghì	-0.30103
-4.3948264	Vao	-0.30103
-4.3948264	Rụt	-0.30103
-4.088622	Bung	-0.30103
-4.088622	Ngo	-0.30103
-2.7886524	Phước	-0.87750316
-4.3948264	Cỏ	-0.30103
-3.3890164	Thừa	-1.7860413
-4.135466	Đúc	-0.30103
-4.3948264	Cựu	-0.30103
-4.3948264	Biều	-0.30103
-4.088622	Sịa	-0.30103
-3.8724701	Vang	-0.8553172
-4.088622	Chữ	-0.30103
-4.3948264	Lưới	-0.9777236
-4.088622	Nhâm	-0.30103
-4.3948264	Roàng	-0.30103
-4.3948264	Đớt	-0.30103
-4.088622	Bổn	-0.30103
-4.3948264	Nẵng	-2.1760912
-4.135466	Thạc	-0.30103
-4.3948264	Thang	-0.30103
-3.8724701	I	-0.30103
-3.9843574	II	-0.30103
-3.9843574	Nại	-0.36797678
-4.135466	Mân	-0.30103
-3.0333016	Nhơn	-0.75099903
-2.7424097	Thạnh	-0.8993586
-4.3948264	Phô	-0.30103
-4.135466	Ch'ơm	-0.30103
-3.9843574	Ga	-0.30103
-4.088622	Ri	-0.30103
-4.3948264	Xan	-0.30103
-4.135466	Tr'Hy	-0.30103
-4.3948264	Tiêng	-0.30103
-4.135466	Bha	-0.30103
-3.9843574	Dang	-0.30103
-4.088622	P	-0.30103
-4.088622	Rao	-0.30103
-4.3948264	Kôn	-0.30103
-3.9843574	Jơ	-0.30103
-4.3948264	Ngây	-0.30103
-4.3948264	Ting	-0.30103
-4.3948264	Rooi	-0.30103
-4.135466	Za	-0.30103
-4.135466	Mà	-0.30103
-4.3948264	Cooi	-0.30103
-4.3948264	Dăng	-0.30103
-3.709835	Lãnh	-1.0184834
-4.135466	Laêê	-0.30103
-4.135466	Chơ	-0.30103
-4.3948264	Chun	-0.30103
-4.135466	Zuôich	-0.30103
-4.3948264	Pơơ	-0.30103
-4.3948264	Dêê	-0.30103
-4.3948264	Tôi	-0.30103
-4.3948264	Vàl	-0.30103
-4.3948264	Bhinh	-0.30103
-4.3948264	Dy	-0.30103
-4.3948264	Pre	-0.30103
-4.3948264	Pring	-0.30103
-4.3948264	Kót	-0.30103
-4.3948264	Nú	-0.30103
-4.3948264	Bui	-0.30103
-4.3948264	Giác	-0.30103
-4.3948264	Dơn	-0.30103
-4.088622	Don	-0.30103
-3.3012948	Ngãi	-1.4277164
-4.3948264	Dõng	-0.30103
-3.542952	Tịnh	-0.55720353
-4.3948264	Ổ	-0.30103
-4.3948264	Xinh	-0.30103
-4.088622	Thương	-0.30103
-4.3948264	Mùa	-0.30103
-4.3948264	Màu	-0.30103
-3.9843574	Dinh	-0.42596874
-4.3948264	Lế	-0.30103
-4.3948264	Cảng	-0.30103
-4.135466	Ghềnh	-0.30103
-4.3948264	Ráng	-0.30103
-3.9843574	Đak	-0.3332147
-4.135466	Bok	-0.30103
-4.3948264	Tới	-0.30103
-4.135466	Đập	-0.30103
-4.088622	Diêu	-0.30103
-3.2065241	8	-1.1303338
-4.135466	9	-0.9542425
-3.3890164	7	-1.1249387
-3.2513297	6	-1.0791812
-4.3948264	Mỡ	-0.30103
-4.088622	Củng	-0.30103
-4.3948264	Lúi	-0.30103
-4.135466	Eachà	-0.30103
-4.3948264	Rang	-0.30103
-4.088622	Riêng	-0.30103
-4.3948264	Hinh	-0.7781512
-2.8688056	Ea	-0.47061834
-4.135466	EaBar	-0.30103
-4.135466	EaBia	-0.30103
-4.135466	EaTrol	-0.30103
-4.135466	Ealy	-0.30103
-4.088622	Huân	-0.30103
-4.3948264	Ranh	-1
-4.3948264	Sim	-0.30103
-4.3948264	Cụm	-0.30103
-4.088622	Tồn	-0.30103
-4.3948264	Rang-Tháp	-1.3290588
-4.3948264	Chàm	-1.0280287
-3.6468108	Tấn	-0.30103
-4.3948264	Nới	-0.30103
-4.3948264	Ná	-0.30103
-3.9843574	Mũi	-0.30103
-4.088622	Né	-0.30103
-4.3948264	Hài	-0.30103
-4.3948264	Gi	-0.7781512
-4.3948264	Rí	-0.30103
-4.3948264	Lũy	-0.30103
-4.3948264	Mán	-0.30103
-3.328613	Tánh	-1.0871502
-4.3948264	Ngâu	-0.30103
-4.3948264	Khiêm	-0.30103
-3.9843574	Măng	-0.30103
-4.135466	Kho	-0.30103
-4.3948264	Huynh	-0.30103
-3.9843574	Kiết	-0.38021123
-4.3948264	Xu	-0.30103
-4.3948264	Kai	-0.30103
-2.979622	Kon	-1.4412087
-4.3948264	Tum	-1.8948697
-2.58986	Đắk	-1.0405519
-4.135466	Kroong	-0.30103
-3.9843574	Ngọk	-0.30103
-4.3948264	Bay	-0.30103
-4.3948264	Blà	-0.30103
-3.0056329	Ia	-0.41210037
-2.979622	Đăk	-0.7299632
-4.3948264	Hreng	-0.30103
-3.9843574	Rơ	-0.30103
-4.3948264	Wa	-0.30103
-4.3948264	Glei	-0.81291336
-4.3948264	Blô	-0.30103
-4.3948264	Man	-0.30103
-4.3948264	Nhoong	-0.30103
-4.3948264	Pék	-0.30103
-4.3948264	Choong	-0.30103
-4.135466	Xốp	-0.30103
-4.3948264	Hoong	-0.30103
-4.3948264	KRoong	-0.30103
-4.088622	Plei	-0.30103
-4.3948264	Kần	-0.30103
-4.3948264	Ang	-0.30103
-4.3948264	Xú	-0.30103
-3.9843574	Bờ	-0.30103
-4.3948264	Loong	-0.30103
-4.3948264	Trăm	-0.30103
-4.3948264	Lem	-0.30103
-3.9843574	Pô	-0.30103
-4.3948264	Kô	-0.30103
-4.3948264	Nên	-0.30103
-4.3948264	Plông	-0.7781512
-4.3948264	Ring	-0.30103
-4.3948264	Buk	-0.30103
-4.135466	Ngok	-0.30103
-4.3948264	Tem	-0.30103
-4.088622	Ê	-0.30103
-4.3948264	Rve	-0.30103
-4.3948264	Rẫy	-0.66900676
-4.3948264	Kôi	-0.30103
-4.3948264	Ruồng	-0.30103
-4.088622	Pne	-0.30103
-4.088622	Tờ	-0.30103
-4.3948264	Re	-0.30103
-4.3948264	PXi	-0.30103
-4.3948264	HRing	-0.30103
-4.3948264	Ui	-0.30103
-4.3948264	Mar	-0.30103
-4.3948264	Wang	-0.30103
-4.3948264	Réo	-0.30103
-4.3948264	Thầy	-0.7781512
-4.3948264	Kơi	-0.30103
-4.135466	Hơ	-0.30103
-4.3948264	Moong	-0.30103
-4.088622	Rai	-0.74036264
-3.8724701	Ya	-0.31575325
-4.3948264	Xiêr	-0.30103
-4.3948264	ly	-0.30103
-4.088622	Lây	-0.30103
-4.135466	Mơ	-0.86033803
-4.088622	Rông	-0.90309
-4.3948264	Yêu	-0.30103
-4.135466	Tê	-0.30103
-4.3948264	Xăng	-0.30103
-4.3948264	Xuôi	-0.30103
-4.3948264	Đal	-0.30103
-3.9843574	H'	-0.50514996
-4.3948264	Drai	-0.30103
-4.3948264	Dom	-0.30103
-4.3948264	Tơi	-0.30103
-4.3948264	Pleiku	-1.1663314
-4.3948264	Kring	-0.30103
-4.135466	Gào	-0.30103
-4.3948264	Reo	-0.30103
-4.135466	Ayun	-0.7781512
-4.3948264	RBol	-0.30103
-4.3948264	Băh	-0.30103
-4.3948264	RTô	-0.30103
-3.2513297	KBang	-0.80618
-4.3948264	Roong	-0.30103
-4.135466	KRong	-0.30103
-4.3948264	Pai	-0.30103
-4.135466	Lơ	-0.30103
-4.3948264	Ku	-0.30103
-4.3948264	SMar	-0.30103
-3.2513297	Kông	-0.8596243
-4.3948264	Lơng	-0.30103
-4.3948264	Khơng	-0.30103
-4.3948264	Pla	-0.30103
-4.3948264	HLơ	-0.30103
-4.3948264	Đoa	-0.9542425
-4.3948264	Sơmei	-0.30103
-4.3948264	Krong	-0.30103
-3.6468108	Yang	-0.52489406
-4.3948264	Gang	-0.30103
-4.3948264	Bầu	-0.30103
-3.9843574	K'	-0.30103
-4.3948264	Neng	-0.30103
-4.135466	Glar	-0.30103
-4.088622	Dơk	-0.30103
-4.135466	HNol	-0.30103
-4.3948264	Pết	-0.30103
-3.9843574	Băng	-0.3467875
-4.3948264	Păh	-0.97003675
-4.3948264	Khươl	-0.30103
-4.3948264	Phí	-0.30103
-4.3948264	Kreng	-0.30103
-4.3948264	Ver	-0.30103
-4.3948264	Grai	-0.9378521
-4.3948264	Yok	-0.30103
-4.3948264	Hrung	-0.30103
-4.3948264	Bă	-0.30103
-4.3948264	KRai	-0.30103
-4.3948264	Grăng	-0.30103
-4.3948264	O	-0.30103
-4.3948264	Dêr	-0.30103
-4.3948264	Chia	-0.30103
-4.3948264	Pếch	-0.30103
-4.3948264	Dơng	-0.30103
-4.3948264	Ley	-0.30103
-4.135466	Hra	-0.30103
-4.3948264	Yă	-0.30103
-4.3948264	Djrăng	-0.30103
-4.088622	Pang	-0.30103
-4.3948264	Thụp	-0.30103
-4.135466	Đê	-0.30103
-4.3948264	Ar	-0.30103
-4.3948264	Chiêng	-0.30103
-4.3948264	Chro	-0.8750613
-4.3948264	Krêy	-0.30103
-4.135466	SRó	-0.30103
-4.3948264	Kơ	-0.30103
-4.088622	Ning	-0.30103
-4.3948264	Pling	-0.30103
-4.088622	Pơ	-0.58827174
-4.3948264	Krêl	-0.30103
-4.3948264	Din	-0.30103
-4.3948264	Kla	-0.30103
-4.3948264	Kriêng	-0.30103
-4.3948264	Pnôn	-0.30103
-4.3948264	Nan	-0.30103
-4.088622	Prông	-0.9444827
-4.088622	Kly	-0.30103
-4.135466	Drăng	-0.30103
-4.088622	Cạn	-0.30103
-4.3948264	Tôr	-0.30103
-4.3948264	Boòng	-0.30103
-4.3948264	Púch	-0.30103
-4.3948264	Vê	-0.30103
-4.3948264	Pia	-0.30103
-4.3948264	Piơr	-0.30103
-4.3948264	Sê	-0.90309
-4.3948264	Tiêm	-0.30103
-3.9843574	Pơng	-0.30103
-3.9843574	Bar	-0.30103
-4.3948264	Măih	-0.30103
-4.3948264	Ngoong	-0.30103
-4.3948264	Glai	-0.30103
-4.135466	AL	-0.30103
-4.3948264	HTok	-0.30103
-4.135466	AYun	-0.30103
-4.3948264	HLốp	-0.30103
-4.088622	Blang	-0.30103
-4.135466	Dun	-0.30103
-4.088622	Pal	-0.30103
-4.135466	H	-0.30103
-4.3948264	Ko	-0.30103
-4.3948264	Tó	-0.30103
-4.088622	Răng	-0.60206
-4.3948264	KDăm	-0.30103
-4.088622	Tul	-0.30103
-4.3948264	Rơn	-0.30103
-4.3948264	Broăi	-0.30103
-4.3948264	Trok	-0.30103
-4.3948264	RSai	-0.30103
-4.3948264	RSươm	-0.30103
-4.3948264	Gu	-0.30103
-4.3948264	Mláh	-0.30103
-4.3948264	HDreh	-0.30103
-4.3948264	RMok	-0.30103
-4.135466	Uar	-0.30103
-4.3948264	Rcăm	-0.30103
-4.3948264	Thai	-0.30103
-4.3948264	Ake	-0.30103
-4.088622	Sol	-0.30103
-4.3948264	Piar	-0.30103
-4.3948264	Peng	-0.30103
-4.135466	Chrôh	-0.30103
-4.3948264	Pơnan	-0.30103
-4.088622	Hiao	-0.30103
-4.3948264	Yeng	-0.30103
-4.3948264	Pưh	-0.7781512
-4.3948264	Hrú	-0.30103
-4.088622	Rong	-0.30103
-4.3948264	Dreng	-0.30103
-4.3948264	Hla	-0.30103
-4.3948264	Phang	-0.30103
-4.3948264	Le	-0.30103
-4.3948264	BLứ	-0.30103
-3.3890164	Buôn	-1.055181
-4.3948264	Thuột	-1.146128
-3.3890164	Lắk	-2.107775
-4.3948264	ÊBur	-0.30103
-4.088622	Kao	-0.30103
-4.3948264	Drông	-0.30103
-4.3948264	Siên	-0.30103
-4.3948264	H'leo	-0.81291336
-4.3948264	Ral	-0.30103
-4.3948264	Wy	-0.30103
-4.088622	Mốt	-0.30103
-4.3948264	Khal	-0.30103
-3.9843574	Dliê	-0.30103
-4.3948264	Tir	-0.30103
-4.3948264	Súp	-0.74036264
-4.3948264	Lốp	-0.30103
-4.3948264	JLơi	-0.30103
-4.3948264	Rốk	-0.30103
-4.3948264	RVê	-0.30103
-4.3948264	M'Lan	-0.30103
-4.3948264	Huar	-0.30103
-4.088622	Wer	-0.30103
-4.135466	Cuôr	-0.30103
-4.3948264	KNia	-0.30103
-4.3948264	Nuôl	-0.30103
-4.3948264	Pốk	-0.30103
-4.3948264	M'gar	-0.9542425
-4.3948264	Kuêh	-0.30103
-4.3948264	Tar	-0.30103
-4.3948264	M'nông	-0.30103
-4.3948264	H'đinh	-0.30103
-4.3948264	KPam	-0.30103
-4.3948264	M'DRóh	-0.30103
-4.3948264	D'Rơng	-0.30103
-4.3948264	M'nang	-0.30103
-4.3948264	Suê	-0.30103
-4.135466	Cuor	-0.30103
-4.135466	Búk	-0.54406804
-4.3948264	KBô	-0.30103
-4.3948264	Drang	-0.30103
-4.3948264	Ngai	-0.30103
-4.135466	ĐLiê	-0.30103
-4.3948264	Tóh	-0.30103
-4.3948264	Puk	-0.30103
-4.3948264	Dăh	-0.30103
-4.3948264	Klông	-0.30103
-4.3948264	Kar	-0.9294189
-4.3948264	Knốp	-0.30103
-4.088622	Sar	-0.30103
-4.3948264	Huê	-0.30103
-4.3948264	Tih	-0.30103
-4.3948264	Đar	-0.30103
-4.3948264	Kmút	-0.30103
-4.3948264	Ni	-0.30103
-4.3948264	Păl	-0.30103
-4.3948264	ELang	-0.30103
-4.3948264	Jang	-0.30103
-3.3012948	M'Đrắk	-0.845098
-4.3948264	Prao	-0.30103
-4.3948264	Pil	-0.30103
-4.3948264	H'MLay	-0.30103
-4.3948264	Jing	-0.30103
-4.088622	M'	-0.30103
-4.3948264	Doal	-0.30103
-4.3948264	M'ta	-0.30103
-4.3948264	K	-0.30103
-4.3948264	Róa	-0.30103
-4.3948264	Kmar	-0.30103
-4.3948264	Kang	-0.30103
-4.3948264	KTy	-0.30103
-4.3948264	Reh	-0.30103
-4.3948264	Trul	-0.30103
-4.3948264	Pui	-0.30103
-4.3948264	Drăm	-0.30103
-4.135466	KRông	-0.30103
-4.3948264	Phê	-0.30103
-4.3948264	KNuec	-0.30103
-4.3948264	Yông	-0.30103
-4.3948264	Kuăng	-0.30103
-4.3948264	Hiu	-0.30103
-4.3948264	Yiêng	-0.30103
-4.3948264	Trấp	-0.30103
-4.135466	Dray	-0.30103
-4.3948264	Sáp	-0.30103
-4.3948264	Drênh	-0.30103
-4.135466	Dur	-0.30103
-4.3948264	KMăl	-0.30103
-4.3948264	Tao	-0.30103
-4.3948264	Krang	-0.30103
-3.8724701	Liêng	-0.30103
-4.3948264	Triết	-0.30103
-4.3948264	Tría	-0.30103
-4.3948264	Phơi	-0.30103
-4.3948264	Nuê	-0.30103
-4.3948264	Nô	-0.81291336
-4.3948264	R'Bin	-0.30103
-4.3948264	Kuin	-0.72699875
-4.3948264	Wi	-0.30103
-4.3948264	Ktur	-0.30103
-4.3948264	BHốk	-0.30103
-4.3948264	Bhăng	-0.30103
-4.3948264	R'Moan	-0.30103
-4.3948264	Nia	-0.30103
-4.3948264	Glong	-0.66900676
-4.3948264	Ha	-0.30103
-4.3948264	R'Măng	-0.30103
-4.3948264	Plao	-0.30103
-4.3948264	Som	-0.30103
-4.3948264	T'Ling	-0.30103
-4.3948264	Jút	-0.72699875
-4.3948264	Wil	-0.30103
-4.3948264	DRông	-0.30103
-4.3948264	Knia	-0.30103
-4.3948264	Mil	-0.7781512
-4.3948264	R'La	-0.30103
-4.3948264	Gằn	-0.30103
-4.3948264	Mạnh	-0.30103
-4.3948264	N'Drót	-0.30103
-4.3948264	Sắk	-0.30103
-4.3948264	Mâm	-0.30103
-4.3948264	Sôr	-0.30103
-4.3948264	Choah	-0.30103
-4.3948264	Drô	-0.30103
-4.135466	Nâm	-0.30103
-4.3948264	N'Đir	-0.30103
-4.3948264	Môl	-0.30103
-4.3948264	N'Dung	-0.30103
-4.3948264	N'Jang	-0.30103
-4.3948264	R'Lấp	-0.86530143
-4.3948264	Ru	-0.30103
-4.3948264	R'Tíh	-0.30103
-4.3948264	Lạt	-1.0280287
-3.3890164	12	-0.74036264
-3.2283492	10	-0.7933912
-3.2065241	11	-0.8426092
-4.135466	B'lao	-0.30103
-4.3948264	Bri	-0.30103
-3.1857436	Đạ	-0.56729794
-3.542952	Đam	-1.0280287
-4.3948264	Srônh	-0.30103
-4.3948264	Rsal	-0.30103
-4.135466	Rô	-0.30103
-4.3948264	Chais	-0.30103
-4.3948264	Nhim	-0.30103
-4.135466	Đưng	-0.30103
-4.3948264	KNớ	-0.30103
-4.3948264	Đờn	-0.30103
-4.088622	D'Ran	-0.30103
-3.4226916	Đơn	-0.98025596
-4.3948264	Ròn	-0.30103
-4.135466	Pró	-0.30103
-4.135466	N'Thol	-0.30103
-4.3948264	Quyn	-0.30103
-4.3948264	Hine	-0.30103
-4.135466	Gung	-0.30103
-4.3948264	Ré	-0.30103
-4.135466	B'	-0.30103
-4.3948264	Lá	-0.30103
-4.3948264	M'ri	-0.30103
-4.3948264	Huoai	-0.7781512
-4.3948264	Guôi	-0.30103
-4.3948264	Ploa	-0.30103
-4.3948264	Tẻh	-0.69897
-4.088622	Xoài	-0.6532125
-3.0333016	Bù	-1.1428504
-4.3948264	Mập	-0.6532125
-4.3948264	Ơ	-0.30103
-4.3948264	Đốp	-0.66900676
-3.3890164	Hớn	-1.2388821
-4.3948264	Nơ	-0.30103
-4.3948264	Nhau	-0.30103
-3.9843574	Bom	-0.86033803
-4.3948264	Chơn	-1.0791812
-4.135466	Riềng	-0.9610819
-4.3948264	Vong	-0.30103
-4.3948264	Dây	-0.30103
-4.3948264	Củi	-0.30103
-4.135466	Truông	-0.30103
-4.088622	Đước	-0.8808136
-2.7280285	Gò	-1.4036924
-3.1857436	Trảng	-1.1760912
-4.135466	Trừ	-0.42596874
-4.3948264	Thố	-0.30103
-4.3948264	Tiếng	-0.81291336
-2.9433117	Thới	-0.69548166
-3.9843574	Dĩ	-1.0280287
-4.3948264	Thiêu	-0.30103
-4.3948264	Cuốc	-0.30103
-3.7835839	Bửu	-0.30103
-4.3948264	Trâm	-0.30103
-4.3948264	Gòn	-0.30103
-4.135466	Dak	-0.30103
-4.3948264	Lua	-0.30103
-4.3948264	Lài	-0.30103
-3.9843574	Gáo	-0.30103
-4.3948264	Trầu	-0.30103
-4.3948264	61	-0.30103
-3.9843574	25	-0.30103
-4.3948264	Giây	-0.30103
-4.088622	Ray	-0.30103
-4.3948264	Thiền	-0.30103
-3.165912	Vũng	-1.9039938
-4.135466	Tàu	-1.6099874
-4.3948264	-	-2.3411045
-3.709835	Rạch	-0.7185656
-4.3948264	Lớn	-0.30103
-4.135466	Bưng	-0.30103
-4.135466	Nhứt	-0.30103
-4.135466	Tóc	-0.30103
-4.3948264	Nghé	-0.30103
-4.135466	15	-0.5351132
-4.3948264	Vấp	-1.0280287
-4.135466	13	-0.58909506
-4.135466	17	-0.30103
-4.135466	16	-0.38021123
-4.135466	14	-0.57403123
-4.135466	05	-0.57403123
-4.135466	07	-0.5563025
-4.135466	04	-0.57403123
-4.135466	01	-0.58909506
-4.135466	03	-0.57403123
-4.135466	27	-0.30103
-4.135466	26	-0.30103
-4.135466	24	-0.30103
-4.135466	06	-0.5351132
-4.135466	02	-0.57403123
-4.135466	21	-0.30103
-4.135466	22	-0.30103
-4.135466	19	-0.30103
-4.135466	28	-0.30103
-4.135466	08	-0.5351132
-4.135466	09	-0.5563025
-3.1857436	B	-0.6812413
-4.3948264	Thiêm	-0.30103
-4.088622	Sáu	-0.30103
-4.135466	18	-0.30103
-3.9843574	Kiểng	-0.30103
-4.3948264	Cội	-0.30103
-3.328613	Hóc	-1.2388821
-3.8724701	Nhựt	-0.30103
-4.088622	Bè	-0.9294189
-4.3948264	Kiển	-0.30103
-4.3948264	Giờ	-0.66900676
-4.3948264	Lức	-0.90309
-4.135466	Quê	-0.42596874
-4.3948264	Giuộc	-0.90309
-3.4226916	Quới	-0.41497335
-4.3948264	Tho	-1.0543576
-4.3948264	Lậy	-1.3290588
-4.3948264	Gạo	-1
-4.135466	Quơn	-0.30103
-3.9843574	Vàm	-0.30103
-3.9843574	Qưới	-0.30103
-4.3948264	Lách	-0.7781512
-4.3948264	Thiềng	-0.30103
-4.3948264	Cày	-1.2004857
-2.9924326	Giồng	-1.3579348
-4.3948264	Trôm	-1.0413927
-4.088622	Tiệm	-0.30103
-4.3948264	Tôm	-0.30103
-3.328613	Càng	-1.30103
-3.4591992	Tiểu	-1.20412
-4.3948264	Ngang	-0.90309
-4.3948264	Thít	-0.90309
-4.3948264	Nhum	-0.30103
-4.3948264	Vồn	-0.30103
-4.3948264	Lược	-0.30103
-4.3948264	Thảnh	-0.30103
-4.3948264	Đéc	-0.7781512
-4.3948264	Ngự	-1.0543576
-4.3948264	Rài	-0.30103
-4.088622	Tràm	-0.30103
-4.3948264	Binh	-0.30103
-4.3948264	Huề	-0.30103
-3.3890164	Lấp	-1.2710668
-4.3948264	Vò	-0.845098
-4.3948264	Vung	-0.81291336
-4.3948264	Ngươn	-0.30103
-4.3948264	Voi	-0.30103
-4.3948264	Đảnh	-0.30103
-4.3948264	Tuyến	-0.30103
-3.2513297	Thoại	-1.1583625
-4.088622	Óc	-0.30103
-4.3948264	Eo	-0.30103
-4.3948264	Thê	-0.30103
-4.135466	Pháo	-0.30103
-3.328613	Hòn	-0.98741084
-4.135466	Lình	-0.30103
-4.135466	Huỳnh	-0.36797678
-4.135466	Mong	-0.7781512
-4.135466	Giục	-0.30103
-4.3948264	Quao	-0.7781512
-3.9843574	Gành	-0.30103
-4.3948264	Điều	-0.30103
-4.3948264	Khế	-0.30103
-4.3948264	Thơ	-2.3450468
-4.3948264	Nóc	-0.30103
-3.4226916	Thốt	-1.1249387
-4.3948264	Nốt	-0.69897
-3.4226916	Cờ	-1.1663314
-4.135466	III	-0.30103
-4.135466	IV	-0.30103
-4.135466	V	-0.30103
-4.135466	VII	-0.30103
-4.135466	Hoả	-0.30103
-4.135466	Bảy	-0.49485004
-4.3948264	Gòi	-0.30103
-3.9843574	Tắc	-0.30103
-4.088622	Mái	-0.30103
-4.3948264	Dầm	-0.30103
-4.3948264	Cùng	-0.30103
-4.088622	Mau	-1.7858043
-4.3948264	Lồng	-0.30103
-4.3948264	Trăng	-1.8902347
-4.135466	Tham	-0.30103
-3.4226916	Năm	-0.90309
-4.3948264	Mát	-0.30103
-4.3948264	Tròn	-0.30103
-4.3948264	Phích	-0.30103
-4.3948264	Phải	-0.30103
-4.3948264	Thời	-0.845098
-4.3948264	Hợi	-0.30103
-4.3948264	Phán	-0.30103
-4.135466	Quách	-0.60206
-4.3948264	Phẩm	-0.30103
-4.3948264	Chèo	-0.30103
-4.3948264	Khái	-0.30103
-4.3948264	Gốc	-0.30103
-2.6564615	TP	-2.2208052
-4.088622	phường	-0.8732575
-1.8597336	quận	-1.1449099
-2.3536446	thành	-3.2208052
-4.3948264	thị	-2.9173305
-1.0390383	huyện	-1.6723778
-1.7145379	tỉnh	-2.483013
-2.8888214	Xá,	-0.97564065
-3.3577652	Đình,	-0.74036264
-3.8724701	Bạch,	-0.39794
-2.979622	Phúc,	-0.92081875
-4.135466	Vị,	-0.30103
-4.3948264	Giai,	-0.30103
-3.9843574	Trực,	-0.8361432
-4.3948264	Thánh,	-0.30103
-2.796862	Hà,	-1.5481846
-3.6468108	Biên,	-1.0225658
-4.3948264	Cấn,	-0.30103
-3.0056329	Khánh,	-1.2183604
-4.135466	Mã,	-0.86530143
-4.135466	Võ,	-0.96378785
-3.2065241	Công,	-0.9408785
-2.6625016	Tân,	-1.3802112
-4.088622	Kiếm,	-0.9777236
-2.7351596	Xuân,	-1.3575114
-4.3948264	Buồm,	-0.30103
-3.709835	Đào,	-0.44715804
-4.135466	Bồ,	-0.30103
-2.6331077	Đông,	-1.3489536
-4.088622	Tổ,	-0.30103
-4.135466	Bạc,	-0.30103
-4.088622	Gai,	-0.30103
-2.9206889	Dương,	-1.2961775
-4.3948264	Trống,	-0.30103
-2.8052297	Nam,	-1.2253093
-3.7835839	Bông,	-0.6766936
-4.135466	Tiền,	-0.30103
-3.3577652	Đạo,	-0.8159398
-3.542952	Trinh,	-0.47712123
-3.7835839	Bài,	-0.38021123
-2.8052297	Thượng,	-0.97619706
-3.1113331	Hồ,	-1.1117105
-3.128775	Liên,	-0.7367586
-2.5600352	An,	-1.5495481
-3.2283492	La,	-0.86832786
-3.8724701	Phụ,	-1.0211893
-4.3948264	Bưởi,	-0.30103
-4.3948264	Khuê,	-0.30103
-2.8688056	Thanh,	-1.1783128
-3.7835839	Thụy,	-1.0107238
-2.7726848	Giang,	-1.445085
-2.7280285	Hưng,	-1.4847742
-2.7497828	Lâm,	-1.285425
-3.0056329	Lợi,	-1.064458
-3.9843574	Đề,	-0.66005194
-3.0333016	Đồng,	-1.0280287
-3.9843574	Bàn,	-1.2455126
-4.3948264	Khối,	-0.30103
-3.49906	Đô,	-0.6368221
-4.3948264	Giấy,	-0.72699875
-3.9843574	Dịch,	-0.30103
-4.3948264	Vọng,	-0.30103
-3.49906	Hậu,	-0.98227125
-3.3012948	Hoa,	-0.7201593
-2.9318528	Hoà,	-1.2004857
-3.094565	Linh,	-1.3741372
-3.591784	Đa,	-0.85733247
-4.135466	Miếu,	-0.30103
-4.088622	Giám,	-0.30103
-4.135466	Dừa,	-0.30103
-3.8724701	Chương,	-1.0894004
-4.3948264	Bột,	-0.30103
-3.07842	Hạ,	-0.86033803
-4.135466	Thiên,	-0.30103
-3.2283492	Quan,	-1.2240149
-3.6468108	Phụng,	-0.50514996
-2.6686268	Trung,	-1.3424227
-3.709835	Liệt,	-0.36797678
-2.8888214	Quang,	-1.2412618
-4.135466	Tự,	-0.30103
-3.2065241	Mai,	-0.7781512
-3.8724701	Sở,	-0.38021123
-3.709835	Du,	-0.7447275
-3.8724701	Trưng,	-0.8176598
-4.088622	Đằng,	-0.30103
-4.088622	Hổ,	-0.30103
-3.7835839	Hành,	-0.6532125
-3.3577652	Nhân,	-0.9488475
-4.088622	Huế,	-1.2671717
-4.3948264	Mác,	-0.30103
-2.9433117	Lương,	-1.20412
-4.088622	Nhàn,	-0.30103
-4.3948264	Dền,	-0.30103
-3.7835839	Khoa,	-0.54406804
-3.3012948	Tâm,	-0.80618
-4.088622	Tuy,	-0.30103
-3.9843574	Lôi,	-0.39794
-3.8724701	Khai,	-0.5509075
-3.2065241	Định,	-1.2766707
-3.6468108	Trì,	-0.8750613
-3.2755942	Động,	-1.1719353
-3.2513297	Kim,	-0.845098
-4.088622	Thụ,	-0.3521825
-4.3948264	Bát,	-0.30103
-2.6625016	Phú,	-1.5257645
-3.165912	Chính,	-0.8091855
-2.849672	Bắc,	-1.1663314
-2.272181	Sơn,	-2.0387526
-3.9843574	Trí,	-0.30103
-3.2283492	Kỳ,	-1.3117539
-3.9843574	Giã,	-0.42596874
-2.796862	Minh,	-1.3309932
-2.7006204	Tiến,	-1.4960066
-2.849672	Ninh,	-1.4902827
-3.4226916	Dân,	-0.72699875
-4.3948264	Dược,	-0.30103
-2.6625016	Long,	-1.5215404
-4.088622	Lũ,	-0.30103
-3.07842	Cường,	-1.0894004
-3.8724701	Lỗ,	-0.60206
-3.7835839	Thu,	-0.47712123
-3.709835	Anh,	-1.0863599
-4.088622	Nộn,	-0.30103
-3.1113331	Hồng,	-0.90309
-2.8786983	Khê,	-1.1424631
-4.088622	Nỗ,	-0.30103
-3.6468108	Nội,	-0.50514996
-3.2755942	Hùng,	-0.96378785
-3.591784	Chung,	-0.64345264
-3.542952	Tú,	-0.8016324
-4.3948264	Mạch,	-0.30103
-3.165912	Ngọc,	-0.8709053
-4.3948264	Loa,	-0.30103
-4.3948264	Bối,	-0.30103
-3.8724701	Canh,	-0.56987536
-3.0478265	Hội,	-1.1222159
-3.4226916	Viên,	-0.75332767
-4.3948264	Thường,	-0.30103
-2.8991861	Hiệp,	-1.2376873
-3.0478265	Xuyên,	-1.3617278
-4.3948264	Đổng,	-0.30103
-4.3948264	Mầu,	-0.30103
-3.9843574	Chi,	-0.92081875
-4.135466	Bi,	-0.30103
-4.088622	Thị,	-0.30103
-3.9843574	Quỳ,	-0.42596874
-4.3948264	Dư,	-0.30103
-4.3948264	Tốn,	-0.30103
-4.088622	Kỵ,	-0.30103
-4.088622	Tràng,	-0.30103
-4.088622	Lan,	-0.30103
-2.8313458	Đức,	-1.3737772
-3.9843574	Diễn,	-0.30103
-3.591784	Liêm,	-1.1271048
-3.07842	Phương,	-0.827839
-3.3012948	1,	-0.80618
-3.328613	2,	-0.7900505
-3.9843574	Mỗ,	-0.30103
-3.1113331	Văn,	-1.0253059
-4.3948264	Điển,	-0.30103
-3.709835	Triều,	-0.86033803
-3.9843574	Oai,	-1.1280298
-2.7424097	Mỹ,	-1.3998659
-3.9843574	Quỳnh,	-0.42596874
-4.088622	Hồi,	-0.60206
-4.3948264	áng,	-0.30103
-3.3577652	Cát,	-0.90309
-3.7835839	Mạc,	-0.42596874
-4.135466	Ngạc,	-0.30103
-2.796862	Thắng,	-1.3088553
-4.088622	Tựu,	-0.30103
-4.3948264	Đỉnh,	-0.30103
-3.8724701	Tảo,	-0.30103
-2.8404121	Thịnh,	-1.281286
-3.709835	Đà,	-0.44715804
-3.0628538	Lập,	-1.1856365
-2.7886524	Yên,	-1.8301803
-3.8724701	Phan,	-0.5228787
-2.7497828	Phong,	-1.4681201
-3.4226916	Việt,	-0.9542425
-4.3948264	Trãi,	-0.30103
-3.709835	Lao,	-0.60206
-3.8724701	Quán,	-0.75696194
-4.3948264	Kiêu,	-0.30103
-3.6468108	Cầu,	-0.80618
-2.8991861	Nghĩa,	-1.1026623
-4.135466	Lãm,	-0.30103
-2.796862	Tây,	-1.1391792
-3.9843574	Quyền,	-0.64345264
-2.6811428	Lộc,	-1.661407
-4.3948264	Khanh,	-0.30103
-4.3948264	Trầm,	-0.30103
-4.088622	Vì,	-1.0543576
-3.0628538	Vân,	-0.9542425
-2.7424097	Châu,	-1.5711262
-2.58986	Hòa,	-1.6467304
-3.0056329	Thái,	-1.1883258
-3.9843574	Lại,	-0.30103
-4.088622	Bạt,	-0.30103
-3.2513297	Lĩnh,	-0.748188
-4.088622	Trại,	-0.30103
-2.9924326	Thọ,	-1.1335388
-3.7835839	Cốc,	-0.54406804
-3.4591992	Môn,	-1.0170333
-4.3948264	Thuấn,	-0.30103
-2.8404121	Thuận,	-1.1117105
-3.8724701	Phùng,	-0.47712123
-3.6468108	Phượng,	-0.92081875
-4.088622	Tháp,	-0.30103
-4.088622	Trôi,	-0.30103
-3.709835	Liễu,	-0.44715804
-2.967178	Trạch,	-1.4336556
-3.709835	Quế,	-0.54406804
-3.9843574	Côn,	-0.42596874
-3.9843574	Phù,	-0.30103
-4.088622	Cách,	-0.30103
-4.3948264	Liệp,	-0.30103
-4.3948264	Tuyết,	-0.30103
-4.3948264	Thán,	-0.30103
-3.1857436	Hương,	-0.8381492
-2.541232	Thành,	-1.8384293
-4.088622	Mãn,	-0.30103
-3.591784	Hữu,	-0.71600336
-3.3890164	Thạch,	-0.9777236
-4.3948264	Thất,	-1.1856365
-2.6218853	Bình,	-1.7412392
-4.3948264	Ngải,	-0.30103
-4.088622	Nậu,	-0.42596874
-3.8724701	Kiệm,	-0.5228787
-3.3577652	Bằng,	-0.82930374
-4.088622	Xã,	-0.30103
-4.088622	Trúc,	-0.30103
-3.4591992	Tiên,	-1.0314084
-2.979622	Điền,	-1.146128
-4.135466	Diệu,	-0.30103
-4.088622	Bị,	-0.30103
-4.088622	Vực,	-0.30103
-3.0478265	Lạc,	-1.243038
-3.542952	Cao,	-0.7781512
-4.3948264	Thùy,	-0.30103
-4.135466	Thư,	-1.0413927
-4.3948264	Ước,	-0.30103
-3.6468108	Tín,	-1.0241337
-4.3948264	Nhiên,	-0.30103
-3.6468108	Nhất,	-0.79111624
-3.9843574	Hiệu,	-0.39794
-4.088622	Điểm,	-0.30103
-4.088622	Dực,	-0.30103
-3.9843574	Túc,	-0.66900676
-3.49906	Hoàng,	-0.81291336
-4.135466	Từ,	-1.0934217
-2.849672	Thủy,	-1.3912066
-3.4226916	Lãng,	-1.0170333
-3.9843574	Can,	-0.42596874
-4.088622	Lộng,	-0.30103
-3.591784	Đường,	-0.74036264
-3.591784	Lưu,	-1.1091444
-3.328613	Lai,	-0.9610819
-4.088622	Tế,	-0.30103
-3.9843574	Độ,	-0.30103
-3.2283492	Thiện,	-0.79111624
-3.9843574	Bảng,	-0.845098
-4.088622	Cú,	-0.8808136
-4.3948264	Lé,	-0.30103
-4.3948264	Táo,	-0.30103
-3.9843574	Là,	-0.42596874
-4.088622	Tủng,	-0.30103
-3.591784	Phìn,	-0.845098
-4.135466	Lủng,	-0.42596874
-4.3948264	Cáo,	-0.30103
-4.135466	Thầu,	-0.42596874
-3.49906	Chải,	-0.90309
-4.3948264	Trái,	-0.30103
-4.3948264	Vạc,	-0.9777236
-4.135466	Cái,	-0.8808136
-4.135466	Vi,	-0.30103
-3.49906	Trà,	-0.763428
-4.3948264	Máng,	-0.30103
-3.9843574	Vĩ,	-0.42596874
-4.3948264	Pù,	-0.30103
-3.9843574	Chinh,	-0.30103
-4.135466	Ngà,	-0.30103
-3.9843574	Ban,	-0.5228787
-4.088622	Vai,	-0.30103
-3.9843574	Tòng,	-0.42596874
-4.088622	Mố,	-0.30103
-3.7835839	Lũng,	-1.0142405
-4.3948264	Tráng,	-0.30103
-4.3948264	Đích,	-0.30103
-4.3948264	Thài,	-0.30103
-3.07842	Vinh,	-1.0731071
-4.135466	Duệ,	-0.30103
-4.3948264	Già,	-0.30103
-4.088622	Bạ,	-0.7781512
-4.088622	Tỷ,	-0.30103
-4.3948264	Pờ,	-0.30103
-4.088622	Vài,	-0.30103
-4.3948264	Tám,	-0.30103
-4.088622	Ván,	-0.30103
-3.709835	Bá,	-0.44715804
-4.088622	Ngần,	-0.30103
-4.3948264	Mê,	-0.9378521
-3.328613	Nông,	-1
-4.088622	Âm,	-0.30103
-3.49906	Luông,	-0.90309
-4.3948264	Phì,	-1.20412
-4.3948264	Máy,	-0.30103
-4.3948264	Lồ,	-0.30103
-4.088622	Sán,	-0.30103
-3.7835839	Phố,	-0.60206
-3.9843574	Đôn,	-0.5228787
-4.135466	Ngài,	-0.30103
-4.3948264	Luốc,	-0.30103
-4.3948264	Nhùng,	-0.30103
-4.3948264	Choóng,	-0.30103
-4.3948264	Tỵ,	-0.30103
-3.165912	Nguyên,	-1.2710668
-4.3948264	Khòa,	-0.30103
-4.3948264	Pài,	-0.30103
-4.3948264	Mần,	-0.9777236
-4.3948264	Xỉn,	-0.30103
-4.3948264	Díu,	-0.30103
-4.3948264	Cà,	-0.30103
-4.3948264	Phàng,	-0.30103
-4.3948264	Sủ,	-0.30103
-4.3948264	Rế,	-0.30103
-4.3948264	Tà,	-0.30103
-3.9843574	Ma,	-0.42596874
-4.3948264	Nhìu,	-0.30103
-4.3948264	Ngò,	-0.30103
-4.3948264	Dẩn,	-0.30103
-4.3948264	Chì,	-0.30103
-4.088622	Lùng,	-0.30103
-4.3948264	Sản,	-0.30103
-4.3948264	Điếm,	-0.30103
-3.7835839	Kiều,	-0.72699875
-3.9843574	Hảo,	-0.38021123
-4.088622	Rịa,	-0.7781512
-4.3948264	Trịnh,	-0.30103
-3.49906	Lang,	-0.85387194
-3.542952	Khương,	-0.82930374
-4.088622	Hiến,	-0.30103
-4.088622	Thám,	-0.36797678
-4.3948264	Miầu,	-0.30103
-3.7835839	Hạnh,	-0.5563025
-4.3948264	Bôn,	-0.30103
-3.591784	Ân,	-0.85387194
-4.135466	Học,	-0.38021123
-4.135466	Thổ,	-0.8239087
-4.3948264	Pàng,	-0.30103
-3.542952	Ba,	-0.91832995
-3.7835839	Toàn,	-0.36797678
-3.1857436	Trường,	-0.98227125
-3.49906	Trị,	-0.91645396
-4.088622	Cúc,	-0.30103
-3.6468108	Giáp,	-0.72699875
-3.7835839	Lộ,	-0.7781512
-3.709835	Quảng,	-0.8872957
-3.542952	Thông,	-0.7596679
-4.088622	Nặm,	-0.74036264
-3.8724701	Thôn,	-0.5228787
-4.3948264	Cọt,	-0.30103
-4.135466	Sỹ,	-0.30103
-3.9843574	Quân,	-0.42596874
-3.9843574	Hán,	-0.30103
-4.3948264	Nậm,	-0.30103
-3.591784	Thuỷ,	-0.8159398
-3.8724701	Viễn,	-0.9378521
-3.542952	Hiếu,	-0.45593196
-4.135466	Thăng,	-0.30103
-3.9843574	Quốc,	-0.60206
-3.8724701	Loan,	-0.5228787
-4.135466	Nhật,	-0.30103
-3.49906	Quý,	-0.42596874
-4.3948264	Ngân,	-0.30103
-4.3948264	Toản,	-0.30103
-3.8724701	Uyên,	-1.2130748
-2.6748397	Hải,	-1.3357921
-4.088622	Bộ,	-0.30103
-4.135466	Sen,	-0.30103
-4.3948264	Thảo,	-0.30103
-4.088622	Do,	-0.30103
-3.8724701	Đàn,	-1.1949766
-4.135466	Hai,	-0.30103
-4.3948264	Chủ,	-0.30103
-4.135466	Tuấn,	-0.60206
-4.135466	Lão,	-0.8159398
-4.088622	Tung,	-0.30103
-4.135466	Huệ,	-0.66900676
-3.9843574	Dục,	-0.30103
-3.8724701	Vượng,	-0.30103
-4.088622	Trình,	-0.30103
-4.088622	Trọng,	-0.8325089
-4.3948264	Con,	-0.30103
-4.3948264	Kạn,	-0.72699875
-3.591784	Kiên,	-0.56427145
-4.3948264	Tụng,	-0.30103
-2.8991861	Hóa,	-1.7765398
-4.088622	Bố,	-0.30103
-4.3948264	Rã,	-0.30103
-4.3948264	Bể,	-1
-4.088622	Mẫu,	-0.30103
-3.7835839	Giáo,	-1
-4.3948264	Trĩ,	-0.30103
-4.3948264	Phặc,	-0.30103
-3.9843574	Đán,	-0.30103
-3.709835	Tùng,	-0.7781512
-4.135466	Lực,	-0.42596874
-4.135466	Mang,	-0.30103
-4.088622	Muộn,	-0.30103
-3.8724701	Giàng,	-0.86530143
-3.9843574	Đồn,	-1.230449
-3.9843574	Thi,	-0.7781512
-4.135466	Phái,	-0.30103
-4.3948264	Sảo,	-0.30103
-4.3948264	Tá,	-0.30103
-4.135466	Mới,	-1.0669467
-4.088622	Vận,	-0.30103
-4.3948264	Lạp,	-0.30103
-4.088622	Mục,	-0.30103
-3.7835839	Cư,	-0.47712123
-4.3948264	Hân,	-0.30103
-4.3948264	Cố,	-0.30103
-3.8724701	Chu,	-0.5228787
-3.6468108	Vũ,	-0.72699875
-4.3948264	Rì,	-1.0543576
-4.088622	Hỷ,	-0.90309
-3.591784	Lư,	-0.75696194
-3.2283492	Lễ,	-1.0413927
-3.9843574	Thiết,	-0.8176598
-3.6468108	Khang,	-0.6532125
-3.542952	Tường,	-1.0791812
-4.088622	Hang,	-0.748188
-4.3948264	Lôn,	-0.30103
-4.088622	Tinh,	-0.30103
-4.3948264	Khả,	-0.30103
-4.088622	Tương,	-0.30103
-3.7835839	Đài,	-0.50514996
-3.0333016	Lý,	-1.0230653
-3.7835839	Xa,	-0.60206
-4.135466	Quận,	-0.30103
-4.3948264	Viện,	-0.30103
-4.3948264	Trào,	-0.30103
-4.3948264	Ấm,	-0.30103
-4.3948264	Ứng,	-0.30103
-4.135466	Kế,	-0.30103
-3.7835839	Sinh,	-0.42596874
-4.135466	Cai,	-1
-4.3948264	Lếu,	-0.30103
-4.3948264	Lệnh,	-0.30103
-3.9843574	Tăng,	-0.30103
-4.3948264	Tuyển,	-0.30103
-4.3948264	Phời,	-0.30103
-3.6468108	San,	-0.50514996
-4.3948264	Xát,	-1.0413927
-4.135466	Sung,	-0.30103
-4.3948264	Chạc,	-0.30103
-4.3948264	Lù,	-0.30103
-4.3948264	Tý,	-0.30103
-4.088622	Mỳ,	-0.30103
-4.135466	Sáng,	-0.30103
-4.3948264	Vược,	-0.30103
-4.3948264	Sáo,	-0.30103
-4.3948264	Qua,	-0.30103
-3.6468108	Thàng,	-0.60206
-4.3948264	Xèo,	-0.30103
-4.3948264	Hum,	-0.30103
-4.3948264	Cheo,	-0.30103
-4.3948264	Pung,	-0.30103
-4.3948264	Ngan,	-0.30103
-4.3948264	Sành,	-0.30103
-4.3948264	Chồ,	-0.30103
-4.3948264	Chin,	-0.30103
-4.3948264	Khâu,	-0.30103
-4.3948264	Chảy,	-0.30103
-4.088622	Nhin,	-0.30103
-3.8724701	Lầu,	-0.5228787
-4.088622	Tẩn,	-0.30103
-4.3948264	Mế,	-0.30103
-4.088622	Thẩn,	-0.30103
-4.3948264	Cấu,	-0.30103
-4.3948264	Chéng,	-0.30103
-4.3948264	Xín,	-0.30103
-4.3948264	Cải,	-0.30103
-3.9843574	Phình,	-0.42596874
-4.3948264	Chư,	-0.30103
-4.3948264	Liền,	-0.30103
-4.088622	Hối,	-0.30103
-3.9843574	Ly,	-0.42596874
-3.9843574	Mòn,	-0.42596874
-4.3948264	Đét,	-0.30103
-4.135466	Nhai,	-1.1303338
-4.3948264	Lúc,	-0.30103
-4.088622	Lu,	-0.30103
-4.3948264	Loỏng,	-0.30103
-4.3948264	Phiệt,	-0.30103
-4.135466	Cầm,	-0.30103
-4.088622	Niên,	-0.30103
-3.6468108	Giao,	-0.60206
-4.135466	Nhuận,	-0.7201593
-4.3948264	Ràng,	-0.30103
-4.3948264	Cọn,	-0.30103
-3.9843574	Pa,	-1.2922561
-4.3948264	Pả,	-0.30103
-4.088622	Păng,	-0.30103
-4.088622	Rồng,	-0.30103
-4.088622	Mây,	-0.30103
-4.3948264	Van,	-0.30103
-3.9843574	Bo,	-0.30103
-4.3948264	Mả,	-0.30103
-4.3948264	Rạng,	-0.30103
-4.3948264	Chầy,	-0.30103
-4.3948264	Xé,	-0.30103
-4.3948264	Ken,	-0.30103
-4.3948264	Tha,	-0.30103
-4.3948264	Xây,	-0.30103
-4.088622	Bua,	-0.30103
-4.088622	Phủ,	-0.81291336
-4.135466	Lam,	-0.30103
-4.088622	Tấu,	-0.69897
-4.088622	Nhạn,	-0.30103
-4.3948264	Phăng,	-0.30103
-4.088622	Khoang,	-0.30103
-4.135466	Lay,	-0.30103
-3.591784	Nưa,	-0.6532125
-4.3948264	Nhé,	-0.7781512
-4.3948264	Sìn,	-0.30103
-4.088622	Kè,	-0.71600336
-4.088622	Toong,	-0.30103
-4.3948264	Lếnh,	-0.30103
-4.088622	Chà,	-0.748188
-4.088622	Tổng,	-0.30103
-4.3948264	Mí,	-0.30103
-4.3948264	Ham,	-0.30103
-4.3948264	Nèn,	-0.30103
-4.088622	Lèng,	-0.30103
-4.088622	Lông,	-0.30103
-3.7835839	Sang,	-0.60206
-4.3948264	Mươn,	-0.30103
-4.088622	Chùa,	-0.748188
-4.3948264	Só,	-0.30103
-4.3948264	Nhè,	-0.30103
-4.3948264	Đun,	-0.30103
-4.3948264	Báng,	-0.30103
-4.3948264	Mùn,	-0.30103
-4.3948264	Xi,	-0.30103
-4.3948264	Nhung,	-0.30103
-4.3948264	Thín,	-0.30103
-4.088622	Tình,	-0.30103
-4.3948264	Sáy,	-0.30103
-4.3948264	Khong,	-0.30103
-3.6468108	Cang,	-0.72699875
-3.9843574	Tở,	-0.42596874
-4.3948264	Phông,	-0.30103
-4.3948264	Pồn,	-0.30103
-3.542952	Xương,	-1.1856365
-4.088622	Chăn,	-0.30103
-4.088622	Thơm,	-0.30103
-4.3948264	Luống,	-0.30103
-4.3948264	Hẹt,	-0.30103
-4.3948264	Mứn,	-0.30103
-4.088622	Lót,	-0.30103
-4.3948264	Ngam,	-0.30103
-4.3948264	Muông,	-0.30103
-4.3948264	Ư,	-0.30103
-4.3948264	Nhà,	-0.30103
-4.088622	Tông,	-0.30103
-4.3948264	Lói,	-0.30103
-4.3948264	Son,	-0.30103
-4.088622	Nhừ,	-0.30103
-4.088622	Sơ,	-0.30103
-4.088622	Luân,	-0.30103
-4.088622	Nhi,	-0.30103
-4.3948264	U,	-0.30103
-4.135466	Dung,	-0.56427145
-4.3948264	Lôm,	-0.30103
-4.135466	Giới,	-0.30103
-4.3948264	Dình,	-0.30103
-4.088622	Lìa,	-0.30103
-4.3948264	Ảng,	-0.74036264
-3.709835	Đăng,	-0.86530143
-4.3948264	Cáy,	-0.30103
-4.135466	Lịch,	-0.30103
-3.9843574	Lạn,	-0.5228787
-4.3948264	Tin,	-0.30103
-4.3948264	Pồ,	-1
-4.3948264	Tần,	-0.30103
-4.135466	Sa,	-0.30103
-4.3948264	Hỳ,	-0.30103
-4.3948264	Bủng,	-0.30103
-4.3948264	Chua,	-0.30103
-4.3948264	Khăn,	-0.30103
-4.088622	Kết,	-0.5351132
-4.3948264	Phài,	-0.30103
-4.135466	Sin,	-0.30103
-3.9843574	Nàng,	-0.42596874
-4.3948264	Hon,	-0.30103
-4.088622	Tăm,	-0.30103
-4.3948264	Há,	-0.30103
-4.088622	Tè,	-0.7781512
-4.3948264	Lũm,	-0.30103
-3.49906	Lăng,	-1.0334238
-4.3948264	ủ,	-0.30103
-4.135466	Sử,	-0.30103
-4.135466	Cả,	-0.30103
-4.3948264	Khao,	-0.30103
-4.3948264	Lin,	-0.30103
-4.3948264	Quai,	-0.30103
-4.3948264	Ngảo,	-0.30103
-4.3948264	Cáp,	-0.30103
-4.3948264	Cha,	-0.30103
-4.3948264	Khoá,	-0.30103
-3.8724701	Mô,	-0.845098
-4.3948264	Hẻo,	-0.30103
-4.088622	Mạ,	-0.30103
-4.3948264	Co,	-0.30103
-4.3948264	Cuổi,	-0.30103
-4.3948264	Hăn,	-0.30103
-4.3948264	Lìn,	-0.30103
-4.088622	Pho,	-0.30103
-4.3948264	Thèn,	-0.30103
-4.135466	Lào,	-0.30103
-4.3948264	Xe,	-0.30103
-4.088622	So,	-0.30103
-3.9843574	Than,	-0.42596874
-3.9843574	Mít,	-0.42596874
-4.3948264	Mu,	-0.30103
-4.3948264	Nà,	-0.30103
-4.3948264	Hừa,	-0.30103
-4.135466	Mung,	-0.30103
-3.591784	Gia,	-0.9852767
-4.088622	On,	-0.30103
-4.3948264	Thuộc,	-0.30103
-3.7835839	Cần,	-0.7781512
-4.3948264	Sỏ,	-0.30103
-4.088622	Ta,	-0.30103
-4.3948264	Nhùn,	-0.7781512
-4.3948264	Bun,	-0.30103
-4.3948264	Manh,	-0.30103
-4.135466	Hàng,	-0.30103
-4.3948264	Đao,	-0.30103
-4.3948264	Pì,	-0.30103
-4.3948264	Lề,	-0.30103
-4.088622	Cọ,	-0.30103
-4.088622	Đen,	-0.30103
-4.3948264	Xôm,	-0.30103
-4.088622	Cơi,	-0.30103
-4.088622	Chiên,	-0.30103
-4.3948264	Khay,	-0.30103
-4.088622	Giôn,	-0.30103
-4.3948264	Khinh,	-0.30103
-4.3948264	Ơn,	-0.30103
-4.088622	Sại,	-0.30103
-4.3948264	ét,	-0.30103
-4.088622	Lái,	-0.30103
-4.3948264	é,	-0.30103
-4.135466	Pha,	-0.30103
-4.3948264	Ngàm,	-0.30103
-4.3948264	Khiêng,	-0.30103
-4.3948264	Bám,	-0.30103
-4.3948264	Hẹ,	-0.30103
-4.3948264	Bôm,	-0.30103
-4.088622	Lạnh,	-0.30103
-4.135466	Mười,	-0.7781512
-4.088622	Tra,	-0.30103
-4.3948264	Pấc,	-0.30103
-4.3948264	Phặng,	-0.30103
-4.088622	Nọi,	-0.30103
-4.135466	Lầm,	-0.30103
-4.3948264	Ong,	-0.30103
-4.135466	Trai,	-0.30103
-3.8724701	Chiến,	-0.39794
-4.3948264	Păm,	-0.30103
-4.3948264	Muôn,	-0.30103
-4.088622	Bú,	-0.30103
-4.3948264	Chùm,	-0.30103
-4.3948264	Chú,	-0.30103
-4.135466	Vàng,	-0.30103
-4.3948264	Xùa,	-0.30103
-4.3948264	Chếu,	-0.30103
-4.3948264	Vàn,	-0.30103
-4.3948264	Pe,	-0.30103
-4.3948264	Tọ,	-0.30103
-4.3948264	Thải,	-0.30103
-4.135466	Huy,	-0.30103
-4.3948264	Bau,	-0.30103
-4.088622	Bon,	-0.30103
-4.135466	Bang,	-0.30103
-3.9843574	Đỏ,	-0.64345264
-3.2513297	Hợp,	-1.1371732
-4.088622	Hướng,	-0.30103
-4.3948264	Mường,	-0.30103
-4.3948264	Hắc,	-0.30103
-4.3948264	Khừa,	-0.30103
-4.088622	Sập,	-0.30103
-4.3948264	Vạt,	-0.30103
-4.088622	Sàng,	-0.30103
-4.088622	Pằn,	-0.30103
-4.3948264	Lán,	-0.30103
-4.3948264	Hặc,	-0.30103
-4.3948264	Lựm,	-0.30103
-4.3948264	Khoi,	-0.30103
-3.9843574	Nang,	-0.42596874
-4.3948264	Phiêng,	-0.30103
-4.3948264	Khoài,	-0.30103
-4.088622	Chanh,	-0.30103
-4.3948264	Pó,	-0.30103
-4.3948264	Nòi,	-0.30103
-4.3948264	Nơi,	-0.30103
-4.3948264	Cằm,	-0.30103
-4.088622	Dong,	-0.30103
-4.3948264	Kheo,	-0.30103
-4.3948264	Ve,	-0.30103
-4.3948264	Ơt,	-0.30103
-4.3948264	Hộc,	-0.30103
-4.3948264	Pẩu,	-0.30103
-4.3948264	Phung,	-0.30103
-4.3948264	En,	-0.30103
-4.088622	Ty,	-0.30103
-4.3948264	Nghịu,	-0.30103
-4.3948264	Mằn,	-0.30103
-4.3948264	Khoong,	-0.30103
-4.135466	Một,	-0.80618
-4.3948264	Sai,	-0.30103
-4.088622	Hung,	-0.30103
-4.135466	Kha,	-0.30103
-4.3948264	Cộp,	-0.6532125
-4.3948264	Bánh,	-0.30103
-4.3948264	Lèo,	-0.30103
-4.3948264	Và,	-0.30103
-3.8724701	Bàng,	-0.8091855
-4.3948264	Khủa,	-0.30103
-4.3948264	Múa,	-0.30103
-4.088622	Men,	-0.30103
-3.8724701	Nha,	-0.5228787
-3.8724701	Bái,	-0.8016324
-3.6468108	Bảo,	-0.9488475
-3.591784	Lâu,	-0.47712123
-4.135466	Phiên,	-0.30103
-4.3948264	Trạng,	-0.30103
-4.3948264	Thia,	-0.30103
-2.955081	A,	-0.9378521
-3.7835839	Nham,	-0.47712123
-4.088622	Thế,	-0.86530143
-4.088622	Chuẩn,	-0.30103
-3.9843574	Mậu,	-0.30103
-4.3948264	Thíp,	-0.30103
-4.135466	Cuông,	-0.72699875
-4.3948264	Tầm,	-0.30103
-4.3948264	Phác,	-0.30103
-3.8724701	Ái,	-0.6368221
-4.3948264	Hẩu,	-0.30103
-4.3948264	Bốn,	-0.30103
-4.3948264	Có,	-0.30103
-4.3948264	Dề,	-0.30103
-4.3948264	Phạ,	-0.30103
-4.088622	Tạo,	-0.30103
-4.3948264	Khắt,	-0.30103
-4.088622	Đáp,	-0.30103
-4.135466	Mông,	-0.30103
-4.088622	Ca,	-0.30103
-4.3948264	Lau,	-0.30103
-4.135466	Láng,	-0.30103
-4.088622	Hu,	-0.30103
-3.8724701	Nhì,	-0.30103
-4.3948264	Mù,	-0.30103
-4.3948264	Lìu,	-0.30103
-3.9843574	Chấn,	-0.9542425
-3.8724701	Lệ,	-0.45593196
-4.3948264	Búng,	-0.30103
-4.3948264	Lành,	-0.30103
-4.3948264	Bu,	-0.30103
-4.135466	Bà,	-0.30103
-4.135466	Nghị,	-0.30103
-4.3948264	Nghê,	-0.30103
-4.3948264	Đắt,	-0.30103
-4.3948264	Chiềng,	-0.30103
-4.088622	Pheo,	-0.30103
-4.3948264	Chum,	-0.30103
-4.088622	Ruộng,	-0.30103
-4.3948264	Bôi,	-0.9542425
-4.3948264	Báy,	-0.30103
-4.3948264	Dăm,	-0.30103
-4.135466	Nai,	-0.30103
-4.135466	Nê,	-0.30103
-4.088622	Cò,	-0.30103
-4.088622	Kia,	-0.30103
-4.3948264	Đậu,	-0.30103
-4.3948264	Phòn,	-0.30103
-4.3948264	Khóe,	-0.30103
-4.3948264	Hịch,	-0.30103
-4.135466	Bản,	-0.845098
-4.088622	Đồi,	-0.30103
-4.3948264	Hẻm,	-0.30103
-4.135466	Nhượng,	-0.30103
-3.8724701	Nghiệp,	-0.38021123
-4.3948264	Trạm,	-0.30103
-4.135466	Dụ,	-0.30103
-4.135466	Bồng,	-0.85733247
-4.088622	Duyên,	-0.30103
-3.8724701	Vương,	-0.3521825
-4.088622	Giá,	-0.81291336
-4.3948264	Trìu,	-0.30103
-3.6468108	Cương,	-0.42596874
-3.6468108	Cẩm,	-0.50514996
-3.9843574	Ngạn,	-1.0280287
-4.3948264	Bẩm,	-0.30103
-4.3948264	Chè,	-0.30103
-4.088622	Đan,	-0.30103
-4.088622	Vỹ,	-0.30103
-4.3948264	Mặc,	-0.30103
-4.3948264	Nhiêu,	-0.30103
-4.088622	Đu,	-0.30103
-4.088622	Đổ,	-0.30103
-3.9843574	Đạt,	-0.42596874
-4.088622	Tranh,	-0.42596874
-4.3948264	Mễ,	-0.30103
-4.3948264	Cau,	-0.30103
-4.3948264	Mo,	-0.30103
-3.9843574	Mộc,	-0.75332767
-4.135466	Nung,	-0.30103
-4.088622	Hiên,	-0.30103
-3.9843574	Mao,	-0.30103
-3.9843574	Ngoại,	-0.30103
-4.135466	My,	-0.9542425
-4.135466	Kinh,	-0.47712123
-4.3948264	Thuật,	-0.30103
-4.3948264	Sầm,	-0.30103
-4.3948264	Tác,	-0.30103
-4.3948264	Hoan,	-0.30103
-4.3948264	Miễn,	-0.30103
-4.3948264	Lòa,	-0.30103
-4.3948264	Đạn,	-0.30103
-4.135466	Yến,	-0.30103
-4.3948264	He,	-0.30103
-3.7835839	Năng,	-0.73468554
-4.088622	Các,	-0.30103
-4.088622	Đoàn,	-0.30103
-4.3948264	Đống,	-0.30103
-4.3948264	ý,	-0.30103
-4.088622	Tri,	-1
-4.3948264	Mỏ,	-0.30103
-3.8724701	Sao,	-0.54406804
-4.3948264	Tịch,	-0.30103
-4.3948264	Khoái,	-0.30103
-4.3948264	Mịch,	-0.30103
-4.3948264	Bục,	-0.30103
-4.3948264	Đoạn,	-0.30103
-3.9843574	Lân,	-0.42596874
-4.088622	Bác,	-0.30103
-4.3948264	Khẩu,	-0.30103
-4.3948264	Xanh,	-0.30103
-4.3948264	Đáy,	-0.30103
-4.088622	Tu,	-0.30103
-4.3948264	Cháy,	-0.30103
-4.3948264	Cổ,	-0.30103
-4.3948264	Thực,	-0.30103
-4.3948264	Phả,	-1.0280287
-4.088622	Ông,	-0.30103
-3.8724701	Hanh,	-0.30103
-4.3948264	Danh,	-0.30103
-4.3948264	Bí,	-0.8239087
-4.135466	Liêu,	-0.8808136
-4.3948264	Ngại,	-0.30103
-4.3948264	Hồn,	-0.30103
-4.3948264	Ngũ,	-0.30103
-4.135466	Lạng,	-0.30103
-4.3948264	Rui,	-0.30103
-4.3948264	Chẽ,	-0.6532125
-4.3948264	Đạc,	-0.30103
-4.3948264	Vừng,	-0.30103
-4.3948264	Khoai,	-0.30103
-3.709835	Tô,	-0.75696194
-4.3948264	Hãn,	-0.30103
-4.088622	Hưu,	-0.30103
-4.088622	Sỏi,	-0.30103
-4.3948264	Cốt,	-0.30103
-4.3948264	Vôi,	-0.30103
-4.088622	Lục,	-0.9542425
-4.3948264	Kép,	-0.30103
-4.3948264	Dĩnh,	-0.30103
-4.088622	Ngô,	-0.30103
-4.088622	Dị,	-0.30103
-4.135466	Điện,	-0.30103
-4.3948264	Chũ,	-0.30103
-4.135466	Hựu,	-0.30103
-3.9843574	Tử,	-0.42596874
-4.088622	Luận,	-0.30103
-4.3948264	Biền,	-0.30103
-3.4591992	Dũng,	-0.80618
-4.088622	Hộ,	-0.30103
-3.9843574	Gián,	-0.30103
-4.3948264	Mại,	-0.30103
-4.3948264	Nếnh,	-0.30103
-3.709835	Cơ,	-0.60206
-3.591784	Trang,	-0.9542425
-4.088622	Hạc,	-0.30103
-4.3948264	Gót,	-0.30103
-4.088622	Lô,	-0.8808136
-3.9843574	Lung,	-0.30103
-4.3948264	Doãn,	-0.30103
-4.088622	Đám,	-0.30103
-4.088622	Kiện,	-0.30103
-4.3948264	Mộng,	-0.30103
-4.088622	Phạm,	-0.30103
-4.3948264	Xạ,	-0.30103
-4.3948264	Áng,	-0.30103
-4.3948264	Luật,	-0.30103
-4.088622	Côi,	-0.30103
-4.135466	Chân,	-0.8325089
-4.3948264	Cù,	-0.30103
-4.3948264	Thản,	-0.30103
-4.3948264	Bán,	-0.30103
-4.3948264	Dẫn,	-0.30103
-3.8724701	Tập,	-0.38021123
-4.088622	Khúc,	-0.30103
-4.3948264	Dưỡng,	-0.30103
-4.3948264	Hoá,	-0.30103
-4.088622	Húc,	-0.30103
-4.088622	Thao,	-0.69897
-4.088622	Quả,	-0.30103
-4.3948264	Luyện,	-0.30103
-4.3948264	Khoán,	-0.30103
-3.9843574	Cửu,	-0.69897
-4.088622	Nhuệ,	-0.30103
-4.135466	Kiệt,	-0.30103
-4.088622	Trù,	-0.30103
-4.3948264	Trắc,	-0.30103
-4.3948264	Nhị,	-0.30103
-4.3948264	Viêm,	-0.30103
-4.3948264	Trục,	-0.30103
-4.3948264	Giản,	-0.30103
-4.088622	Ích,	-0.30103
-4.3948264	Lữ,	-0.90309
-3.9843574	Tĩnh,	-0.7781512
-4.3948264	Đảo,	-0.69897
-3.542952	Đại,	-0.8239087
-4.3948264	Tang,	-0.30103
-4.3948264	Di,	-0.30103
-4.088622	Lựu,	-0.30103
-4.3948264	Khoan,	-0.30103
-4.088622	Niệm,	-0.30103
-4.3948264	Chờ,	-0.30103
-4.3948264	Thống,	-0.30103
-4.3948264	Giả,	-0.30103
-4.3948264	Lim,	-0.30103
-4.3948264	Bão,	-0.30103
-4.135466	Vệ,	-0.30103
-4.3948264	Tích,	-0.30103
-3.9843574	Ngàn,	-0.30103
-4.3948264	Chẩn,	-0.30103
-4.3948264	Ngâm,	-0.30103
-4.3948264	Cứu,	-0.30103
-4.3948264	Thứa,	-0.30103
-3.709835	Tài,	-0.7201593
-3.7835839	Kênh,	-0.36797678
-4.3948264	Hàn,	-0.30103
-4.088622	Khôi,	-0.30103
-4.3948264	Tắm,	-0.30103
-4.088622	Sách,	-1.1335388
-4.3948264	Thứ,	-0.30103
-4.088622	Vu,	-0.30103
-4.3948264	Đính,	-0.30103
-4.088622	Chế,	-0.30103
-4.3948264	Lỗi,	-0.30103
-4.135466	Đoài,	-0.30103
-4.3948264	Sặt,	-0.30103
-4.088622	Kháng,	-0.30103
-4.3948264	Bì,	-0.30103
-4.088622	Trấn,	-0.30103
-4.135466	Phục,	-0.42596874
-4.3948264	Khải,	-0.30103
-4.135466	Tố,	-0.30103
-4.3948264	Hoè,	-0.30103
-4.3948264	Miện,	-0.9542425
-4.3948264	Toan,	-0.30103
-3.9843574	Dầu,	-0.56987536
-4.3948264	Chuối,	-0.30103
-4.3948264	Chai,	-0.30103
-4.135466	Tơ,	-0.86530143
-3.8724701	Tre,	-0.71120447
-4.088622	Đất,	-0.80618
-4.3948264	Tray,	-0.30103
-4.135466	Dài,	-0.30103
-4.3948264	Trữ,	-0.30103
-4.3948264	Ngọ,	-0.30103
-4.3948264	Đẩu,	-0.30103
-4.3948264	Liễn,	-0.30103
-4.3948264	Đèo,	-0.30103
-4.3948264	Đối,	-0.30103
-4.3948264	Thuỵ,	-1.0791812
-4.3948264	Đoan,	-0.30103
-4.088622	Am,	-0.30103
-3.9843574	Hiền,	-0.42596874
-3.8724701	Hào,	-0.75332767
-3.8724701	Chiểu,	-0.41017446
-4.3948264	Dù,	-0.30103
-4.135466	Trụ,	-0.6368221
-4.088622	Sam,	-0.30103
-4.3948264	Ủng,	-0.30103
-4.3948264	Sậy,	-0.30103
-4.3948264	Phiến,	-0.30103
-4.088622	Cừ,	-0.8750613
-4.088622	Trân,	-0.30103
-4.3948264	Ấp,	-0.30103
-3.8724701	Quí,	-0.36797678
-4.135466	Á,	-0.30103
-3.9843574	Tuyền,	-0.30103
-4.3948264	Tiết,	-0.30103
-4.3948264	Úy,	-0.30103
-4.088622	Triệu,	-0.30103
-4.3948264	Gôi,	-0.30103
-4.3948264	Cồn,	-0.30103
-4.3948264	Điệp,	-0.7781512
-4.088622	Me,	-0.30103
-4.088622	Tôn,	-0.8325089
-4.3948264	Nhạc,	-0.30103
-4.088622	Diệm,	-0.30103
-4.3948264	Thoi,	-0.30103
-4.3948264	Trạo,	-0.30103
-4.088622	Lát,	-0.60206
-4.088622	Nghiêm,	-0.30103
-4.3948264	Thước,	-1.146128
-4.3948264	Niêm,	-0.30103
-3.9843574	Nho,	-0.42596874
-4.3948264	Ống,	-0.30103
-4.3948264	Mèo,	-0.30103
-4.3948264	Mìn,	-0.30103
-3.2755942	Chánh,	-0.8709053
-4.3948264	Lặc,	-1.0413927
-4.3948264	Ấn,	-0.30103
-4.135466	Tượng,	-0.30103
-4.3948264	Toại,	-0.30103
-4.135466	Diên,	-0.30103
-4.3948264	Mọt,	-0.30103
-4.3948264	Lẹ,	-0.30103
-4.3948264	Duy,	-0.30103
-4.3948264	Toán,	-0.30103
-4.088622	Vịnh,	-0.30103
-4.3948264	Trành,	-0.30103
-4.088622	Nghi,	-0.30103
-4.3948264	Cống,	-1.1760912
-3.591784	Vĩnh,	-0.76176083
-4.3948264	Bàu,	-0.30103
-4.088622	Cung,	-0.30103
-4.3948264	Lò,	-0.66900676
-4.3948264	Giải,	-0.30103
-4.3948264	Nọc,	-0.30103
-4.3948264	Nhoóng,	-0.30103
-4.3948264	Bính,	-0.30103
-3.9843574	Nga,	-0.30103
-4.088622	Hoàn,	-0.30103
-4.3948264	Xén,	-0.30103
-4.3948264	Mạy,	-0.30103
-4.088622	Tụ,	-0.30103
-4.3948264	Lống,	-0.30103
-4.3948264	Loi,	-0.30103
-4.3948264	Cắn,	-0.30103
-4.3948264	Đánh,	-0.30103
-4.3948264	Cạ,	-0.30103
-4.3948264	Típ,	-0.30103
-4.3948264	Ải,	-0.30103
-4.3948264	Ngoi,	-0.30103
-4.3948264	Càn,	-0.30103
-4.3948264	Khuông,	-0.30103
-3.8724701	Na,	-0.60206
-4.3948264	Kiền,	-0.30103
-4.3948264	Lượng,	-0.30103
-4.3948264	Giát,	-0.30103
-3.9843574	Tam,	-0.30103
-4.3948264	Đôi,	-0.30103
-4.135466	Dạ,	-0.30103
-4.135466	Vạn,	-0.30103
-4.088622	Kỷ,	-0.30103
-4.135466	Bích,	-0.30103
-4.3948264	Nài,	-0.30103
-4.088622	Hàm,	-0.30103
-4.3948264	Ảnh,	-0.30103
-4.088622	Phổ,	-0.8325089
-4.3948264	Đạm,	-0.30103
-4.3948264	Nghèn,	-0.30103
-4.3948264	Hới,	-1
-4.135466	Lê,	-0.30103
-4.088622	Nẫm,	-0.30103
-4.3948264	Hàu,	-0.30103
-3.9843574	,	-0.42596874
-4.088622	4,	-0.86033803
-4.088622	5,	-0.845098
-3.7835839	3,	-0.75332767
-4.3948264	Chấp,	-0.30103
-4.088622	Ô,	-0.30103
-4.088622	Sanh,	-0.30103
-4.3948264	Tầng,	-0.30103
-4.088622	Dơi,	-0.85733247
-4.3948264	Xy,	-0.30103
-4.3948264	Klang,	-0.30103
-4.3948264	Krông,	-0.845098
-4.3948264	Ó,	-0.30103
-4.3948264	Lòng,	-0.30103
-4.3948264	Nghì,	-0.30103
-4.3948264	Vao,	-0.30103
-4.3948264	Rụt,	-0.30103
-4.088622	Bung,	-0.30103
-4.088622	Ngo,	-0.30103
-3.0056329	Phước,	-1.2515446
-4.135466	Quy,	-0.30103
-4.3948264	Đúc,	-0.30103
-4.3948264	Cựu,	-0.30103
-4.3948264	Biều,	-0.30103
-4.3948264	Sịa,	-0.30103
-4.088622	Vang,	-0.8709053
-4.088622	Chữ,	-0.30103
-4.3948264	Lưới,	-0.9777236
-4.088622	Nhâm,	-0.30103
-4.3948264	Roàng,	-0.30103
-4.3948264	Đớt,	-0.30103
-4.3948264	Cô,	-0.30103
-4.088622	Bổn,	-0.30103
-4.3948264	Thang,	-0.30103
-4.135466	I,	-0.30103
-3.9843574	II,	-0.30103
-4.088622	Phát,	-0.30103
-3.4591992	Nhơn,	-1.2108533
-2.9098043	Thạnh,	-1.2416571
-4.3948264	Phô,	-0.30103
-4.3948264	Ch'ơm,	-0.30103
-4.088622	Ri,	-0.30103
-4.3948264	Xan,	-0.30103
-4.3948264	Tr'Hy,	-0.30103
-4.3948264	Tiêng,	-0.30103
-4.088622	Dang,	-0.30103
-4.088622	Rao,	-0.30103
-4.3948264	Kôn,	-0.30103
-4.3948264	Ngây,	-0.30103
-4.3948264	Ting,	-0.30103
-4.3948264	Tư,	-0.30103
-4.3948264	Rooi,	-0.30103
-4.3948264	Cooi,	-0.30103
-4.3948264	Dăng,	-0.30103
-3.709835	Lãnh,	-1.057992
-4.3948264	Laêê,	-0.30103
-4.3948264	Chun,	-0.30103
-4.3948264	Zuôich,	-0.30103
-4.3948264	Pơơ,	-0.30103
-4.3948264	Dêê,	-0.30103
-4.3948264	Tôi,	-0.30103
-4.3948264	Vàl,	-0.30103
-4.3948264	Bhinh,	-0.30103
-4.3948264	Dy,	-0.30103
-4.3948264	Pre,	-0.30103
-4.3948264	Pring,	-0.30103
-3.9843574	Cảnh,	-0.30103
-4.3948264	Kót,	-0.30103
-4.3948264	Nú,	-0.30103
-4.3948264	Bui,	-0.30103
-4.135466	Đốc,	-0.5563025
-4.3948264	Giác,	-0.30103
-4.135466	Ka,	-0.30103
-4.3948264	Leng,	-0.30103
-4.3948264	Dơn,	-0.30103
-4.088622	Don,	-0.30103
-3.4591992	Ngãi,	-0.89085555
-4.3948264	Dõng,	-0.30103
-4.3948264	Ổ,	-0.30103
-4.3948264	Bùi,	-0.30103
-4.3948264	Xinh,	-0.30103
-3.9843574	Tịnh,	-0.6320232
-4.088622	Thương,	-0.30103
-4.088622	Bao,	-0.30103
-4.3948264	Mùa,	-0.30103
-4.3948264	Màu,	-0.30103
-3.9843574	Dinh,	-0.30103
-4.3948264	Khâm,	-0.30103
-4.088622	Tiêu,	-0.30103
-4.3948264	Lế,	-0.30103
-4.3948264	Cảng,	-0.30103
-4.3948264	Nại,	-0.30103
-4.3948264	Ráng,	-0.30103
-4.3948264	Tới,	-0.30103
-4.088622	Đá,	-0.30103
-4.088622	Hiển,	-0.60206
-4.088622	8,	-0.8872957
-4.3948264	9,	-0.6532125
-4.088622	7,	-0.8239087
-4.088622	6,	-0.8361432
-4.135466	Kiến,	-0.30103
-4.3948264	Mỡ,	-0.30103
-4.3948264	Lúi,	-0.30103
-4.3948264	Rang,	-0.30103
-4.088622	Riêng,	-0.30103
-4.3948264	Hinh,	-0.7781512
-4.3948264	EaBar,	-0.30103
-4.3948264	EaBia,	-0.30103
-4.3948264	EaTrol,	-0.30103
-4.3948264	Ealy,	-0.30103
-4.088622	Huân,	-0.30103
-4.3948264	Sài,	-0.30103
-4.3948264	Ranh,	-1
-4.3948264	Ngòi,	-0.30103
-4.3948264	Sim,	-0.30103
-4.3948264	Thân,	-0.30103
-4.088622	Diêm,	-0.30103
-4.3948264	Hạp,	-0.30103
-4.088622	Tồn,	-0.30103
-4.3948264	Chàm,	-1.0280287
-4.3948264	Nới,	-0.30103
-4.3948264	Ná,	-0.30103
-4.088622	Né,	-0.30103
-4.3948264	Hài,	-0.30103
-4.3948264	Gi,	-0.7781512
-4.3948264	Cửa,	-0.30103
-4.3948264	Thể,	-0.30103
-4.3948264	Lũy,	-0.30103
-4.3948264	Mi,	-0.30103
-4.3948264	Mán,	-0.30103
-4.3948264	Tánh,	-0.30103
-4.3948264	Ngâu,	-0.30103
-4.3948264	Khiêm,	-0.30103
-4.135466	Kho,	-0.30103
-4.3948264	Huynh,	-0.30103
-3.9843574	Kiết,	-0.42596874
-4.3948264	Xu,	-0.30103
-4.3948264	Kai,	-0.30103
-4.3948264	Pu,	-0.30103
-4.3948264	Tum,	-1.146128
-4.3948264	Cấm,	-0.30103
-4.3948264	Kroong,	-0.30103
-4.3948264	Bay,	-0.30103
-4.3948264	Blà,	-0.30103
-4.088622	Chim,	-0.30103
-4.3948264	Hreng,	-0.30103
-4.3948264	Wa,	-0.30103
-4.3948264	Glei,	-0.81291336
-4.3948264	Blô,	-0.30103
-4.3948264	Man,	-0.30103
-4.3948264	Nhoong,	-0.30103
-4.3948264	Pék,	-0.30103
-4.3948264	Choong,	-0.30103
-4.3948264	Xốp,	-0.30103
-4.3948264	Hoong,	-0.30103
-4.3948264	KRoong,	-0.30103
-4.3948264	Kần,	-0.30103
-4.3948264	Ang,	-0.30103
-4.3948264	Xú,	-0.30103
-4.088622	Kan,	-0.30103
-4.3948264	Y,	-0.30103
-4.3948264	Loong,	-0.30103
-4.3948264	Trăm,	-0.30103
-4.3948264	Lem,	-0.30103
-4.3948264	Kô,	-0.30103
-4.3948264	Nên,	-0.30103
-4.3948264	Plông,	-0.7781512
-4.3948264	Ring,	-0.30103
-4.3948264	Buk,	-0.30103
-4.3948264	Tem,	-0.30103
-4.3948264	Ê,	-0.30103
-4.3948264	Cành,	-0.30103
-4.3948264	Rve,	-0.30103
-4.3948264	Rẫy,	-0.66900676
-4.3948264	Kôi,	-0.30103
-4.3948264	Ruồng,	-0.30103
-4.088622	Pne,	-0.30103
-4.3948264	Re,	-0.30103
-4.3948264	PXi,	-0.30103
-4.3948264	HRing,	-0.30103
-4.3948264	Ui,	-0.30103
-4.3948264	Ngọk,	-0.30103
-4.3948264	Mar,	-0.30103
-4.3948264	Wang,	-0.30103
-4.3948264	Réo,	-0.30103
-4.3948264	Thầy,	-0.7781512
-4.3948264	Kơi,	-0.30103
-4.3948264	Moong,	-0.30103
-4.088622	Rai,	-0.74036264
-4.3948264	Xiêr,	-0.30103
-4.3948264	ly,	-0.30103
-4.088622	Lây,	-0.30103
-4.088622	Rông,	-1
-4.3948264	Yêu,	-0.30103
-4.3948264	Xăng,	-0.30103
-4.3948264	Xuôi,	-0.30103
-4.3948264	Đal,	-0.30103
-4.3948264	Drai,	-0.30103
-4.3948264	Dom,	-0.30103
-4.3948264	Tơi,	-0.30103
-4.3948264	Đỗ,	-0.30103
-4.3948264	Pleiku,	-1.1663314
-4.3948264	Kring,	-0.30103
-4.3948264	Gào,	-0.30103
-4.3948264	Reo,	-0.30103
-4.3948264	Bờ,	-0.30103
-4.3948264	RBol,	-0.30103
-4.3948264	Băh,	-0.30103
-4.3948264	RTô,	-0.30103
-4.135466	KBang,	-0.80618
-4.3948264	Roong,	-0.30103
-4.3948264	KRong,	-0.30103
-4.3948264	Pai,	-0.30103
-4.3948264	Ku,	-0.30103
-4.3948264	SMar,	-0.30103
-4.3948264	Khơng,	-0.30103
-4.3948264	Pla,	-0.30103
-4.3948264	HLơ,	-0.30103
-4.3948264	Đoa,	-0.9542425
-4.3948264	Sơmei,	-0.30103
-4.3948264	Krong,	-0.30103
-3.8724701	Yang,	-0.72699875
-4.3948264	Gang,	-0.30103
-4.3948264	Bầu,	-0.30103
-4.3948264	Neng,	-0.30103
-4.3948264	Glar,	-0.30103
-4.088622	Dơk,	-0.30103
-4.3948264	HNol,	-0.30103
-4.3948264	Pết,	-0.30103
-4.3948264	Băng,	-0.30103
-4.3948264	Păh,	-0.97003675
-4.3948264	Khươl,	-0.30103
-4.3948264	Phí,	-0.30103
-4.3948264	Kreng,	-0.30103
-4.3948264	Ver,	-0.30103
-4.088622	Ya,	-0.30103
-4.3948264	Grai,	-0.9378521
-4.3948264	Yok,	-0.30103
-4.3948264	Hrung,	-0.30103
-4.3948264	Bă,	-0.30103
-4.3948264	KRai,	-0.30103
-4.3948264	Grăng,	-0.30103
-4.3948264	O,	-0.30103
-4.3948264	Dêr,	-0.30103
-4.3948264	Chia,	-0.30103
-4.3948264	Pếch,	-0.30103
-4.3948264	Dơng,	-0.30103
-4.3948264	Ayun,	-0.30103
-4.3948264	Ley,	-0.30103
-4.3948264	Hra,	-0.30103
-4.3948264	Yă,	-0.30103
-4.3948264	Djrăng,	-0.30103
-4.088622	Pang,	-0.30103
-4.3948264	Thụp,	-0.30103
-4.3948264	Ar,	-0.30103
-4.3948264	Chiêng,	-0.30103
-4.3948264	Chro,	-0.8750613
-4.3948264	Krêy,	-0.30103
-4.3948264	SRó,	-0.30103
-4.088622	Ning,	-0.30103
-4.088622	Song,	-0.69897
-4.3948264	Pling,	-0.30103
-4.3948264	Krêl,	-0.30103
-4.3948264	Din,	-0.30103
-4.3948264	Kla,	-0.30103
-4.3948264	Kriêng,	-0.30103
-4.3948264	Pnôn,	-0.30103
-4.3948264	Nan,	-0.30103
-4.088622	Prông,	-0.9444827
-4.088622	Kly,	-0.30103
-4.135466	Drăng,	-0.30103
-4.088622	Cạn,	-0.30103
-4.3948264	Tôr,	-0.30103
-4.3948264	Boòng,	-0.30103
-4.3948264	Púch,	-0.30103
-4.3948264	Vê,	-0.30103
-4.3948264	Pia,	-0.30103
-4.3948264	Ga,	-0.30103
-4.3948264	Piơr,	-0.30103
-4.088622	Mơ,	-0.30103
-4.3948264	Sê,	-0.90309
-4.3948264	Tiêm,	-0.30103
-4.088622	Pơng,	-0.30103
-4.3948264	Măih,	-0.30103
-4.3948264	Ngoong,	-0.30103
-4.3948264	Glai,	-0.30103
-4.3948264	HTok,	-0.30103
-4.3948264	AYun,	-0.30103
-4.3948264	HLốp,	-0.30103
-4.088622	Blang,	-0.30103
-4.3948264	Dun,	-0.30103
-4.088622	Pal,	-0.30103
-4.3948264	Ko,	-0.30103
-4.088622	Pơ,	-0.6532125
-4.3948264	Tó,	-0.30103
-4.088622	Răng,	-0.60206
-4.3948264	KDăm,	-0.30103
-4.088622	Tul,	-0.30103
-4.3948264	Rơn,	-0.30103
-4.3948264	Broăi,	-0.30103
-4.3948264	Trok,	-0.30103
-4.3948264	RSai,	-0.30103
-4.3948264	RSươm,	-0.30103
-4.3948264	Gu,	-0.30103
-4.3948264	Mláh,	-0.30103
-4.3948264	HDreh,	-0.30103
-4.3948264	RMok,	-0.30103
-4.3948264	Uar,	-0.30103
-4.3948264	Rcăm,	-0.30103
-4.3948264	Thai,	-0.30103
-4.3948264	Ake,	-0.30103
-4.088622	Sol,	-0.30103
-4.3948264	Piar,	-0.30103
-4.3948264	Peng,	-0.30103
-4.3948264	Pơnan,	-0.30103
-4.088622	Hiao,	-0.30103
-4.3948264	Yeng,	-0.30103
-4.3948264	Pưh,	-0.7781512
-4.3948264	Hrú,	-0.30103
-4.088622	Rong,	-0.30103
-4.3948264	Dreng,	-0.30103
-4.3948264	Hla,	-0.30103
-4.3948264	Phang,	-0.30103
-4.3948264	Le,	-0.30103
-4.3948264	BLứ,	-0.30103
-4.3948264	Thuột,	-1.146128
-4.3948264	ÊBur,	-0.30103
-4.088622	Kao,	-0.30103
-4.3948264	Drông,	-0.30103
-4.3948264	Siên,	-0.30103
-4.3948264	H'leo,	-0.81291336
-4.3948264	Ral,	-0.30103
-4.3948264	Wy,	-0.30103
-4.088622	Mốt,	-0.30103
-4.3948264	Khal,	-0.30103
-4.3948264	Tir,	-0.30103
-4.3948264	Súp,	-0.74036264
-4.3948264	Lốp,	-0.30103
-4.3948264	JLơi,	-0.30103
-4.3948264	Rốk,	-0.30103
-4.3948264	RVê,	-0.30103
-4.3948264	M'Lan,	-0.30103
-4.3948264	Huar,	-0.30103
-4.088622	Wer,	-0.30103
-4.3948264	KNia,	-0.30103
-4.3948264	Bar,	-0.30103
-4.3948264	Nuôl,	-0.30103
-4.3948264	Pốk,	-0.30103
-4.3948264	M'gar,	-0.9542425
-4.3948264	Kuêh,	-0.30103
-4.3948264	Tar,	-0.30103
-4.3948264	M'nông,	-0.30103
-4.3948264	H'đinh,	-0.30103
-4.3948264	KPam,	-0.30103
-4.3948264	M'DRóh,	-0.30103
-4.3948264	D'Rơng,	-0.30103
-4.3948264	M'nang,	-0.30103
-4.3948264	Suê,	-0.30103
-4.088622	Búk,	-0.60206
-4.3948264	KBô,	-0.30103
-4.3948264	Drang,	-0.30103
-4.3948264	Ngai,	-0.30103
-4.3948264	Tóh,	-0.30103
-4.3948264	Puk,	-0.30103
-4.3948264	Dăh,	-0.30103
-4.3948264	Klông,	-0.30103
-4.3948264	Kar,	-0.9294189
-4.3948264	Knốp,	-0.30103
-4.3948264	Sô,	-0.30103
-4.088622	Sar,	-0.30103
-4.3948264	Huê,	-0.30103
-4.3948264	Tih,	-0.30103
-4.3948264	Đar,	-0.30103
-4.3948264	Kmút,	-0.30103
-4.3948264	Ni,	-0.30103
-4.3948264	Păl,	-0.30103
-4.3948264	ELang,	-0.30103
-4.3948264	Jang,	-0.30103
-4.088622	M'Đrắk,	-0.845098
-4.3948264	Prao,	-0.30103
-4.3948264	Pil,	-0.30103
-4.3948264	H'MLay,	-0.30103
-4.3948264	Jing,	-0.30103
-4.3948264	Doal,	-0.30103
-4.3948264	M'ta,	-0.30103
-4.3948264	Róa,	-0.30103
-4.3948264	Kmar,	-0.30103
-4.3948264	Kang,	-0.30103
-4.3948264	KTy,	-0.30103
-4.3948264	Reh,	-0.30103
-4.3948264	Trul,	-0.30103
-4.3948264	Pui,	-0.30103
-4.3948264	Drăm,	-0.30103
-4.3948264	Pắc,	-1.0280287
-4.3948264	Phê,	-0.30103
-4.3948264	KNuec,	-0.30103
-4.3948264	Yông,	-0.30103
-4.3948264	Kuăng,	-0.30103
-4.3948264	Hiu,	-0.30103
-4.3948264	Uy,	-0.30103
-4.3948264	Yiêng,	-0.30103
-4.3948264	Trấp,	-0.30103
-4.3948264	Sáp,	-0.30103
-4.3948264	Drênh,	-0.30103
-4.3948264	KMăl,	-0.30103
-4.3948264	Lắk,	-0.86530143
-4.3948264	Tao,	-0.30103
-4.3948264	Krang,	-0.30103
-4.088622	Liêng,	-0.30103
-4.3948264	Triết,	-0.30103
-4.3948264	Tría,	-0.30103
-4.3948264	Phơi,	-0.30103
-4.3948264	Nuê,	-0.30103
-4.3948264	Nô,	-0.81291336
-4.3948264	R'Bin,	-0.30103
-4.3948264	Kuin,	-0.72699875
-4.3948264	Wi,	-0.30103
-4.3948264	Ktur,	-0.30103
-4.3948264	BHốk,	-0.30103
-4.3948264	Bhăng,	-0.30103
-4.3948264	R'Moan,	-0.30103
-4.3948264	Nia,	-0.30103
-4.3948264	Glong,	-0.66900676
-4.3948264	Ha,	-0.30103
-4.3948264	R'Măng,	-0.30103
-4.3948264	Plao,	-0.30103
-4.3948264	Som,	-0.30103
-4.3948264	T'Ling,	-0.30103
-4.3948264	Jút,	-0.72699875
-4.3948264	Wil,	-0.30103
-4.3948264	Pô,	-0.30103
-4.3948264	DRông,	-0.30103
-4.3948264	Knia,	-0.30103
-4.3948264	Mil,	-0.74036264
-4.3948264	R'La,	-0.30103
-4.3948264	Gằn,	-0.30103
-4.3948264	Mạnh,	-0.30103
-4.3948264	N'Drót,	-0.30103
-4.3948264	Sắk,	-0.30103
-4.3948264	Mâm,	-0.30103
-4.3948264	Sôr,	-0.30103
-4.3948264	Choah,	-0.30103
-4.3948264	Drô,	-0.30103
-4.3948264	N'Đir,	-0.30103
-4.3948264	Môl,	-0.30103
-4.3948264	N'Dung,	-0.30103
-4.3948264	N'Jang,	-0.30103
-4.3948264	R'Lấp,	-0.86530143
-4.3948264	Ru,	-0.30103
-4.3948264	R'Tíh,	-0.30103
-4.3948264	Lạt,	-1.0280287
-4.088622	12,	-0.74036264
-4.135466	10,	-0.763428
-4.088622	11,	-0.8091855
-4.3948264	B'lao,	-0.30103
-4.3948264	Bri,	-0.30103
-4.3948264	Srônh,	-0.30103
-4.3948264	Rsal,	-0.30103
-4.3948264	Chais,	-0.30103
-4.3948264	Nhim,	-0.30103
-4.3948264	KNớ,	-0.30103
-4.3948264	Đờn,	-0.30103
-4.3948264	D'Ran,	-0.30103
-4.3948264	Ròn,	-0.30103
-4.3948264	Đơn,	-0.30103
-4.3948264	Pró,	-0.30103
-4.3948264	Quyn,	-0.30103
-4.3948264	Hine,	-0.30103
-4.3948264	Đầm,	-0.30103
-4.3948264	Ré,	-0.30103
-4.3948264	Lá,	-0.30103
-4.3948264	M'ri,	-0.30103
-4.3948264	Huoai,	-0.7781512
-4.3948264	Guôi,	-0.30103
-4.3948264	Ploa,	-0.30103
-4.3948264	Tẻh,	-0.69897
-4.088622	Xoài,	-0.6532125
-4.3948264	Mập,	-0.6532125
-4.3948264	Ơ,	-0.30103
-4.135466	Tấn,	-0.30103
-4.3948264	Đốp,	-0.66900676
-4.088622	Quản,	-0.845098
-4.3948264	Nơ,	-0.30103
-4.3948264	Nhau,	-0.30103
-4.135466	Riềng,	-1.0280287
-4.3948264	Vong,	-0.30103
-4.3948264	Dây,	-0.30103
-4.088622	Khởi,	-0.30103
-4.3948264	Củi,	-0.30103
-4.088622	Đước,	-0.8808136
-4.3948264	Chỉ,	-0.30103
-4.3948264	Thố,	-0.30103
-4.3948264	Tiếng,	-0.81291336
-4.3948264	Thiêu,	-0.30103
-4.3948264	Cuốc,	-0.30103
-4.3948264	Trâm,	-0.30103
-4.3948264	Gòn,	-0.30103
-4.3948264	Lua,	-0.30103
-4.3948264	Lài,	-0.30103
-4.3948264	Bom,	-0.9542425
-4.3948264	Gáo,	-0.30103
-4.3948264	Trầu,	-0.30103
-4.3948264	61,	-0.30103
-4.088622	25,	-0.30103
-4.3948264	Giây,	-0.30103
-4.088622	Ray,	-0.30103
-4.3948264	Thiền,	-0.30103
-4.088622	Tàu,	-0.9542425
-4.088622	Nghệ,	-0.30103
-4.3948264	Lớn,	-0.30103
-4.135466	Bửu,	-0.30103
-4.135466	Nhứt,	-0.30103
-4.3948264	Tỉnh,	-0.30103
-4.3948264	Nghé,	-0.30103
-4.3948264	15,	-0.72699875
-4.3948264	Vấp,	-1.0280287
-4.3948264	13,	-0.86530143
-4.3948264	17,	-0.30103
-4.3948264	16,	-0.42596874
-4.3948264	14,	-0.8239087
-4.3948264	05,	-0.8239087
-4.3948264	07,	-0.7781512
-4.3948264	04,	-0.8239087
-4.3948264	01,	-0.86530143
-4.3948264	03,	-0.8239087
-4.3948264	27,	-0.30103
-4.3948264	26,	-0.30103
-4.3948264	24,	-0.30103
-4.3948264	06,	-0.72699875
-4.3948264	02,	-0.8239087
-4.3948264	21,	-0.30103
-4.3948264	22,	-0.30103
-4.3948264	19,	-0.30103
-4.3948264	28,	-0.30103
-4.3948264	08,	-0.72699875
-4.3948264	09,	-0.7781512
-3.1857436	B,	-0.845098
-4.3948264	Thiêm,	-0.30103
-4.088622	Sáu,	-0.30103
-4.3948264	18,	-0.30103
-4.3948264	Kiểng,	-0.30103
-4.3948264	Cội,	-0.30103
-4.088622	Nhựt,	-0.30103
-4.088622	Bè,	-0.9294189
-4.3948264	Kiển,	-0.30103
-3.4226916	Thới,	-0.6532125
-4.3948264	Giờ,	-0.66900676
-4.3948264	Lức,	-0.90309
-4.3948264	Thừa,	-0.81291336
-4.3948264	Giuộc,	-0.90309
-3.591784	Quới,	-0.64345264
-4.3948264	Tho,	-1.0543576
-4.3948264	Lậy,	-1.3290588
-4.3948264	Hy,	-0.30103
-4.3948264	Điềm,	-0.30103
-4.3948264	Gạo,	-1
-4.3948264	Lách,	-0.7781512
-4.3948264	Thiềng,	-0.30103
-4.3948264	Cày,	-0.30103
-4.3948264	Trôm,	-1.0413927
-4.3948264	Tôm,	-0.30103
-4.3948264	Ngang,	-0.90309
-4.3948264	Thít,	-0.90309
-4.3948264	Nhum,	-0.30103
-4.3948264	Tứ,	-0.30103
-4.3948264	Vồn,	-0.30103
-4.3948264	Ôn,	-0.8750613
-4.3948264	Lược,	-0.30103
-4.3948264	Thảnh,	-0.30103
-4.3948264	Đéc,	-0.7781512
-4.3948264	Ngự,	-1.0543576
-4.3948264	Rài,	-0.30103
-4.3948264	Chí,	-0.30103
-4.3948264	Sính,	-0.30103
-4.3948264	Biển,	-0.30103
-4.3948264	Giồng,	-0.30103
-4.3948264	Huề,	-0.30103
-4.3948264	Vò,	-0.845098
-4.3948264	Vung,	-0.81291336
-4.3948264	Ngươn,	-0.30103
-4.088622	Vàm,	-0.30103
-4.3948264	Voi,	-0.30103
-4.088622	Chúc,	-0.30103
-4.3948264	Phi,	-0.30103
-4.3948264	Đảnh,	-0.30103
-4.088622	Tức,	-0.30103
-4.3948264	Tuyến,	-0.30103
-4.3948264	Eo,	-0.30103
-4.3948264	Thê,	-0.30103
-4.3948264	Huỳnh,	-0.30103
-4.3948264	Quao,	-0.7781512
-4.3948264	Điều,	-0.30103
-4.3948264	Khế,	-0.30103
-4.3948264	Nóc,	-0.30103
-4.3948264	Nốt,	-0.69897
-4.3948264	Qưới,	-0.30103
-4.3948264	III,	-0.30103
-4.3948264	IV,	-0.30103
-4.3948264	V,	-0.30103
-4.3948264	VII,	-0.30103
-4.3948264	Bảy,	-0.54406804
-4.3948264	Gòi,	-0.30103
-4.3948264	Tắc,	-0.30103
-4.3948264	Dầm,	-0.30103
-4.3948264	Cùng,	-0.30103
-4.088622	Mau,	-0.9542425
-4.3948264	Lồng,	-0.30103
-4.3948264	Trăng,	-0.8239087
-4.3948264	Năm,	-0.72699875
-4.3948264	Mát,	-0.30103
-4.3948264	Phòng,	-0.30103
-4.3948264	Tròn,	-0.30103
-4.3948264	Phích,	-0.30103
-4.3948264	Phải,	-0.30103
-4.3948264	Thời,	-0.845098
-4.3948264	Hợi,	-0.30103
-4.3948264	Nước,	-0.7781512
-4.3948264	Phán,	-0.30103
-4.3948264	Duyệt,	-0.30103
-4.3948264	Phẩm,	-0.30103
-4.3948264	Căn,	-0.6532125
-4.3948264	Chèo,	-0.30103
-4.3948264	Khái,	-0.30103
-4.3948264	Gốc,	-0.30103
-4.3948264	Mũi,	-0.30103

\2-grams:
-0.30015236	Ngõ </s>
-2.2182274	Đường </s>
-0.30015236	Số </s>
-1.1400214	Tổ </s>
-0.30015236	Ngách </s>
-0.30015236	Khu </s>
-0.89959	Hẻm </s>
-1.5882263	Thôn </s>
-0.89959	Ấp </s>
-0.30015236	Xóm </s>
-0.30015236	số </s>
-0.30015236	ngách </s>
-0.30015236	ngõ </s>
-0.30015236	hẻm </s>
-0.30015236	thôn </s>
-0.30015236	tổ </s>
-0.30015236	ấp </s>
-0.30015236	xóm </s>
-0.30015236	khu </s>
-0.30015236	đường </s>
-0.27995083	Phúc </s>
-0.0069738748	Nội </s>
-0.28549302	Biên </s>
-0.6918068	Đồng </s>
-0.18749355	Dương </s>
-0.41746187	Nam </s>
-0.34245947	An </s>
-0.11107019	La </s>
-0.65837204	Yên </s>
-0.8328061	Long </s>
-0.07317241	Giang </s>
-0.38027787	Quang </s>
-0.07916955	Huế </s>
-0.2722888	Minh </s>
-0.14891212	Định </s>
-0.8453653	Sơn </s>
-0.36803418	Ninh </s>
-0.21379225	Nguyên </s>
-0.7344663	Châu </s>
-0.68208593	Hòa </s>
-0.21840394	Thọ </s>
-0.3410066	Thuận </s>
-0.04307336	Tháp </s>
-0.45664966	Bình </s>
-0.08913823	Bằng </s>
-0.23577003	Lai </s>
-0.21730833	Vinh </s>
-0.3062641	Nông </s>
-0.09659984	Trị </s>
-0.13830991	Cai </s>
-0.03270704	Tĩnh </s>
-0.024979442	Kạn </s>
-0.13921422	Hóa </s>
-0.03530415	Bái </s>
-0.011669968	Nai </s>
-0.1007672	Liêu </s>
-0.0022439656	Phòng </s>
-0.03684647	Tre </s>
-0.5343871	Phước </s>
-0.0028990984	Nẵng </s>
-0.07924653	Ngãi </s>
-0.0639474	Tum </s>
-0.01992736	Lắk </s>
-0.07247419	Tàu </s>
-0.0019626499	Thơ </s>
-0.05608322	Mau </s>
-0.030383999	Trăng </s>
-4.8954496	<s> Ngõ
-3.8610048	<s> Đường
-2.5409312	Ngọc Đường
-2.6817229	Kim Đường
-3.0054798	Xuân Đường
-3.238963	Xã Đường
-3.3091285	Hải Đường
-1.2946022	Tam Đường
-3.2410972	xã Đường
-2.7152102	Cẩm Đường
-2.2951362	Cam Đường
-0.9693333	Cúc Đường
-2.261761	Thuỷ Đường
-4.8954496	<s> Số
-4.8701468	<s> Tổ
-2.1633368	Đình Tổ
-3.2201028	Thái Tổ
-4.8954496	<s> Ngách
-4.8954496	<s> Khu
-4.8639655	<s> Hẻm
-3.723301	Bình Hẻm
-4.8067613	<s> Thôn
-3.1945605	Nội Thôn
-2.421513	Thượng Thôn
-2.1604784	Tam Thôn
-3.17767	Châu Thôn
-2.573389	Lạc Thôn
-4.8639655	<s> Ấp
-3.5724049	An Ấp
-4.8954496	<s> Xóm
-4.8954496	<s> số
-4.8954496	<s> ngách
-4.8954496	<s> ngõ
-4.8954496	<s> hẻm
-4.8954496	<s> thôn
-4.8954496	<s> tổ
-4.8954496	<s> ấp
-4.8954496	<s> xóm
-4.8954496	<s> khu
-4.8954496	<s> đường
-1.3796697	<s> Phường
-3.5262582	Phường Phường
-2.9256294	<s> Phúc
-2.3953512	Phường Phúc
-3.1716564	Phúc Phúc
-2.569749	Đình Phúc
-2.354428	phố Phúc
-3.8773406	Hà Phúc
-0.6793847	Vĩnh Phúc
-1.8252523	Nguyễn Phúc
-2.2039487	Trung Phúc
-2.5537238	Tân Phúc
-2.7599883	Đồng Phúc
-2.8979824	Xuân Phúc
-3.1716397	Thái Phúc
-3.0807748	Dương Phúc
-2.9771736	Nam Phúc
-2.6309583	Hưng Phúc
-3.3088703	Phú Phúc
-2.7465026	Thượng Phúc
-2.9781957	Quảng Phúc
-3.4346068	An Phúc
-2.9928038	Yên Phúc
-3.853	Giang Phúc
-2.303262	Nghĩa Phúc
-1.633616	Đa Phúc
-2.5669742	Phương Phúc
-2.1402771	Đại Phúc
-2.899422	trấn Phúc
-2.6072235	Huyện Phúc
-2.3052537	Xã Phúc
-2.5846329	Hồng Phúc
-3.320967	Ninh Phúc
-2.8641815	Nguyên Phúc
-2.3853133	Vân Phúc
-1.6288089	Cổ Phúc
-3.2378826	Hải Phúc
-2.777106	Hiệp Phúc
-2.703286	Xuyên Phúc
-2.265976	Diễn Phúc
-2.9669857	Mỹ Phúc
-2.660508	Tam Phúc
-1.2614651	Ngũ Phúc
-1.4620805	Vạn Phúc
-1.5654017	Tảo Phúc
-2.360755	xã Phúc
-3.0531976	Lộc Phúc
-3.459509	Hòa Phúc
-2.6588192	Cẩm Phúc
-1.656896	Cam Phúc
-3.3362107	Thọ Phúc
-2.0173326	Cốc Phúc
-2.4760866	Môn Phúc
-0.77572095	Thuấn Phúc
-3.3661299	Thuận Phúc
-3.5867805	Bình Phúc
-2.695738	Bằng Phúc
-1.5811654	Hạnh Phúc
-2.3059692	Vũ Phúc
-3.2919526	Hóa Phúc
-2.105744	Thiệu Phúc
-2.3921208	Nhơn Phúc
-2.3623233	phường Phúc
-2.5977306	huyện Phúc
-4.254569	<s> Xá
-2.798294	Phúc Xá
-3.1603322	Vĩnh Xá
-2.502316	Ngọc Xá
-2.6446576	Kim Xá
-1.0682691	Đào Xá
-2.5753605	Đông Xá
-2.2525284	Chương Xá
-3.092171	Dương Xá
-1.9533032	Tràng Xá
-2.9363081	Phú Xá
-3.00631	Hồ Xá
-3.3676646	Thanh Xá
-3.2120306	Long Xá
-2.6040454	Thạch Xá
-2.747062	Nghĩa Xá
-2.776995	Văn Xá
-2.537896	Quỳnh Xá
-2.407523	Hoàng Xá
-3.5989738	Xã Xá
-2.8965962	Ninh Xá
-2.404043	Nguyên Xá
-0.42516857	Tàm Xá
-0.96744156	Đổng Xá
-2.002119	Lệ Xá
-1.0248368	Đặng Xá
-2.992608	Mỹ Xá
-3.6835966	xã Xá
-1.8273339	Ngô Xá
-3.1673868	Hòa Xá
-2.6760805	Cẩm Xá
-1.1148453	Phùng Xá
-1.8642086	Điền Xá
-2.3924637	Cao Xá
-0.42516857	Xuy Xá
-0.86310446	Trịnh Xá
-1.8579625	Vũ Xá
-2.0249665	Đồn Xá
-1.6626462	Đoàn Xá
-1.2011268	Tạ Xá
-0.42516857	Khuất Xá
-0.6676074	Bính Xá
-2.3246455	Liêu Xá
-0.42516857	Trừng Xá
-1.1219456	Đinh Xá
-2.4608254	Nghi Xá
-1.1254743	Tổ Quận
-2.666101	Phúc Quận
-2.1226246	Xá Quận
-2.0770488	Đình Quận
-3.2514668	Thành Quận
-3.3660393	Hà Quận
-3.5826986	Nội Quận
-2.2830188	Bạch Quận
-2.5135286	Vị Quận
-1.442294	Giai Quận
-2.1391191	Trung Quận
-2.4293928	Trực Quận
-2.1240933	Quán Quận
-0.7691791	Thánh Quận
-2.5515387	Biên Quận
-1.3773661	Cấn Quận
-2.7456093	Khánh Quận
-2.7170482	Kim Quận
-1.8666142	Mã Quận
