\data\
ngram 1=3777
ngram 2=32844
ngram 3=99081

\1-grams:
-4.528915	<unk>	0
0	<s>	-1.6328751
-2.6390622	</s>	0
-4.395969	Ngõ	-0.30103
-3.4594028	Đường	-0.37513173
-4.395969	Số	-0.30103
-4.1355405	Tổ	-0.30103
-4.395969	Ngách	-0.30103
-4.395969	Khu	-0.30103
-4.0886354	Hẻm	-0.30103
-3.783749	Thôn	-0.41017446
-4.0886354	Ấp	-0.30103
-4.395969	Xóm	-0.30103
-4.395969	số	-0.30103
-4.395969	ngách	-0.30103
-4.395969	ngõ	-0.30103
-4.395969	hẻm	-0.30103
-4.395969	thôn	-0.30103
-4.395969	tổ	-0.30103
-4.395969	ấp	-0.30103
-4.395969	xóm	-0.30103
-4.395969	khu	-0.30103
-4.395969	đường	-0.30103
-4.395969	đg	-0.30103
-4.395969	kcn	-0.30103
-4.395969	ng	-0.30103
-4.395969	tdp	-0.30103
-4.395969	KCN	-0.30103
-4.395969	Ng	-0.30103
-4.395969	TDP	-0.30103
-4.395969	NVH	-0.30103
-4.395969	nvh	-0.30103
-4.0886354	Phường	-0.30103
-2.72826	Phúc	-0.4838896
-2.8593628	Xá	-0.5956259
-2.1577525	Quận	-0.87993354
-2.4977393	Ba	-0.54255223
-2.9798484	Đình	-0.44562343
-1.6197072	Thành	-0.97555274
-4.0886354	phố	-0.30103
-2.461828	Hà	-0.5645751
-3.4594028	Nội	-0.38270003
-3.7100117	Trúc	-0.30103
-3.147168	Bạch	-0.39280036
-2.5061395	Vĩnh	-0.4856338
-3.9844797	Cống	-0.30103
-2.920917	Vị	-0.5374172
-3.422898	Liễu	-0.36797678
-3.9844797	Giai	-0.30103
-3.872619	Nguyễn	-0.3320642
-2.6221185	Trung	-0.49454513
-3.094788	Trực	-0.39445168
-3.5919755	Quán	-0.33724216
-4.395969	Thánh	-0.30103
-2.7500143	Ngọc	-0.418327
-2.765147	Điện	-0.5228787
-3.389225	Biên	-0.34599715
-3.872619	Đội	-0.3631779
-3.9844797	Cấn	-0.30103
-2.7212443	Khánh	-0.48134068
-2.5323615	Kim	-0.48120463
-3.7100117	Mã	-0.31806335
-4.1355405	Giảng	-0.30103
-3.1289968	Võ	-0.42596874
-3.1115558	Công	-0.44264978
-2.2849765	Tân	-0.54424787
-3.1115558	Hoàn	-0.55859435
-4.0886354	Kiếm	-0.30103
-2.546091	Đồng	-0.47066802
-2.5650995	Xuân	-0.45846
-3.5431483	Hàng	-0.30727896
-4.395969	Buồm	-0.30103
-3.5431483	Đào	-0.34449568
-3.6469958	Bồ	-0.3357921
-3.7100117	Cửa	-0.30103
-2.384825	Đông	-0.52851903
-2.8315756	Lý	-0.5754078
-2.6058109	Thái	-0.55043924
-3.422898	Bạc	-0.48811665
-4.0886354	Gai	-0.30103
-2.9798484	Chương	-0.60206
-2.7075438	Dương	-0.4913617
-4.395969	Trống	-0.30103
-2.4011655	Nam	-0.5251585
-3.5919755	Bông	-0.30103
-3.1115558	Tràng	-0.4323089
-2.840642	Tiền	-0.60759246
-3.0786438	Trần	-0.4910869
-2.485436	Hưng	-0.56427145
-3.206743	Đạo	-0.4243452
-3.49926	Phan	-0.33827806
-3.4594028	Chu	-0.34987855
-3.389225	Trinh	-0.38535088
-3.5919755	Bài	-0.3467875
-2.279909	Phú	-0.5718293
-2.765147	Thượng	-0.459827
-2.5414662	Tây	-0.56987536
-2.9926589	Hồ	-0.49116436
-3.6469958	Nhật	-0.3332147
-3.1115558	Tứ	-0.44184548
-2.9553082	Liên	-0.3954794
-2.4977393	Quảng	-0.47753114
-2.3880444	An	-0.52199155
-3.094788	La	-0.39397383
-2.227751	Yên	-0.57959926
-3.872619	Phụ	-0.30103
-4.1355405	Bưởi	-0.30103
-3.49926	Thụy	-0.30103
-3.783749	Khuê	-0.30103
-2.3058596	Thanh	-0.5464749
-2.4358156	Long	-0.55947256
-2.6566942	Giang	-0.5850267
-2.501919	Đức	-0.5061894
-2.9435391	Việt	-0.42874378
-2.5507658	Gia	-0.47230905
-2.5602689	Lâm	-0.56987536
-2.9553082	Lợi	-0.51587385
-3.5919755	Đề	-0.3767507
-3.783749	Sài	-0.30103
-2.6507368	Thạch	-0.4582944
-3.7100117	Bàn	-0.3299937
-3.872619	Cự	-0.30103
-4.395969	Khối	-0.30103
-2.6276932	Nghĩa	-0.4929155
-3.206743	Đô	-0.5081555
-2.8994148	Cầu	-0.43705767
-4.395969	Giấy	-0.30103
-2.7212443	Mai	-0.5070845
-3.7100117	Dịch	-0.30103
-3.9844797	Vọng	-0.30103
-3.0630782	Hậu	-0.449683
-2.8994148	Quan	-0.5801581
-2.9798484	Hoa	-0.5107299
-2.6507368	Hoà	-0.546145
-2.9100327	Cát	-0.41083497
-3.0194726	Linh	-0.47549164
-3.1289968	Đống	-0.74036264
-3.033527	Đa	-0.41997838
-2.4251273	Văn	-0.5215248
-4.1355405	Miếu	-0.30103
-3.033527	Quốc	-0.4738923
-3.5919755	Tử	-0.33881855
-4.0886354	Giám	-0.30103
-3.6469958	Láng	-0.30103
-3.3288255	Ô	-0.40170014
-2.6942625	Chợ	-0.7978059
-4.1355405	Dừa	-0.30103
-3.9844797	Bột	-0.30103
-2.7075438	Hạ	-0.5679287
-3.7100117	Khâm	-0.30103
-3.6469958	Thiên	-0.30103
-3.5431483	Thổ	-0.30103
-3.147168	Phụng	-0.5149098
-2.7075438	Quang	-0.46573585
-3.7100117	Liệt	-0.34449568
-2.9798484	Phương	-0.4083264
-2.780826	Thịnh	-0.57015365
-3.6469958	Tự	-0.30103
-3.7100117	Ngã	-0.3332147
-3.2285671	Tư	-0.60206
-3.6469958	Sở	-0.34242266
-3.422898	Khương	-0.39794
-3.5431483	Du	-0.37358066
-3.1115558	Hai	-0.65641767
-3.2515464	Bà	-0.41642344
-3.5431483	Trưng	-0.37787002
-3.872619	Đằng	-0.30103
-3.7100117	Phạm	-0.3320642
-4.0886354	Hổ	-0.30103
-3.1661325	Lê	-0.39794
-2.7353911	Đại	-0.39896873
-3.5431483	Hành	-0.31575325
-3.2285671	Nhân	-0.38631386
-3.422898	Phố	-0.36797678
-4.1355405	Huế	-0.30103
-4.395969	Mác	-0.30103
-2.7212443	Lương	-0.48592752
-4.0886354	Nhàn	-0.30103
-3.9844797	Dền	-0.30103
-3.872619	Bách	-0.30103
-3.783749	Khoa	-0.40369233
-3.2285671	Tâm	-0.48758668
-2.8226948	Tuy	-0.63591826
-2.6333406	Quỳnh	-0.4424724
-3.9844797	Lôi	-0.30103
-2.662734	Minh	-0.47900948
-3.5431483	Khai	-0.34561214
-3.872619	Trương	-0.30103
-2.780826	Định	-0.47712123
-3.49926	Trì	-0.3320642
-2.7729158	Hoàng	-0.4327867
-3.206743	Động	-0.5295093
-3.1661325	Tương	-0.5351132
-4.0886354	Thụ	-0.30103
-3.422898	Giáp	-0.41300377
-3.0786438	Bát	-0.59251463
-3.147168	Lĩnh	-0.5166298
-3.0786438	Chính	-0.5081555
-2.3222084	Bắc	-0.64948463
-1.870637	Thị	-1.4573772
-4.0886354	trấn	-0.30103
-2.920917	Sóc	-0.76955104
-2.1558552	Sơn	-0.687446
-1.3402479	Huyện	-1.2597709
-3.9844797	Xã	-0.30103
-3.5919755	Trí	-0.30103
-2.7729158	Hồng	-0.4301247
-2.72826	Kỳ	-0.48523915
-3.9844797	Giã	-0.38021123
-2.6448603	Phù	-0.5923002
-2.6688595	Tiến	-0.571716
-3.7100117	Hiền	-0.3212334
-2.5602689	Ninh	-0.5371192
-3.2758095	Dân	-0.41879016
-2.6221185	Tiên	-0.4635059
-4.395969	Dược	-0.30103
-4.0886354	Lũ	-0.30103
-3.0194726	Cường	-0.5494765
-3.6469958	Lỗ	-0.39794
-3.4594028	Thu	-0.35607758
-3.301509	Anh	-0.39794
-4.0886354	Nộn	-0.30103
-3.9844797	Thuỵ	-0.30103
-2.869035	Nguyên	-0.5422918
-2.8789272	Khê	-0.611268
-2.6942625	Vân	-0.4788831
-3.9844797	Uy	-0.30103
-4.0886354	Nỗ	-0.30103
-3.147168	Hùng	-0.41017446
-3.422898	Chung	-0.43066385
-3.7100117	Dục	-0.30103
-3.389225	Tú	-0.39350083
-4.395969	Mạch	-0.30103
-3.7100117	Cổ	-0.3093025
-4.395969	Loa	-0.30103
-2.421622	Hải	-0.5696752
-3.9844797	Bối	-0.30103
-3.6469958	Canh	-0.31840408
-4.1355405	Võng	-0.30103
-4.1355405	Tàm	-0.30103
-2.9320807	Hội	-0.5295093
-3.2758095	Viên	-0.44020915
-2.840642	Thường	-0.61252546
-2.687771	Hiệp	-0.5403633
-2.869035	Xuyên	-0.6320232
-3.783749	Đổng	-0.30103
-4.395969	Mầu	-0.30103
-3.3579762	Lệ	-0.33674556
-3.0786438	Chi	-0.53839093
-4.1355405	Bi	-0.30103
-4.1355405	Đặng	-0.30103
-4.0886354	Trâu	-0.30103
-3.0194726	Quỳ	-0.6850342
-3.9844797	Dư	-0.30103
-4.395969	Tốn	-0.30103
-3.9844797	Kiêu	-0.30103
-4.0886354	Kỵ	-0.30103
-3.872619	Lan	-0.30103
-2.8789272	Diễn	-0.39293206
-3.783749	Từ	-0.30103
-3.389225	Liêm	-0.3413246
-2.5414662	Mỹ	-0.51485014
-3.0630782	1	-0.5300573
-3.2758095	2	-0.48607612
-3.9844797	Mỗ	-0.30103
-3.783749	Mễ	-0.30103
-4.395969	Điển	-0.30103
-3.7100117	Triều	-0.39280036
-4.1355405	Tả	-0.30103
-3.9844797	Oai	-0.30103
-2.9798484	Hữu	-0.4032256
-2.662734	Tam	-0.44399184
-3.49926	Ngũ	-0.33724216
-3.3288255	Duyên	-0.5329791
-3.783749	Hồi	-0.30103
-3.147168	Vạn	-0.36797678
-4.395969	áng	-0.30103
-3.783749	Mạc	-0.3521825
-4.1355405	Ngạc	-0.30103
-2.7500143	Thắng	-0.5591954
-4.0886354	Tựu	-0.30103
-3.9844797	Đỉnh	-0.30103
-3.6469958	Tảo	-0.30103
-3.9844797	Nhuế	-0.30103
-3.1661325	Mê	-0.71321046
-3.048051	Đà	-0.5099138
-2.8315756	Lập	-0.5563025
-2.546091	Phong	-0.55567807
-3.9844797	Tráng	-0.30103
-4.395969	Trãi	-0.30103
-3.206743	Mộ	-0.6184504
-3.4594028	Lao	-0.37787002
-3.872619	Yết	-0.44715804
-2.7729158	Kiến	-0.6478175
-3.783749	Lãm	-0.34242266
-4.0886354	xã	-0.30103
-3.206743	Ngô	-0.5228787
-3.9844797	Quyền	-0.3521825
-2.5234437	Lộc	-0.5979278
-4.395969	Khanh	-0.30103
-3.9844797	Trầm	-0.30103
-4.0886354	Vì	-0.30103
-4.1355405	Tản	-0.30103
-2.378457	Châu	-0.59496933
-2.5323615	Hòa	-0.547881
-4.1355405	Vật	-0.30103
-3.7100117	Lại	-0.30103
-3.7100117	Tòng	-0.33881855
-4.1355405	Bạt	-0.30103
-2.5849783	Cẩm	-0.4760148
-3.1289968	Cam	-0.3769086
-4.1355405	Thuần	-0.30103
-3.783749	Trại	-0.3332147
-2.72826	Thọ	-0.50194484
-3.783749	Sen	-0.30103
-3.4594028	Cốc	-0.3357921
-3.9844797	Hát	-0.3332147
-3.3579762	Môn	-0.45141587
-3.783749	Tích	-0.30103
-2.9320807	Trạch	-0.7710315
-4.395969	Thuấn	-0.30103
-2.5414662	Thuận	-0.5509075
-3.5431483	Phùng	-0.34561214
-3.2285671	Đan	-0.5351132
-3.422898	Phượng	-0.3748162
-3.3579762	Tháp	-0.5818566
-3.6469958	Song	-0.30103
-3.2515464	Trạm	-0.4890205
-4.0886354	Trôi	-0.30103
-2.9553082	Hoài	-0.50223196
-3.147168	Di	-0.64345264
-2.967405	Quế	-0.4296966
-3.783749	Đắc	-0.30103
-3.6469958	Côn	-0.34449568
-3.7100117	Cách	-0.30103
-3.9844797	Liệp	-0.30103
-3.9844797	Tuyết	-0.30103
-4.395969	Thán	-0.30103
-2.7143402	Hương	-0.4519273
-3.872619	Cộng	-0.3493347
-3.9844797	Mãn	-0.30103
-3.872619	Thất	-0.30103
-2.229991	Bình	-0.59622526
-4.0886354	Ngải	-0.30103
-4.0886354	Nậu	-0.30103
-3.7100117	Dị	-0.30103
-4.1355405	Chàng	-0.30103
-2.8789272	Cần	-0.5665877
-3.872619	Kiệm	-0.43572855
-3.1859632	Bằng	-0.39280036
-3.9844797	Chúc	-0.30103
-2.9926589	Trường	-0.44218427
-2.7970924	Thủy	-0.586408
-4.1355405	Tốt	-0.30103
-3.5919755	Lam	-0.34242266
-2.9435391	Điền	-0.48569718
-3.1289968	Hợp	-0.4573772
-4.1355405	Diệu	-0.30103
-4.0886354	Bị	-0.30103
-4.0886354	Vực	-0.30103
-2.7008524	Lạc	-0.5136381
-3.5919755	Bích	-0.30103
-2.7353911	Cao	-0.47817665
-4.395969	Thùy	-0.30103
-3.9844797	Đỗ	-0.30103
-3.783749	Thư	-0.30103
-4.395969	Ước	-0.30103
-3.5919755	Tín	-0.44120872
-3.783749	Nhị	-0.33488825
-4.395969	Nhiên	-0.30103
-3.9844797	Quất	-0.30103
-3.3579762	Dũng	-0.42324588
-3.2758095	Thống	-0.6746107
-3.49926	Nhất	-0.33674556
-3.872619	Nghiêm	-0.30103
-3.422898	Tô	-0.3767507
-3.9844797	Hiệu	-0.37358066
-4.0886354	Điểm	-0.30103
-3.872619	Dực	-0.30103
-3.1859632	Tri	-0.44552228
-3.5919755	Túc	-0.33445376
-4.1355405	Chuyên	-0.30103
-3.3288255	Lãng	-0.45710415
-3.422898	Can	-0.49732465
-2.9926589	Ứng	-0.8394209
-4.0886354	Lộng	-0.30103
-3.4594028	Lưu	-0.3858515
-2.9100327	Lai	-0.5123817
-4.1355405	Xuy	-0.30103
-3.783749	Tế	-0.30103
-3.783749	Đốc	-0.30103
-2.0148437	Tỉnh	-0.93490225
-3.9844797	Độ	-0.30103
-3.1289968	Thiện	-0.43831918
-4.0886354	Phó	-0.30103
-3.9844797	Bảng	-0.30103
-3.5919755	Lũng	-0.34242266
-4.0886354	Cú	-0.30103
-4.1355405	Má	-0.30103
-4.395969	Lé	-0.30103
-4.395969	Táo	-0.30103
-3.9844797	Là	-0.38021123
-3.9844797	Thài	-0.30103
-3.422898	Phìn	-0.46665582
-4.0886354	Tủng	-0.30103
-4.1355405	Sủng	-0.30103
-4.1355405	Xà	-0.30103
-4.1355405	Lủng	-0.30103
-4.395969	Cáo	-0.30103
-3.9844797	Sính	-0.30103
-4.1355405	Sảng	-0.30103
-4.1355405	Thầu	-0.30103
-3.872619	Hố	-0.37358066
-4.395969	Quáng	-0.30103
-4.1355405	Vần	-0.30103
-3.49926	Chải	-0.5303668
-4.395969	Trái	-0.30103
-3.206743	Mèo	-0.79588
-4.395969	Vạc	-0.30103
-4.1355405	Pải	-0.30103
-3.147168	Xín	-0.6532125
-2.920917	Cái	-0.5125379
-3.9844797	Pả	-0.30103
-3.783749	Vi	-0.30103
-3.5919755	Giàng	-0.38400424
-2.7729158	Trà	-0.4228555
-4.395969	Máng	-0.30103
-3.6469958	Vĩ	-0.35538766
-4.1355405	Cán	-0.30103
-3.9844797	Pù	-0.30103
-3.9844797	Chinh	-0.30103
-4.1355405	Tát	-0.30103
-4.1355405	Ngà	-0.30103
-3.005859	Nậm	-0.34872198
-3.7100117	Ban	-0.35538766
-3.9844797	Khâu	-0.30103
-4.0886354	Vai	-0.30103
-3.9844797	Niêm	-0.30103
-4.0886354	Mố	-0.30103
-4.395969	Đích	-0.30103
-2.920917	Na	-0.44715804
-2.9926589	Vinh	-0.47882104
-4.0886354	Và	-0.30103
-3.6469958	Mậu	-0.30103
-4.1355405	Duệ	-0.30103
-3.9844797	Ngam	-0.30103
-4.395969	Già	-0.30103
-3.2515464	Quản	-0.65757734
-4.0886354	Bạ	-0.30103
-4.0886354	Tỷ	-0.30103
-3.9844797	Pờ	-0.30103
-3.49926	Tùng	-0.37358066
-4.0886354	Vài	-0.30103
-3.872619	Lùng	-0.30103
-4.395969	Tám	-0.30103
-3.872619	Quyết	-0.38818017
-4.0886354	Ván	-0.30103
-2.813992	Nông	-0.5822258
-3.033527	Bá	-0.57403123
-4.0886354	Ngần	-0.30103
-4.0886354	Âm	-0.30103
-3.9844797	Phiêng	-0.30103
-3.49926	Luông	-0.5772364
-4.1355405	Su	-0.30103
-3.9844797	Phì	-0.30103
-3.783749	Bản	-0.30103
-3.9844797	Máy	-0.30103
-3.49926	Thàng	-0.46073082
-3.9844797	Thèn	-0.30103
-4.1355405	Pố	-0.30103
-4.395969	Lồ	-0.30103
-4.1355405	Túng	-0.30103
-3.872619	Sán	-0.30103
-3.6469958	Chiến	-0.34449568
-4.1355405	Đản	-0.30103
-3.872619	Tụ	-0.30103
-3.6469958	Nàng	-0.3493347
-3.7100117	Đôn	-0.30103
-3.783749	Ly	-0.35902193
-4.1355405	Ngài	-0.30103
-4.0886354	Xả	-0.30103
-4.395969	Luốc	-0.30103
-3.9844797	Ngàm	-0.30103
-3.422898	Đăng	-0.38535088
-4.395969	Nhùng	-0.30103
-3.9844797	Sử	-0.30103
-4.395969	Choóng	-0.30103
-4.395969	Tỵ	-0.30103
-3.3579762	Thông	-0.38206324
-4.395969	Khòa	-0.30103
-4.395969	Pài	-0.30103
-4.395969	Mần	-0.30103
-4.1355405	Nàn	-0.30103
-4.395969	Xỉn	-0.30103
-4.395969	Díu	-0.30103
-3.5431483	Chí	-0.33445376
-3.3288255	Cà	-0.44445214
-4.395969	Phàng	-0.30103
-4.1355405	Pà	-0.30103
-3.9844797	Vầy	-0.30103
-4.395969	Sủ	-0.30103
-4.395969	Rế	-0.30103
-3.872619	Tà	-0.30103
-3.389225	Ma	-0.3316988
-4.395969	Nhìu	-0.30103
-4.395969	Ngò	-0.30103
-3.872619	Chế	-0.30103
-4.1355405	Nấm	-0.30103
-4.395969	Dẩn	-0.30103
-3.872619	Nà	-0.30103
-4.395969	Chì	-0.30103
-4.1355405	Khuôn	-0.30103
-4.395969	Sản	-0.30103
-4.1355405	Vô	-0.30103
-4.395969	Điếm	-0.30103
-3.783749	Kiều	-0.41017446
-3.6469958	Hảo	-0.30103
-4.0886354	Rịa	-0.30103
-3.9844797	Trịnh	-0.30103
-3.1115558	Lang	-0.49069405
-2.7888832	Sông	-0.50392836
-3.7100117	Hiến	-0.3290587
-4.0886354	Thám	-0.30103
-3.9844797	Duyệt	-0.30103
-3.389225	Pác	-0.66005194
-4.395969	Miầu	-0.30103
-2.6566942	Bảo	-0.51677614
-3.5431483	Hạnh	-0.34343383
-4.395969	Bôn	-0.30103
-3.6469958	Mông	-0.30103
-2.967405	Ân	-0.4414057
-4.1355405	Học	-0.30103
-4.395969	Pàng	-0.30103
-3.422898	Cô	-0.37358066
-3.5919755	Toàn	-0.34053853
-3.389225	Trị	-0.4234364
-3.872619	Cúc	-0.30103
-3.7100117	Huy	-0.30103
-3.5919755	Lộ	-0.3357921
-3.872619	Nặm	-0.30103
-3.783749	Cải	-0.30103
-3.872619	Tổng	-0.30103
-4.395969	Cọt	-0.30103
-3.9844797	Sỹ	-0.30103
-3.3288255	Quý	-0.3651475
-3.6469958	Quân	-0.3756636
-3.094788	Trùng	-1
-3.7100117	Hán	-0.30103
-4.1355405	Đàm	-0.30103
-2.8994148	Thuỷ	-0.5303668
-3.6469958	Viễn	-0.40248764
-3.389225	Lăng	-0.42842934
-3.4594028	Hiếu	-0.36382082
-3.0630782	Thăng	-0.56144214
-3.783749	Đoài	-0.30103
-3.6469958	Loan	-0.40369233
-3.3579762	Ngân	-0.53839093
-4.395969	Toản	-0.30103
-3.6469958	Uyên	-0.37358066
-3.9844797	Phi	-0.30103
-4.1355405	Độc	-0.30103
-3.147168	Cai	-0.50313467
-4.0886354	Bộ	-0.30103
-3.9844797	Thảo	-0.30103
-4.0886354	Do	-0.30103
-4.1355405	Bế	-0.30103
-3.872619	Đàn	-0.39280036
-4.1355405	Nước	-0.30103
-4.395969	Chủ	-0.30103
-3.783749	Tuấn	-0.30103
-3.783749	Lão	-0.30103
-3.872619	Tung	-0.30103
-4.1355405	Huệ	-0.30103
-3.5431483	Tĩnh	-0.30103
-2.869035	Triệu	-0.4692676
-3.872619	Ca	-0.3332147
-2.8499017	Vũ	-0.42296323
-3.9844797	Thể	-0.30103
-3.6469958	Vượng	-0.30103
-4.0886354	Trình	-0.30103
-3.872619	Trọng	-0.30103
-3.389225	Con	-0.6532125
-4.395969	Kạn	-0.30103
-2.9435391	Kiên	-0.52614415
-3.872619	Huyền	-0.30103
-4.395969	Tụng	-0.30103
-3.872619	Xuất	-0.38818017
-2.840642	Hóa	-0.6928097
-3.872619	Nhạn	-0.30103
-4.1355405	Bộc	-0.30103
-3.389225	Bố	-0.48811665
-3.5919755	Giáo	-0.33445376
-4.1355405	Nghiên	-0.30103
-4.395969	Rã	-0.30103
-4.395969	Bể	-0.30103
-4.1355405	Bành	-0.30103
-3.49926	Khang	-0.45364016
-3.872619	Mẫu	-0.30103
-4.1355405	Địa	-0.30103
-3.7100117	Yến	-0.30103
-4.395969	Trĩ	-0.30103
-4.395969	Phặc	-0.30103
-3.9844797	Đán	-0.30103
-3.783749	Lực	-0.30103
-3.1289968	Mang	-0.6146491
-3.5919755	Phủ	-0.32451108
-4.1355405	Sĩ	-0.30103
-4.0886354	Muộn	-0.30103
-2.7143402	Lục	-0.68039876
-3.7100117	Đồn	-0.30103
-3.7100117	Thi	-0.30103
-4.1355405	Phái	-0.30103
-4.395969	Sảo	-0.30103
-3.9844797	Tá	-0.30103
-4.1355405	Mới	-0.30103
-4.0886354	Vận	-0.30103
-4.395969	Lạp	-0.30103
-4.0886354	Mục	-0.30103
-2.8789272	Cư	-0.40337253
-4.395969	Hân	-0.30103
-3.0194726	Như	-0.62949824
-4.395969	Cố	-0.30103
-4.395969	Rì	-0.30103
-4.0886354	Hỷ	-0.30103
-3.5919755	Lư	-0.4929155
-3.2285671	Lễ	-0.6320232
-3.7100117	Thiết	-0.30103
-3.2758095	Tuyên	-0.5118834
-4.1355405	Ỷ	-0.30103
-3.389225	Tường	-0.39641348
-4.1355405	Lưỡng	-0.30103
-3.872619	Hang	-0.30103
-3.5919755	Sinh	-0.3767507
-4.395969	Lôn	-0.30103
-4.1355405	Khau	-0.30103
-3.872619	Tinh	-0.30103
-3.49926	Năng	-0.3706659
-3.9844797	Khả	-0.30103
-3.2758095	Chiêm	-0.9777236
-3.49926	Đài	-0.37358066
-2.8226948	Hàm	-0.5057333
-3.5919755	Xa	-0.41497335
-3.6469958	Quí	-0.3493347
-4.1355405	Chiêu	-0.30103
-4.395969	Viện	-0.30103
-3.783749	Chân	-0.30103
-4.1355405	Nhữ	-0.30103
-4.395969	Trào	-0.30103
-3.9844797	Ấm	-0.30103
-4.1355405	Cấp	-0.30103
-3.872619	Kháng	-0.30103
-3.206743	Kế	-0.5314789
-3.6469958	Hào	-0.3493347
-3.301509	Lào	-0.58357656
-4.395969	Lếu	-0.30103
-4.395969	Lệnh	-0.30103
-3.872619	Pom	-0.30103
-3.5431483	Tăng	-0.3174204
-4.395969	Tuyển	-0.30103
-4.395969	Phời	-0.30103
-3.49926	San	-0.42596874
-4.395969	Xát	-0.30103
-2.7426412	A	-0.5152896
-4.395969	Mú	-0.30103
-4.1355405	Sung	-0.30103
-4.395969	Chạc	-0.30103
-4.395969	Lù	-0.30103
-3.9844797	Y	-0.30103
-4.395969	Tý	-0.30103
-4.0886354	Mỳ	-0.30103
-3.783749	Sáng	-0.30103
-4.395969	Vược	-0.30103
-3.872619	Sàng	-0.30103
-4.395969	Sáo	-0.30103
-4.0886354	Qua	-0.30103
-2.5952697	Mường	-0.4166687
-4.395969	Xèo	-0.30103
-4.395969	Hum	-0.30103
-4.1355405	Lèng	-0.30103
-3.6469958	Pa	-0.3195134
-3.9844797	Cheo	-0.30103
-4.395969	Pung	-0.30103
-4.1355405	Ngan	-0.30103
-4.395969	Sành	-0.30103
-3.7100117	Pha	-0.30103
-4.395969	Chồ	-0.30103
-4.1355405	Dìn	-0.30103
-4.395969	Chin	-0.30103
-4.395969	Chảy	-0.30103
-4.395969	Khấu	-0.30103
-4.0886354	Nhin	-0.30103
-3.872619	Lầu	-0.43572855
-4.395969	Pan	-0.30103
-4.0886354	Tẩn	-0.30103
-3.301509	Si	-0.60206
-4.1355405	Thào	-0.30103
-2.7143402	Chư	-0.5259698
-4.395969	Mế	-0.30103
-4.0886354	Thẩn	-0.30103
-4.395969	Cấu	-0.30103
-3.9844797	Sín	-0.30103
-4.395969	Chéng	-0.30103
-3.7100117	Phình	-0.33881855
-4.395969	Van	-0.30103
-3.2285671	Củ	-0.8176598
-3.9844797	Thải	-0.30103
-4.395969	Liền	-0.30103
-4.0886354	Hối	-0.30103
-3.9844797	Mòn	-0.38021123
-4.395969	Đét	-0.30103
-4.1355405	Nhai	-0.30103
-4.395969	Lúc	-0.30103
-4.0886354	N.T	-0.30103
-4.0886354	Lu	-0.30103
-4.0886354	Tằng	-0.30103
-4.395969	Loỏng	-0.30103
-4.395969	Phiệt	-0.30103
-4.1355405	Cầm	-0.30103
-4.0886354	Niên	-0.30103
-3.033527	Giao	-0.4285159
-3.7100117	Nhuận	-0.30103
-4.395969	Ràng	-0.30103
-4.395969	Cọn	-0.30103
-3.1661325	Sa	-0.3916911
-3.872619	Chỉ	-0.30103
-4.0886354	Păng	-0.30103
-4.0886354	Rồng	-0.30103
-4.0886354	Mây	-0.30103
-3.872619	Bo	-0.30103
-4.395969	Mả	-0.30103
-3.872619	Rạng	-0.3521825
-4.395969	Chầy	-0.30103
-4.395969	Xé	-0.30103
-4.1355405	Dần	-0.30103
-3.783749	Chiềng	-0.30475786
-4.395969	Ken	-0.30103
-4.1355405	Làng	-0.30103
-4.395969	Tha	-0.30103
-4.1355405	Thẩm	-0.30103
-4.395969	Xây	-0.30103
-3.872619	Noong	-0.30103
-4.0886354	Bua	-0.30103
-4.1355405	Him	-0.30103
-4.0886354	Tấu	-0.30103
-3.9844797	Phăng	-0.30103
-4.1355405	Pá	-0.30103
-4.0886354	Khoang	-0.30103
-3.783749	Lay	-0.30103
-3.5431483	Nưa	-0.5228787
-4.395969	Nhé	-0.30103
-3.9844797	Leng	-0.30103
-3.1115558	Sìn	-0.7923917
-4.0886354	Kè	-0.30103
-4.0886354	Toong	-0.30103
-4.1355405	Huổi	-0.30103
-4.395969	Lếnh	-0.30103
-3.147168	Trấn	-0.50514996
-3.872619	Chà	-0.30103
-3.9844797	Hừa	-0.30103
-4.395969	Mí	-0.30103
-4.395969	Ham	-0.30103
-4.395969	Nèn	-0.30103
-4.0886354	Lông	-0.30103
-4.395969	Thì	-0.30103
-3.783749	Sang	-0.47712123
-4.395969	Mươn	-0.30103
-3.3288255	Tủa	-0.58357656
-3.872619	Chùa	-0.30103
-4.395969	Só	-0.30103
-4.395969	Nhè	-0.30103
-4.395969	Đun	-0.30103
-4.395969	Báng	-0.30103
-3.147168	Tuần	-0.79394555
-3.9844797	Mùn	-0.30103
-3.783749	Ta	-0.30103
-3.872619	Pú	-0.30103
-4.395969	Xi	-0.30103
-4.395969	Nhung	-0.30103
-4.1355405	Quài	-0.30103
-4.395969	Thín	-0.30103
-4.1355405	Tỏa	-0.30103
-4.0886354	Tình	-0.30103
-4.395969	Sáy	-0.30103
-4.395969	Khong	-0.30103
-3.6469958	Cang	-0.5351132
-3.9844797	Tở	-0.38021123
-4.1355405	Tênh	-0.30103
-4.395969	Phông	-0.30103
-4.395969	Pồn	-0.30103
-4.1355405	Hua	-0.30103
-3.3579762	Xương	-0.38400424
-3.872619	Chăn	-0.30103
-4.0886354	Thơm	-0.30103
-4.395969	Luống	-0.30103
-4.1355405	Noọng	-0.30103
-4.395969	Hẹt	-0.30103
-3.783749	Sam	-0.30103
-4.395969	Mứn	-0.30103
-4.0886354	Lót	-0.30103
-4.1355405	Núa	-0.30103
-3.9844797	Hẹ	-0.30103
-4.395969	Muông	-0.30103
-4.395969	Ư	-0.30103
-3.389225	Nhà	-0.47712123
-3.872619	Tông	-0.30103
-4.395969	Lói	-0.30103
-4.1355405	Phu	-0.30103
-4.395969	Son	-0.30103
-4.0886354	Nhừ	-0.30103
-3.872619	Sơ	-0.30103
-3.872619	Luân	-0.30103
-3.872619	Nhi	-0.30103
-4.1355405	Nong	-0.30103
-3.301509	U	-0.7201593
-4.1355405	Dung	-0.30103
-4.1355405	Keo	-0.30103
-4.395969	Lôm	-0.30103
-3.783749	Giới	-0.30103
-4.1355405	Tìa	-0.30103
-4.395969	Dình	-0.30103
-4.1355405	Háng	-0.30103
-3.9844797	Lìa	-0.30103
-4.395969	Ảng	-0.30103
-4.1355405	Ngối	-0.30103
-4.395969	Cáy	-0.30103
-4.1355405	Ẳng	-0.30103
-3.872619	Búng	-0.30103
-3.7100117	Lịch	-0.3357921
-3.9844797	Lạn	-0.37358066
-4.395969	Tin	-0.30103
-4.395969	Pồ	-0.30103
-4.395969	Tần	-0.30103
-4.395969	Hỳ	-0.30103
-4.395969	Bủng	-0.30103
-4.395969	Chua	-0.30103
-4.395969	Khăn	-0.30103
-3.6469958	Vàng	-0.30103
-3.7100117	Đoàn	-0.32818225
-4.0886354	Kết	-0.30103
-4.1355405	Sùng	-0.30103
-4.395969	Phài	-0.30103
-3.783749	Sin	-0.30103
-4.1355405	Nùng	-0.30103
-4.395969	Hon	-0.30103
-4.0886354	Tăm	-0.30103
-4.1355405	Khun	-0.30103
-4.395969	Há	-0.30103
-4.0886354	Tè	-0.30103
-4.395969	Lũm	-0.30103
-3.6469958	Ka	-0.30103
-4.395969	ủ	-0.30103
-3.7100117	Vệ	-0.30103
-3.2285671	Mù	-0.60206
-4.1355405	Cả	-0.30103
-4.1355405	Bum	-0.30103
-3.9844797	Khao	-0.30103
-3.872619	Kan	-0.30103
-4.0886354	Sô	-0.30103
-4.395969	Lin	-0.30103
-4.395969	Quai	-0.30103
-4.1355405	Sà	-0.30103
-4.0886354	Dề	-0.30103
-4.395969	Ngảo	-0.30103
-3.9844797	Pu	-0.30103
-4.395969	Cáp	-0.30103
-4.395969	Cha	-0.30103
-4.395969	Khoá	-0.30103
-3.6469958	Mô	-0.3493347
-4.395969	Hẻo	-0.30103
-4.0886354	Mạ	-0.30103
-3.9844797	Căn	-0.30103
-3.9844797	Co	-0.30103
-4.395969	Cuổi	-0.30103
-4.395969	Hăn	-0.30103
-4.1355405	Lả	-0.30103
-3.783749	Nhì	-0.30103
-3.9844797	Sì	-0.30103
-4.395969	Lở	-0.30103
-4.1355405	Mồ	-0.30103
-4.395969	Vây	-0.30103
-4.395969	Lìn	-0.30103
-4.1355405	Dào	-0.30103
-4.0886354	Pho	-0.30103
-4.1355405	Hoang	-0.30103
-4.1355405	Khổng	-0.30103
-4.395969	Xe	-0.30103
-4.0886354	So	-0.30103
-3.783749	Suối	-0.31047153
-3.2515464	Than	-0.5873368
-3.9844797	Mít	-0.38021123
-4.395969	Mu	-0.30103
-4.1355405	Mung	-0.30103
-4.1355405	Khoen	-0.30103
-4.0886354	On	-0.30103
-3.9844797	Thân	-0.30103
-4.395969	Thuộc	-0.30103
-4.395969	Sỏ	-0.30103
-3.9844797	Pắc	-0.30103
-4.395969	Nhùn	-0.30103
-4.395969	Bun	-0.30103
-4.395969	Manh	-0.30103
-4.395969	Đao	-0.30103
-4.395969	Pì	-0.30103
-4.395969	Lề	-0.30103
-4.0886354	Cọ	-0.30103
-4.0886354	Đen	-0.30103
-4.395969	Xôm	-0.30103
-4.0886354	Cơi	-0.30103
-4.0886354	Chiên	-0.30103
-4.395969	Khay	-0.30103
-4.0886354	Giôn	-0.30103
-4.395969	Khinh	-0.30103
-4.395969	Ơn	-0.30103
-4.0886354	Sại	-0.30103
-4.395969	ét	-0.30103
-4.1355405	Phổng	-0.30103
-3.872619	Lái	-0.30103
-3.9844797	é	-0.30103
-4.395969	Khiêng	-0.30103
-4.395969	Bám	-0.30103
-4.395969	Bôm	-0.30103
-4.1355405	Thôm	-0.30103
-4.0886354	Lạnh	-0.30103
-4.1355405	Bó	-0.30103
-3.9844797	Mười	-0.30103
-4.1355405	Púng	-0.30103
-4.0886354	Tra	-0.30103
-4.395969	Pấc	-0.30103
-3.872619	Bon	-0.30103
-4.395969	Phặng	-0.30103
-4.1355405	Muổi	-0.30103
-4.0886354	Nọi	-0.30103
-4.1355405	Lầm	-0.30103
-4.0886354	Ít	-0.30103
-4.395969	Ong	-0.30103
-4.1355405	Trai	-0.30103
-4.395969	Păm	-0.30103
-4.395969	Muôn	-0.30103
-4.1355405	Pi	-0.30103
-4.1355405	Tạ	-0.30103
-4.0886354	Bú	-0.30103
-4.395969	Chùm	-0.30103
-4.395969	Chú	-0.30103
-4.1355405	Xím	-0.30103
-4.395969	Xùa	-0.30103
-4.395969	Chếu	-0.30103
-3.872619	Chim	-0.30103
-4.395969	Vàn	-0.30103
-4.395969	Pe	-0.30103
-4.395969	Tọ	-0.30103
-4.395969	Bau	-0.30103
-3.872619	Sập	-0.30103
-4.1355405	Bang	-0.30103
-3.872619	Đá	-0.30103
-3.9844797	Đỏ	-0.30103
-3.0630782	Mộc	-0.53394413
-4.0886354	NT	-0.30103
-4.1355405	Qui	-0.30103
-3.094788	Hướng	-0.44334286
-3.9844797	Hắc	-0.30103
-4.395969	Khừa	-0.30103
-4.1355405	Lóng	-0.30103
-4.395969	Vạt	-0.30103
-4.0886354	Pằn	-0.30103
-4.1355405	Viêng	-0.30103
-4.395969	Lán	-0.30103
-4.395969	Hặc	-0.30103
-4.395969	Lựm	-0.30103
-4.395969	Khoi	-0.30103
-3.9844797	Nang	-0.38021123
-4.395969	Khoài	-0.30103
-4.1355405	Mương	-0.30103
-4.0886354	Chanh	-0.30103
-4.395969	Pó	-0.30103
-3.872619	Cò	-0.30103
-4.395969	Nòi	-0.30103
-4.395969	Nơi	-0.30103
-4.395969	Cằm	-0.30103
-4.0886354	Dong	-0.30103
-4.395969	Kheo	-0.30103
-4.395969	Ve	-0.30103
-4.395969	Ơt	-0.30103
-4.395969	Hộc	-0.30103
-4.395969	Pẩu	-0.30103
-4.395969	Phung	-0.30103
-4.395969	En	-0.30103
-4.0886354	Ty	-0.30103
-4.1355405	Đứa	-0.30103
-4.395969	Nghịu	-0.30103
-4.395969	Mằn	-0.30103
-4.395969	Khoong	-0.30103
-3.872619	Một	-0.30103
-4.395969	Sai	-0.30103
-4.0886354	Hung	-0.30103
-3.783749	Kha	-0.30103
-3.422898	Sốp	-0.7781512
-4.395969	Cộp	-0.30103
-4.395969	Bánh	-0.30103
-4.1355405	Dồm	-0.30103
-4.395969	Lèo	-0.30103
-3.6469958	Bàng	-0.30103
-4.395969	Khủa	-0.30103
-4.395969	Múa	-0.30103
-4.0886354	Men	-0.30103
-3.5919755	Nha	-0.39280036
-3.872619	Bái	-0.35902193
-3.872619	Âu	-0.30103
-3.4594028	Lâu	-0.4202164
-4.1355405	Phiên	-0.30103
-4.395969	Trạng	-0.30103
-4.395969	Thia	-0.30103
-3.6469958	Nham	-0.40369233
-4.1355405	Thế	-0.30103
-4.0886354	Chuẩn	-0.30103
-4.395969	Thíp	-0.30103
-4.1355405	Cuông	-0.30103
-4.1355405	Dụ	-0.30103
-3.9844797	Ngòi	-0.30103
-4.1355405	Tầm	-0.30103
-4.395969	Phác	-0.30103
-3.4594028	Ái	-0.35902193
-3.048051	Mỏ	-0.63506025
-4.395969	Hẩu	-0.30103
-4.395969	Căng	-0.30103
-4.395969	Bốn	-0.30103
-4.395969	Có	-0.30103
-4.395969	Cu	-0.30103
-4.395969	Phạ	-0.30103
-4.395969	Pán	-0.30103
-4.1355405	Dế	-0.30103
-4.0886354	Tạo	-0.30103
-4.395969	Khắt	-0.30103
-4.1355405	Báo	-0.30103
-3.872619	Đáp	-0.30103
-3.6469958	Quy	-0.30103
-2.9926589	Nga	-0.3902532
-4.395969	Lau	-0.30103
-4.0886354	Hu	-0.30103
-4.395969	Lìu	-0.30103
-3.7100117	Chấn	-0.30103
-4.395969	Lành	-0.30103
-4.395969	Bu	-0.30103
-3.9844797	Thác	-0.30103
-4.1355405	Cảm	-0.30103
-3.783749	Nghị	-0.30103
-4.1355405	Nánh	-0.30103
-4.395969	Nghê	-0.30103
-4.395969	Đắt	-0.30103
-4.0886354	Pheo	-0.30103
-4.395969	Chum	-0.30103
-4.0886354	Ruộng	-0.30103
-4.395969	Bôi	-0.30103
-4.1355405	Đú	-0.30103
-4.1355405	Cuối	-0.30103
-3.9844797	Sào	-0.30103
-4.395969	Báy	-0.30103
-3.9844797	Mi	-0.30103
-4.1355405	Nuông	-0.30103
-4.395969	Dăm	-0.30103
-4.1355405	Thung	-0.30103
-4.1355405	Nai	-0.30103
-4.1355405	Nê	-0.30103
-4.1355405	Ngổ	-0.30103
-4.0886354	Kia	-0.30103
-4.1355405	Cun	-0.30103
-3.872619	Bao	-0.30103
-3.9844797	Đậu	-0.30103
-4.395969	Phòn	-0.30103
-4.1355405	Săm	-0.30103
-4.395969	Khóe	-0.30103
-4.395969	Hịch	-0.30103
-3.1859632	Vụ	-0.6642079
-4.1355405	Miền	-0.30103
-3.783749	Đồi	-0.30103
-4.1355405	Tuân	-0.30103
-4.1355405	Nhượng	-0.30103
-3.783749	Nghiệp	-0.3521825
-3.9844797	Khoan	-0.30103
-3.6469958	Bồng	-0.30103
-3.783749	Vương	-0.30103
-4.1355405	Giá	-0.30103
-4.395969	Trìu	-0.30103
-3.49926	Cương	-0.3631779
-3.9844797	Ngạn	-0.30103
-4.395969	Bẩm	-0.30103
-4.1355405	Huống	-0.30103
-4.395969	Chè	-0.30103
-3.872619	Vỹ	-0.30103
-3.9844797	Điềm	-0.30103
-4.395969	Mặc	-0.30103
-4.395969	Nhiêu	-0.30103
-4.1355405	Đu	-0.30103
-4.0886354	Đổ	-0.30103
-3.9844797	Ôn	-0.30103
-3.7100117	Đạt	-0.35902193
-3.872619	Tức	-0.30103
-4.0886354	Tranh	-0.30103
-4.1355405	Phấn	-0.30103
-4.395969	Cau	-0.30103
-3.9844797	Khe	-0.30103
-4.395969	Mo	-0.30103
-3.9844797	Cây	-0.30103
-4.1355405	Nghinh	-0.30103
-4.1355405	Thần	-0.30103
-4.1355405	Nung	-0.30103
-3.783749	Hiên	-0.30103
-3.9844797	Mao	-0.30103
-3.783749	Phục	-0.30103
-3.9844797	Ngoại	-0.30103
-3.389225	Cù	-0.49732465
-3.872619	Khôi	-0.30103
-4.1355405	Ký	-0.30103
-3.872619	Bãi	-0.30103
-3.6469958	Phổ	-0.30103
-3.9844797	Nhã	-0.30103
-4.1355405	Úc	-0.30103
-4.1355405	My	-0.30103
-2.967405	Lạng	-0.62641937
-3.6469958	Kinh	-0.30103
-4.395969	Thuật	-0.30103
-4.0886354	Sầm	-0.30103
-4.395969	Tác	-0.30103
-4.395969	Hoan	-0.30103
-4.395969	Miễn	-0.30103
-3.9844797	Nhạc	-0.30103
-4.395969	Lòa	-0.30103
-4.395969	Đạn	-0.30103
-4.395969	He	-0.30103
-3.872619	Các	-0.30103
-4.395969	ý	-0.30103
-3.5919755	Sao	-0.38021123
-4.395969	Tịch	-0.30103
-3.147168	Khoái	-0.845098
-4.395969	Mịch	-0.30103
-4.395969	Bục	-0.30103
-4.395969	Đoạn	-0.30103
-4.1355405	Khuất	-0.30103
-4.1355405	Sàn	-0.30103
-3.9844797	Lân	-0.38021123
-3.422898	Bác	-0.5563025
-3.9844797	Bính	-0.30103
-4.395969	Khẩu	-0.30103
-4.395969	Xanh	-0.30103
-4.1355405	Giếng	-0.30103
-4.395969	Đáy	-0.30103
-3.301509	Tu	-0.60206
-4.395969	Cháy	-0.30103
-3.872619	Hoành	-0.30103
-4.395969	Móng	-0.30103
-4.395969	Thực	-0.30103
-3.783749	Phả	-0.30103
-3.783749	Ông	-0.30103
-3.6469958	Hanh	-0.30103
-3.9844797	Danh	-0.30103
-4.395969	Uông	-0.30103
-4.395969	Bí	-0.30103
-3.783749	Liêu	-0.30103
-4.395969	Ngại	-0.30103
-4.395969	Hồn	-0.30103
-3.9844797	Húc	-0.30103
-4.395969	Rui	-0.30103
-3.048051	Đầm	-0.76768583
-4.395969	Chẽ	-0.30103
-4.1355405	Đạp	-0.30103
-4.395969	Đạc	-0.30103
-4.395969	Vừng	-0.30103
-4.1355405	Mạo	-0.30103
-4.395969	Khoai	-0.30103
-4.395969	Hãn	-0.30103
-3.783749	Dĩnh	-0.30103
-4.0886354	Hưu	-0.30103
-4.0886354	Phồn	-0.30103
-4.0886354	Sỏi	-0.30103
-4.395969	Cốt	-0.30103
-4.0886354	Vôi	-0.30103
-4.0886354	Kép	-0.30103
-4.1355405	Khám	-0.30103
-4.0886354	Chũ	-0.30103
-3.9844797	Cấm	-0.30103
-3.6469958	Hộ	-0.30103
-3.9844797	Biển	-0.30103
-3.872619	Trù	-0.30103
-3.7100117	Hựu	-0.30103
-3.9844797	Đèo	-0.30103
-3.872619	Luận	-0.30103
-4.395969	Biền	-0.30103
-3.9844797	Gián	-0.30103
-3.7100117	Cảnh	-0.30103
-4.395969	Mại	-0.30103
-4.0886354	Nếnh	-0.30103
-3.0630782	Đoan	-0.6938304
-4.1355405	Dữu	-0.30103
-3.7100117	Cơ	-0.35538766
-3.389225	Trang	-0.41753554
-4.0886354	Hạc	-0.30103
-2.967405	Bến	-0.51333344
-4.395969	Gót	-0.30103
-3.872619	Lô	-0.30103
-3.9844797	Hy	-0.30103
-3.9844797	Lung	-0.30103
-4.395969	Doãn	-0.30103
-4.0886354	Đám	-0.30103
-3.9844797	Kiện	-0.30103
-3.872619	Tiêu	-0.30103
-4.395969	Mộng	-0.30103
-4.395969	Xạ	-0.30103
-4.395969	Áng	-0.30103
-4.395969	Luật	-0.30103
-4.0886354	Côi	-0.30103
-3.9844797	Khải	-0.30103
-4.1355405	Mạn	-0.30103
-4.395969	Thản	-0.30103
-4.395969	Bán	-0.30103
-4.395969	Dẫn	-0.30103
-3.6469958	Tập	-0.34449568
-3.872619	Khúc	-0.30103
-3.9844797	Dưỡng	-0.30103
-4.1355405	Điêu	-0.30103
-4.395969	Hoá	-0.30103
-4.1355405	Tề	-0.30103
-4.0886354	Thao	-0.30103
-4.1355405	Địch	-0.30103
-4.0886354	Quả	-0.30103
-4.1355405	Thục	-0.30103
-4.395969	Luyện	-0.30103
-4.395969	Khoán	-0.30103
-4.1355405	Tất	-0.30103
-3.6469958	Cửu	-0.30103
-4.0886354	Nhuệ	-0.30103
-3.783749	Kiệt	-0.30103
-4.395969	Trắc	-0.30103
-4.395969	Viêm	-0.30103
-3.9844797	Liễn	-0.30103
-4.395969	Trục	-0.30103
-4.395969	Giản	-0.30103
-3.872619	Ích	-0.30103
-4.395969	Lữ	-0.30103
-3.206743	Duy	-0.3811265
-4.0886354	Đảo	-0.30103
-4.1355405	Nguyệt	-0.30103
-4.395969	Tang	-0.30103
-4.0886354	Lựu	-0.30103
-4.1355405	Nhạo	-0.30103
-4.1355405	Khắc	-0.30103
-3.872619	Niệm	-0.30103
-3.9844797	Hạp	-0.30103
-4.0886354	Chờ	-0.30103
-4.395969	Giả	-0.30103
-4.0886354	Lim	-0.30103
-4.395969	Bão	-0.30103
-4.1355405	Phật	-0.30103
-3.9844797	Ngàn	-0.30103
-4.395969	Chẩn	-0.30103
-4.1355405	Mão	-0.30103
-4.395969	Ngâm	-0.30103
-4.395969	Cứu	-0.30103
-4.0886354	Thứa	-0.30103
-3.5431483	Tài	-0.40248764
-3.49926	Kênh	-0.33881855
-4.1355405	Trừng	-0.30103
-4.395969	Hàn	-0.30103
-4.395969	Tắm	-0.30103
-4.0886354	Sách	-0.30103
-4.1355405	Thứ	-0.30103
-4.0886354	Vu	-0.30103
-4.395969	Đính	-0.30103
-4.395969	Lỗi	-0.30103
-4.0886354	Kẻ	-0.30103
-4.395969	Sặt	-0.30103
-4.1355405	Thúc	-0.30103
-4.395969	Bì	-0.30103
-4.1355405	Tái	-0.30103
-4.1355405	Tố	-0.30103
-4.395969	Hoè	-0.30103
-4.395969	Miện	-0.30103
-4.395969	Toan	-0.30103
-4.0886354	Phòng	-0.30103
-3.2758095	Dầu	-0.45781612
-4.395969	Chuối	-0.30103
-4.395969	Bội	-0.30103
-4.395969	Chai	-0.30103
-3.6469958	Tơ	-0.30103
-3.872619	Tre	-0.30103
-3.3288255	Đất	-0.41497335
-4.1355405	Lạch	-0.30103
-4.395969	Tray	-0.30103
-4.1355405	Dài	-0.30103
-4.395969	Trữ	-0.30103
-4.395969	Ngọ	-0.30103
-4.395969	Đẩu	-0.30103
-3.7100117	Đồ	-0.60206
-3.1289968	Núi	-0.50514996
-3.9844797	Kiền	-0.30103
-4.395969	Đối	-0.30103
-3.872619	Khởi	-0.30103
-4.0886354	Am	-0.30103
-3.872619	Trân	-0.30103
-4.395969	nan	-0.30103
-3.872619	Chiểu	-0.3521825
-4.395969	Dù	-0.30103
-4.1355405	Trụ	-0.30103
-4.1355405	Bần	-0.30103
-4.395969	Ủng	-0.30103
-4.395969	Sậy	-0.30103
-3.783749	Dạ	-0.30103
-3.301509	Thủ	-0.49485004
-4.395969	Phiến	-0.30103
-4.0886354	Cừ	-0.30103
-4.1355405	Tống	-0.30103
-3.9844797	Điệp	-0.30103
-4.1355405	Á	-0.30103
-3.9844797	Diêm	-0.30103
-3.9844797	Tuyền	-0.30103
-4.395969	Tiết	-0.30103
-3.9844797	Đinh	-0.30103
-4.1355405	Trác	-0.30103
-4.395969	Úy	-0.30103
-3.783749	Tượng	-0.30103
-4.0886354	Gôi	-0.30103
-3.872619	Hiển	-0.30103
-3.005859	Ý	-1.230449
-4.0886354	Quỹ	-0.30103
-3.872619	Cồn	-0.30103
-3.0786438	Nho	-0.70472234
-4.1355405	Xích	-0.30103
-4.1355405	Me	-0.30103
-4.0886354	Tôn	-0.30103
-3.9844797	Phát	-0.30103
-4.0886354	Diệm	-0.30103
-4.1355405	Chất	-0.30103
-4.395969	Thoi	-0.30103
-4.395969	Trạo	-0.30103
-3.005859	Thiệu	-0.39711198
-3.872619	Tào	-0.30103
-2.9100327	Hoằng	-0.38893875
-4.395969	Bỉm	-0.30103
-3.9844797	Lát	-0.30103
-4.1355405	Cành	-0.30103
-4.395969	Thước	-0.30103
-4.395969	Ống	-0.30103
-4.395969	Mìn	-0.30103
-3.1661325	Chánh	-0.44608703
-4.395969	Lặc	-0.30103
-4.1355405	Thúy	-0.30103
-4.0886354	Ấn	-0.30103
-4.1355405	Hoạt	-0.30103
-4.395969	Toại	-0.30103
-3.094788	Diên	-0.39898524
-4.395969	Mọt	-0.30103
-4.395969	Lẹ	-0.30103
-4.1355405	Khuyến	-0.30103
-4.395969	Toán	-0.30103
-4.0886354	Bút	-0.30103
-4.1355405	Ngư	-0.30103
-4.0886354	Vịnh	-0.30103
-4.395969	Trành	-0.30103
-2.80546	Nghi	-0.41412678
-4.0886354	Rừng	-0.30103
-3.1859632	Nghệ	-0.76176083
-3.389225	Bàu	-0.35607758
-4.0886354	Cung	-0.30103
-4.395969	Lò	-0.30103
-4.395969	Giải	-0.30103
-4.395969	Nọc	-0.30103
-4.395969	Nhoóng	-0.30103
-4.1355405	Căm	-0.30103
-4.395969	Xén	-0.30103
-4.1355405	Keng	-0.30103
-4.1355405	Đoọc	-0.30103
-4.395969	Mạy	-0.30103
-4.1355405	Huồi	-0.30103
-4.395969	Lống	-0.30103
-4.395969	Loi	-0.30103
-4.395969	Cắn	-0.30103
-4.1355405	Phà	-0.30103
-4.395969	Đánh	-0.30103
-4.395969	Cạ	-0.30103
-4.395969	Típ	-0.30103
-4.395969	Ải	-0.30103
-4.395969	Ngoi	-0.30103
-4.395969	Càn	-0.30103
-4.1355405	Nhôn	-0.30103
-4.395969	Khuông	-0.30103
-4.1355405	Xiêng	-0.30103
-4.395969	Lượng	-0.30103
-4.395969	Giát	-0.30103
-4.0886354	Đôi	-0.30103
-4.0886354	Kỷ	-0.30103
-4.1355405	Bồi	-0.30103
-4.395969	Nài	-0.30103
-4.395969	Ảnh	-0.30103
-3.783749	Bùi	-0.30103
-4.1355405	Cỗ	-0.30103
-3.9844797	Đạm	-0.30103
-4.0886354	Nghèn	-0.30103
-4.395969	Hới	-0.30103
-4.0886354	Nẫm	-0.30103
-4.395969	Hàu	-0.30103
-3.2758095	4	-0.6232493
-3.2515464	5	-0.64345264
-3.206743	3	-0.50514996
-4.395969	Chấp	-0.30103
-4.0886354	Sanh	-0.30103
-4.395969	Tầng	-0.30103
-4.0886354	Dơi	-0.30103
-4.1355405	Xy	-0.30103
-3.2515464	Gio	-0.44039845
-2.6005082	Krông	-0.70368207
-4.395969	Klang	-0.30103
-4.1355405	Mò	-0.30103
-4.395969	Ó	-0.30103
-4.395969	Lòng	-0.30103
-4.395969	Nghì	-0.30103
-4.395969	Vao	-0.30103
-4.395969	Rụt	-0.30103
-4.0886354	Bung	-0.30103
-4.0886354	Ngo	-0.30103
-2.7888832	Phước	-0.45461392
-4.395969	Cỏ	-0.30103
-3.389225	Thừa	-0.48811665
-4.1355405	Đúc	-0.30103
-4.395969	Cựu	-0.30103
-4.395969	Biều	-0.30103
-4.0886354	Sịa	-0.30103
-3.872619	Vang	-0.30103
-4.0886354	Chữ	-0.30103
-4.395969	Lưới	-0.30103
-4.0886354	Nhâm	-0.30103
-4.395969	Roàng	-0.30103
-4.395969	Đớt	-0.30103
-4.0886354	Bổn	-0.30103
-4.395969	Nẵng	-0.30103
-4.1355405	Thạc	-0.30103
-4.395969	Thang	-0.30103
-3.872619	I	-0.30103
-3.9844797	II	-0.30103
-3.9844797	Nại	-0.30103
-4.1355405	Mân	-0.30103
-3.033527	Nhơn	-0.40576535
-2.7426412	Thạnh	-0.54568356
-4.395969	Phô	-0.30103
-4.1355405	Ch'ơm	-0.30103
-3.9844797	Ga	-0.30103
-4.0886354	Ri	-0.30103
-4.395969	Xan	-0.30103
-4.1355405	Tr'Hy	-0.30103
-4.395969	Tiêng	-0.30103
-4.1355405	Bha	-0.30103
-3.9844797	Dang	-0.30103
-4.0886354	P	-0.30103
-4.0886354	Rao	-0.30103
-4.395969	Kôn	-0.30103
-3.9844797	Jơ	-0.30103
-4.395969	Ngây	-0.30103
-4.395969	Ting	-0.30103
-4.395969	Rooi	-0.30103
-4.1355405	Za	-0.30103
-4.1355405	Mà	-0.30103
-4.395969	Cooi	-0.30103
-4.395969	Dăng	-0.30103
-3.7100117	Lãnh	-0.38818017
-4.1355405	Laêê	-0.30103
-4.1355405	Chơ	-0.30103
-4.395969	Chun	-0.30103
-4.1355405	Zuôich	-0.30103
-4.395969	Pơơ	-0.30103
-4.395969	Dêê	-0.30103
-4.395969	Tôi	-0.30103
-4.395969	Vàl	-0.30103
-4.395969	Bhinh	-0.30103
-4.395969	Dy	-0.30103
-4.395969	Pre	-0.30103
-4.395969	Pring	-0.30103
-4.395969	Kót	-0.30103
-4.395969	Nú	-0.30103
-4.395969	Bui	-0.30103
-4.395969	Giác	-0.30103
-4.395969	Dơn	-0.30103
-4.0886354	Don	-0.30103
-3.301509	Ngãi	-0.39978415
-4.395969	Dõng	-0.30103
-3.5431483	Tịnh	-0.30998483
-4.395969	Ổ	-0.30103
-4.395969	Xinh	-0.30103
-4.0886354	Thương	-0.30103
-4.395969	Mùa	-0.30103
-4.395969	Màu	-0.30103
-3.9844797	Dinh	-0.30103
-4.395969	Lế	-0.30103
-4.395969	Cảng	-0.30103
-4.1355405	Ghềnh	-0.30103
-4.395969	Ráng	-0.30103
-3.9844797	Đak	-0.30103
-4.1355405	Bok	-0.30103
-4.395969	Tới	-0.30103
-4.1355405	Đập	-0.30103
-4.0886354	Diêu	-0.30103
-3.206743	8	-0.6812413
-4.1355405	9	-0.30103
-3.389225	7	-0.60206
-3.2515464	6	-0.64345264
-4.395969	Mỡ	-0.30103
-4.0886354	Củng	-0.30103
-4.395969	Lúi	-0.30103
-4.1355405	Eachà	-0.30103
-4.395969	Rang	-0.30103
-4.0886354	Riêng	-0.30103
-4.395969	Hinh	-0.30103
-2.869035	Ea	-0.35919875
-4.1355405	EaBar	-0.30103
-4.1355405	EaBia	-0.30103
-4.1355405	EaTrol	-0.30103
-4.1355405	Ealy	-0.30103
-4.0886354	Huân	-0.30103
-4.395969	Ranh	-0.30103
-4.395969	Sim	-0.30103
-4.395969	Cụm	-0.30103
-4.0886354	Tồn	-0.30103
-4.395969	Rang-Tháp	-0.30103
-4.395969	Chàm	-0.30103
-3.6469958	Tấn	-0.30103
-4.395969	Nới	-0.30103
-4.395969	Ná	-0.30103
-3.9844797	Mũi	-0.30103
-4.0886354	Né	-0.30103
-4.395969	Hài	-0.30103
-4.395969	Gi	-0.30103
-4.395969	Rí	-0.30103
-4.395969	Lũy	-0.30103
-4.395969	Mán	-0.30103
-3.3288255	Tánh	-0.73468554
-4.395969	Ngâu	-0.30103
-4.395969	Khiêm	-0.30103
-3.9844797	Măng	-0.30103
-4.1355405	Kho	-0.30103
-4.395969	Huynh	-0.30103
-3.9844797	Kiết	-0.38021123
-4.395969	Xu	-0.30103
-4.395969	Kai	-0.30103
-2.9798484	Kon	-0.527814
-4.395969	Tum	-0.30103
-2.5900936	Đắk	-0.42477396
-4.1355405	Kroong	-0.30103
-3.9844797	Ngọk	-0.30103
-4.395969	Bay	-0.30103
-4.395969	Blà	-0.30103
-3.005859	Ia	-0.32825965
-2.9798484	Đăk	-0.46415627
-4.395969	Hreng	-0.30103
-3.9844797	Rơ	-0.30103
-4.395969	Wa	-0.30103
-4.395969	Glei	-0.30103
-4.395969	Blô	-0.30103
-4.395969	Man	-0.30103
-4.395969	Nhoong	-0.30103
-4.395969	Pék	-0.30103
-4.395969	Choong	-0.30103
-4.1355405	Xốp	-0.30103
-4.395969	Hoong	-0.30103
-4.395969	KRoong	-0.30103
-4.0886354	Plei	-0.30103
-4.395969	Kần	-0.30103
-4.395969	Ang	-0.30103
-4.395969	Xú	-0.30103
-3.9844797	Bờ	-0.30103
-4.395969	Loong	-0.30103
-4.395969	Trăm	-0.30103
-4.395969	Lem	-0.30103
-3.9844797	Pô	-0.30103
-4.395969	Kô	-0.30103
-4.395969	Nên	-0.30103
-4.395969	Plông	-0.30103
-4.395969	Ring	-0.30103
-4.395969	Buk	-0.30103
-4.1355405	Ngok	-0.30103
-4.395969	Tem	-0.30103
-4.0886354	Ê	-0.30103
-4.395969	Rve	-0.30103
-4.395969	Rẫy	-0.30103
-4.395969	Kôi	-0.30103
-4.395969	Ruồng	-0.30103
-4.0886354	Pne	-0.30103
-4.0886354	Tờ	-0.30103
-4.395969	Re	-0.30103
-4.395969	PXi	-0.30103
-4.395969	HRing	-0.30103
-4.395969	Ui	-0.30103
-4.395969	Mar	-0.30103
-4.395969	Wang	-0.30103
-4.395969	Réo	-0.30103
-4.395969	Thầy	-0.30103
-4.395969	Kơi	-0.30103
-4.1355405	Hơ	-0.30103
-4.395969	Moong	-0.30103
-4.0886354	Rai	-0.30103
-3.872619	Ya	-0.30103
-4.395969	Xiêr	-0.30103
-4.395969	ly	-0.30103
-4.0886354	Lây	-0.30103
-4.1355405	Mơ	-0.30103
-4.0886354	Rông	-0.30103
-4.395969	Yêu	-0.30103
-4.1355405	Tê	-0.30103
-4.395969	Xăng	-0.30103
-4.395969	Xuôi	-0.30103
-4.395969	Đal	-0.30103
-3.9844797	H'	-0.30103
-4.395969	Drai	-0.30103
-4.395969	Dom	-0.30103
-4.395969	Tơi	-0.30103
-4.395969	Pleiku	-0.30103
-4.395969	Kring	-0.30103
-4.1355405	Gào	-0.30103
-4.395969	Reo	-0.30103
-4.1355405	Ayun	-0.30103
-4.395969	RBol	-0.30103
-4.395969	Băh	-0.30103
-4.395969	RTô	-0.30103
-3.2515464	KBang	-0.60206
-4.395969	Roong	-0.30103
-4.1355405	KRong	-0.30103
-4.395969	Pai	-0.30103
-4.1355405	Lơ	-0.30103
-4.395969	Ku	-0.30103
-4.395969	SMar	-0.30103
-3.2515464	Kông	-0.5314789
-4.395969	Lơng	-0.30103
-4.395969	Khơng	-0.30103
-4.395969	Pla	-0.30103
-4.395969	HLơ	-0.30103
-4.395969	Đoa	-0.30103
-4.395969	Sơmei	-0.30103
-4.395969	Krong	-0.30103
-3.6469958	Yang	-0.3238929
-4.395969	Gang	-0.30103
-4.395969	Bầu	-0.30103
-3.9844797	K'	-0.30103
-4.395969	Neng	-0.30103
-4.1355405	Glar	-0.30103
-4.0886354	Dơk	-0.30103
-4.1355405	HNol	-0.30103
-4.395969	Pết	-0.30103
-3.9844797	Băng	-0.30103
-4.395969	Păh	-0.30103
-4.395969	Khươl	-0.30103
-4.395969	Phí	-0.30103
-4.395969	Kreng	-0.30103
-4.395969	Ver	-0.30103
-4.395969	Grai	-0.30103
-4.395969	Yok	-0.30103
-4.395969	Hrung	-0.30103
-4.395969	Bă	-0.30103
-4.395969	KRai	-0.30103
-4.395969	Grăng	-0.30103
-4.395969	O	-0.30103
-4.395969	Dêr	-0.30103
-4.395969	Chia	-0.30103
-4.395969	Pếch	-0.30103
-4.395969	Dơng	-0.30103
-4.395969	Ley	-0.30103
-4.1355405	Hra	-0.30103
-4.395969	Yă	-0.30103
-4.395969	Djrăng	-0.30103
-4.0886354	Pang	-0.30103
-4.395969	Thụp	-0.30103
-4.1355405	Đê	-0.30103
-4.395969	Ar	-0.30103
-4.395969	Chiêng	-0.30103
-4.395969	Chro	-0.30103
-4.395969	Krêy	-0.30103
-4.1355405	SRó	-0.30103
-4.395969	Kơ	-0.30103
-4.0886354	Ning	-0.30103
-4.395969	Pling	-0.30103
-4.0886354	Pơ	-0.30103
-4.395969	Krêl	-0.30103
-4.395969	Din	-0.30103
-4.395969	Kla	-0.30103
-4.395969	Kriêng	-0.30103
-4.395969	Pnôn	-0.30103
-4.395969	Nan	-0.30103
-4.0886354	Prông	-0.30103
-4.0886354	Kly	-0.30103
-4.1355405	Drăng	-0.30103
-4.0886354	Cạn	-0.30103
-4.395969	Tôr	-0.30103
-4.395969	Boòng	-0.30103
-4.395969	Púch	-0.30103
-4.395969	Vê	-0.30103
-4.395969	Pia	-0.30103
-4.395969	Piơr	-0.30103
-4.395969	Sê	-0.30103
-4.395969	Tiêm	-0.30103
-3.9844797	Pơng	-0.30103
-3.9844797	Bar	-0.30103
-4.395969	Măih	-0.30103
-4.395969	Ngoong	-0.30103
-4.395969	Glai	-0.30103
-4.1355405	AL	-0.30103
-4.395969	HTok	-0.30103
-4.1355405	AYun	-0.30103
-4.395969	HLốp	-0.30103
-4.0886354	Blang	-0.30103
-4.1355405	Dun	-0.30103
-4.0886354	Pal	-0.30103
-4.1355405	H	-0.30103
-4.395969	Ko	-0.30103
-4.395969	Tó	-0.30103
-4.0886354	Răng	-0.30103
-4.395969	KDăm	-0.30103
-4.0886354	Tul	-0.30103
-4.395969	Rơn	-0.30103
-4.395969	Broăi	-0.30103
-4.395969	Trok	-0.30103
-4.395969	RSai	-0.30103
-4.395969	RSươm	-0.30103
-4.395969	Gu	-0.30103
-4.395969	Mláh	-0.30103
-4.395969	HDreh	-0.30103
-4.395969	RMok	-0.30103
-4.1355405	Uar	-0.30103
-4.395969	Rcăm	-0.30103
-4.395969	Thai	-0.30103
-4.395969	Ake	-0.30103
-4.0886354	Sol	-0.30103
-4.395969	Piar	-0.30103
-4.395969	Peng	-0.30103
-4.1355405	Chrôh	-0.30103
-4.395969	Pơnan	-0.30103
-4.0886354	Hiao	-0.30103
-4.395969	Yeng	-0.30103
-4.395969	Pưh	-0.30103
-4.395969	Hrú	-0.30103
-4.0886354	Rong	-0.30103
-4.395969	Dreng	-0.30103
-4.395969	Hla	-0.30103
-4.395969	Phang	-0.30103
-4.395969	Le	-0.30103
-4.395969	BLứ	-0.30103
-3.389225	Buôn	-0.40576535
-4.395969	Thuột	-0.30103
-3.389225	Lắk	-0.66900676
-4.395969	ÊBur	-0.30103
-4.0886354	Kao	-0.30103
-4.395969	Drông	-0.30103
-4.395969	Siên	-0.30103
-4.395969	H'leo	-0.30103
-4.395969	Ral	-0.30103
-4.395969	Wy	-0.30103
-4.0886354	Mốt	-0.30103
-4.395969	Khal	-0.30103
-3.9844797	Dliê	-0.30103
-4.395969	Tir	-0.30103
-4.395969	Súp	-0.30103
-4.395969	Lốp	-0.30103
-4.395969	JLơi	-0.30103
-4.395969	Rốk	-0.30103
-4.395969	RVê	-0.30103
-4.395969	M'Lan	-0.30103
-4.395969	Huar	-0.30103
-4.0886354	Wer	-0.30103
-4.1355405	Cuôr	-0.30103
-4.395969	KNia	-0.30103
-4.395969	Nuôl	-0.30103
-4.395969	Pốk	-0.30103
-4.395969	M'gar	-0.30103
-4.395969	Kuêh	-0.30103
-4.395969	Tar	-0.30103
-4.395969	M'nông	-0.30103
-4.395969	H'đinh	-0.30103
-4.395969	KPam	-0.30103
-4.395969	M'DRóh	-0.30103
-4.395969	D'Rơng	-0.30103
-4.395969	M'nang	-0.30103
-4.395969	Suê	-0.30103
-4.1355405	Cuor	-0.30103
-4.1355405	Búk	-0.30103
-4.395969	KBô	-0.30103
-4.395969	Drang	-0.30103
-4.395969	Ngai	-0.30103
-4.1355405	ĐLiê	-0.30103
-4.395969	Tóh	-0.30103
-4.395969	Puk	-0.30103
-4.395969	Dăh	-0.30103
-4.395969	Klông	-0.30103
-4.395969	Kar	-0.30103
-4.395969	Knốp	-0.30103
-4.0886354	Sar	-0.30103
-4.395969	Huê	-0.30103
-4.395969	Tih	-0.30103
-4.395969	Đar	-0.30103
-4.395969	Kmút	-0.30103
-4.395969	Ni	-0.30103
-4.395969	Păl	-0.30103
-4.395969	ELang	-0.30103
-4.395969	Jang	-0.30103
-3.301509	M'Đrắk	-0.6532125
-4.395969	Prao	-0.30103
-4.395969	Pil	-0.30103
-4.395969	H'MLay	-0.30103
-4.395969	Jing	-0.30103
-4.0886354	M'	-0.30103
-4.395969	Doal	-0.30103
-4.395969	M'ta	-0.30103
-4.395969	K	-0.30103
-4.395969	Róa	-0.30103
-4.395969	Kmar	-0.30103
-4.395969	Kang	-0.30103
-4.395969	KTy	-0.30103
-4.395969	Reh	-0.30103
-4.395969	Trul	-0.30103
-4.395969	Pui	-0.30103
-4.395969	Drăm	-0.30103
-4.1355405	KRông	-0.30103
-4.395969	Phê	-0.30103
-4.395969	KNuec	-0.30103
-4.395969	Yông	-0.30103
-4.395969	Kuăng	-0.30103
-4.395969	Hiu	-0.30103
-4.395969	Yiêng	-0.30103
-4.395969	Trấp	-0.30103
-4.1355405	Dray	-0.30103
-4.395969	Sáp	-0.30103
-4.395969	Drênh	-0.30103
-4.1355405	Dur	-0.30103
-4.395969	KMăl	-0.30103
-4.395969	Tao	-0.30103
-4.395969	Krang	-0.30103
-3.872619	Liêng	-0.30103
-4.395969	Triết	-0.30103
-4.395969	Tría	-0.30103
-4.395969	Phơi	-0.30103
-4.395969	Nuê	-0.30103
-4.395969	Nô	-0.30103
-4.395969	R'Bin	-0.30103
-4.395969	Kuin	-0.30103
-4.395969	Wi	-0.30103
-4.395969	Ktur	-0.30103
-4.395969	BHốk	-0.30103
-4.395969	Bhăng	-0.30103
-4.395969	R'Moan	-0.30103
-4.395969	Nia	-0.30103
-4.395969	Glong	-0.30103
-4.395969	Ha	-0.30103
-4.395969	R'Măng	-0.30103
-4.395969	Plao	-0.30103
-4.395969	Som	-0.30103
-4.395969	T'Ling	-0.30103
-4.395969	Jút	-0.30103
-4.395969	Wil	-0.30103
-4.395969	DRông	-0.30103
-4.395969	Knia	-0.30103
-4.395969	Mil	-0.30103
-4.395969	R'La	-0.30103
-4.395969	Gằn	-0.30103
-4.395969	Mạnh	-0.30103
-4.395969	N'Drót	-0.30103
-4.395969	Sắk	-0.30103
-4.395969	Mâm	-0.30103
-4.395969	Sôr	-0.30103
-4.395969	Choah	-0.30103
-4.395969	Drô	-0.30103
-4.1355405	Nâm	-0.30103
-4.395969	N'Đir	-0.30103
-4.395969	Môl	-0.30103
-4.395969	N'Dung	-0.30103
-4.395969	N'Jang	-0.30103
-4.395969	R'Lấp	-0.30103
-4.395969	Ru	-0.30103
-4.395969	R'Tíh	-0.30103
-4.395969	Lạt	-0.30103
-3.389225	12	-0.44369748
-3.2285671	10	-0.49008623
-3.206743	11	-0.5407903
-4.1355405	B'lao	-0.30103
-4.395969	Bri	-0.30103
-3.1859632	Đạ	-0.39083967
-3.5431483	Đam	-0.74036264
-4.395969	Srônh	-0.30103
-4.395969	Rsal	-0.30103
-4.1355405	Rô	-0.30103
-4.395969	Chais	-0.30103
-4.395969	Nhim	-0.30103
-4.1355405	Đưng	-0.30103
-4.395969	KNớ	-0.30103
-4.395969	Đờn	-0.30103
-4.0886354	D'Ran	-0.30103
-3.422898	Đơn	-0.66005194
-4.395969	Ròn	-0.30103
-4.1355405	Pró	-0.30103
-4.1355405	N'Thol	-0.30103
-4.395969	Quyn	-0.30103
-4.395969	Hine	-0.30103
-4.1355405	Gung	-0.30103
-4.395969	Ré	-0.30103
-4.1355405	B'	-0.30103
-4.395969	Lá	-0.30103
-4.395969	M'ri	-0.30103
-4.395969	Huoai	-0.30103
-4.395969	Guôi	-0.30103
-4.395969	Ploa	-0.30103
-4.395969	Tẻh	-0.30103
-4.0886354	Xoài	-0.30103
-3.033527	Bù	-0.76839143
-4.395969	Mập	-0.30103
-4.395969	Ơ	-0.30103
-4.395969	Đốp	-0.30103
-3.389225	Hớn	-0.8750613
-4.395969	Nơ	-0.30103
-4.395969	Nhau	-0.30103
-3.9844797	Bom	-0.30103
-4.395969	Chơn	-0.30103
-4.1355405	Riềng	-0.30103
-4.395969	Vong	-0.30103
-4.395969	Dây	-0.30103
-4.395969	Củi	-0.30103
-4.1355405	Truông	-0.30103
-4.0886354	Đước	-0.30103
-2.72826	Gò	-0.9378521
-3.1859632	Trảng	-0.64626366
-4.1355405	Trừ	-0.30103
-4.395969	Thố	-0.30103
-4.395969	Tiếng	-0.30103
-2.9435391	Thới	-0.4969555
-3.9844797	Dĩ	-0.38021123
-4.395969	Thiêu	-0.30103
-4.395969	Cuốc	-0.30103
-3.783749	Bửu	-0.30103
-4.395969	Trâm	-0.30103
-4.395969	Gòn	-0.30103
-4.1355405	Dak	-0.30103
-4.395969	Lua	-0.30103
-4.395969	Lài	-0.30103
-3.9844797	Gáo	-0.30103
-4.395969	Trầu	-0.30103
-4.395969	61	-0.30103
-3.9844797	25	-0.30103
-4.395969	Giây	-0.30103
-4.0886354	Ray	-0.30103
-4.395969	Thiền	-0.30103
-3.1661325	Vũng	-0.81291336
-4.1355405	Tàu	-0.30103
-4.395969	-	-0.30103
-3.7100117	Rạch	-0.30103
-4.395969	Lớn	-0.30103
-4.1355405	Bưng	-0.30103
-4.1355405	Nhứt	-0.30103
-4.1355405	Tóc	-0.30103
-4.395969	Nghé	-0.30103
-4.1355405	15	-0.30103
-4.395969	Vấp	-0.30103
-4.1355405	13	-0.30103
-4.1355405	17	-0.30103
-4.1355405	16	-0.30103
-4.1355405	14	-0.30103
-4.1355405	05	-0.30103
-4.1355405	07	-0.30103
-4.1355405	04	-0.30103
-4.1355405	01	-0.30103
-4.1355405	03	-0.30103
-4.1355405	27	-0.30103
-4.1355405	26	-0.30103
-4.1355405	24	-0.30103
-4.1355405	06	-0.30103
-4.1355405	02	-0.30103
-4.1355405	21	-0.30103
-4.1355405	22	-0.30103
-4.1355405	19	-0.30103
-4.1355405	28	-0.30103
-4.1355405	08	-0.30103
-4.1355405	09	-0.30103
-3.1859632	B	-0.58909506
-4.395969	Thiêm	-0.30103
-4.0886354	Sáu	-0.30103
-4.1355405	18	-0.30103
-3.9844797	Kiểng	-0.30103
-4.395969	Cội	-0.30103
-3.3288255	Hóc	-0.85733247
-3.872619	Nhựt	-0.30103
-4.0886354	Bè	-0.30103
-4.395969	Kiển	-0.30103
-4.395969	Giờ	-0.30103
-4.395969	Lức	-0.30103
-4.1355405	Quê	-0.30103
-4.395969	Giuộc	-0.30103
-3.422898	Quới	-0.37844223
-4.395969	Tho	-0.30103
-4.395969	Lậy	-0.30103
-4.395969	Gạo	-0.30103
-4.1355405	Quơn	-0.30103
-3.9844797	Vàm	-0.30103
-3.9844797	Qưới	-0.30103
-4.395969	Lách	-0.30103
-4.395969	Thiềng	-0.30103
-4.395969	Cày	-0.30103
-2.9926589	Giồng	-0.87728274
-4.395969	Trôm	-0.30103
-4.0886354	Tiệm	-0.30103
-4.395969	Tôm	-0.30103
-3.3288255	Càng	-0.85733247
-3.4594028	Tiểu	-0.748188
-4.395969	Ngang	-0.30103
-4.395969	Thít	-0.30103
-4.395969	Nhum	-0.30103
-4.395969	Vồn	-0.30103
-4.395969	Lược	-0.30103
-4.395969	Thảnh	-0.30103
-4.395969	Đéc	-0.30103
-4.395969	Ngự	-0.30103
-4.395969	Rài	-0.30103
-4.0886354	Tràm	-0.30103
-4.395969	Binh	-0.30103
-4.395969	Huề	-0.30103
-3.389225	Lấp	-0.80618
-4.395969	Vò	-0.30103
-4.395969	Vung	-0.30103
-4.395969	Ngươn	-0.30103
-4.395969	Voi	-0.30103
-4.395969	Đảnh	-0.30103
-4.395969	Tuyến	-0.30103
-3.2515464	Thoại	-0.7201593
-4.0886354	Óc	-0.30103
-4.395969	Eo	-0.30103
-4.395969	Thê	-0.30103
-4.1355405	Pháo	-0.30103
-3.3288255	Hòn	-0.56729794
-4.1355405	Lình	-0.30103
-4.1355405	Huỳnh	-0.30103
-4.1355405	Mong	-0.30103
-4.1355405	Giục	-0.30103
-4.395969	Quao	-0.30103
-3.9844797	Gành	-0.30103
-4.395969	Điều	-0.30103
-4.395969	Khế	-0.30103
-4.395969	Thơ	-0.30103
-4.395969	Nóc	-0.30103
-3.422898	Thốt	-0.7781512
-4.395969	Nốt	-0.30103
-3.422898	Cờ	-0.7781512
-4.1355405	III	-0.30103
-4.1355405	IV	-0.30103
-4.1355405	V	-0.30103
-4.1355405	VII	-0.30103
-4.1355405	Hoả	-0.30103
-4.1355405	Bảy	-0.30103
-4.395969	Gòi	-0.30103
-3.9844797	Tắc	-0.30103
-4.0886354	Mái	-0.30103
-4.395969	Dầm	-0.30103
-4.395969	Cùng	-0.30103
-4.0886354	Mau	-0.30103
-4.395969	Lồng	-0.30103
-4.395969	Trăng	-0.30103
-4.1355405	Tham	-0.30103
-3.422898	Năm	-0.62838894
-4.395969	Mát	-0.30103
-4.395969	Tròn	-0.30103
-4.395969	Phích	-0.30103
-4.395969	Phải	-0.30103
-4.395969	Thời	-0.30103
-4.395969	Hợi	-0.30103
-4.395969	Phán	-0.30103
-4.1355405	Quách	-0.30103
-4.395969	Phẩm	-0.30103
-4.395969	Chèo	-0.30103
-4.395969	Khái	-0.30103
-4.395969	Gốc	-0.30103
-2.6566942	TP	-1.0170333
-4.0886354	phường	-0.30103
-1.8599708	quận	-1.1040049
-2.35388	thành	-1.9882616
-4.395969	thị	-0.30103
-1.0392764	huyện	-1.5548006
-1.7147753	tỉnh	-1.2388821
-2.8890502	Xá,	-0.91284984
-3.3579762	Đình,	-0.5797836
-3.872619	Bạch,	-0.39794
-2.9798484	Phúc,	-0.845098
-4.1355405	Vị,	-0.30103
-4.395969	Giai,	-0.30103
-3.9844797	Trực,	-0.30103
-4.395969	Thánh,	-0.30103
-2.7970924	Hà,	-0.97619706
-3.6469958	Biên,	-0.39120662
-4.395969	Cấn,	-0.30103
-3.005859	Khánh,	-0.78769654
-4.1355405	Mã,	-0.30103
-4.1355405	Võ,	-0.30103
-3.206743	Công,	-0.72699875
-2.662734	Tân,	-1.1012313
-4.0886354	Kiếm,	-0.30103
-2.7353911	Xuân,	-1
-4.395969	Buồm,	-0.30103
-3.7100117	Đào,	-0.44715804
-4.1355405	Bồ,	-0.30103
-2.6333406	Đông,	-1.1180993
-4.0886354	Tổ,	-0.30103
-4.1355405	Bạc,	-0.30103
-4.0886354	Gai,	-0.30103
-2.920917	Dương,	-0.79588
-4.395969	Trống,	-0.30103
-2.80546	Nam,	-0.91026855
-3.783749	Bông,	-0.30103
-4.1355405	Tiền,	-0.30103
-3.3579762	Đạo,	-0.6255411
-3.5431483	Trinh,	-0.43933266
-3.783749	Bài,	-0.38021123
-2.80546	Thượng,	-0.9429615
-3.1115558	Hồ,	-0.6642079
-3.1289968	Liên,	-0.6746107
-2.5602689	An,	-1.1845244
-3.2285671	La,	-0.54406804
-3.872619	Phụ,	-0.30103
-4.395969	Bưởi,	-0.30103
-4.395969	Khuê,	-0.30103
-2.869035	Thanh,	-0.9542425
-3.783749	Thụy,	-0.30103
-2.7729158	Giang,	-0.95744765
-2.72826	Hưng,	-1.049218
-2.7500143	Lâm,	-0.97619706
-3.005859	Lợi,	-0.8591845
-3.9844797	Đề,	-0.38021123
-3.033527	Đồng,	-0.8782664
-3.9844797	Bàn,	-0.30103
-4.395969	Khối,	-0.30103
-3.49926	Đô,	-0.6368221
-4.395969	Giấy,	-0.30103
-3.9844797	Dịch,	-0.30103
-4.395969	Vọng,	-0.30103
-3.49926	Hậu,	-0.43933266
-3.301509	Hoa,	-0.6532125
-2.9320807	Hoà,	-0.8151348
-3.094788	Linh,	-0.7781512
-3.5919755	Đa,	-0.39794
-4.1355405	Miếu,	-0.30103
-4.0886354	Giám,	-0.30103
-4.1355405	Dừa,	-0.30103
-3.872619	Chương,	-0.38021123
-4.395969	Bột,	-0.30103
-3.0786438	Hạ,	-0.845098
-4.1355405	Thiên,	-0.30103
-3.2285671	Quan,	-0.8176598
-3.6469958	Phụng,	-0.50514996
-2.6688595	Trung,	-1.146128
-3.7100117	Liệt,	-0.36797678
-2.8890502	Quang,	-0.85387194
-4.1355405	Tự,	-0.30103
-3.206743	Mai,	-0.60206
-3.872619	Sở,	-0.38021123
-3.7100117	Du,	-0.47712123
-3.872619	Trưng,	-0.38021123
-4.0886354	Đằng,	-0.30103
-4.0886354	Hổ,	-0.30103
-3.783749	Hành,	-0.36797678
-3.3579762	Nhân,	-0.68638086
-4.0886354	Huế,	-0.30103
-4.395969	Mác,	-0.30103
-2.9435391	Lương,	-0.80811447
-4.0886354	Nhàn,	-0.30103
-4.395969	Dền,	-0.30103
-3.783749	Khoa,	-0.47712123
-3.301509	Tâm,	-0.64345264
-4.0886354	Tuy,	-0.30103
-3.9844797	Lôi,	-0.30103
-3.872619	Khai,	-0.44715804
-3.206743	Định,	-0.65757734
-3.6469958	Trì,	-0.3521825
-3.2758095	Động,	-0.8016324
-3.2515464	Kim,	-0.8016324
-4.0886354	Thụ,	-0.30103
-4.395969	Bát,	-0.30103
-2.662734	Phú,	-1.1139433
-3.1661325	Chính,	-0.7447275
-2.8499017	Bắc,	-0.85733247
-2.2724168	Sơn,	-1.4454312
-3.9844797	Trí,	-0.30103
-3.2285671	Kỳ,	-0.7781512
-3.9844797	Giã,	-0.42596874
-2.7970924	Minh,	-0.98097676
-2.7008524	Tiến,	-1.2388821
-2.8499017	Ninh,	-0.9864272
-3.422898	Dân,	-0.6320232
-4.395969	Dược,	-0.30103
-2.662734	Long,	-1.1555696
-4.0886354	Lũ,	-0.30103
-3.0786438	Cường,	-0.9330532
-3.872619	Lỗ,	-0.5228787
-3.783749	Thu,	-0.47712123
-3.7100117	Anh,	-0.42596874
-4.0886354	Nộn,	-0.30103
-3.1115558	Hồng,	-0.7923917
-2.8789272	Khê,	-0.8325089
-4.0886354	Nỗ,	-0.30103
-3.6469958	Nội,	-0.50514996
-3.2758095	Hùng,	-0.69897
-3.5919755	Chung,	-0.5563025
-3.5431483	Tú,	-0.74036264
-4.395969	Mạch,	-0.30103
-3.1661325	Ngọc,	-0.8361432
-4.395969	Loa,	-0.30103
-4.395969	Bối,	-0.30103
-3.872619	Canh,	-0.38021123
-3.048051	Hội,	-0.9661417
-3.422898	Viên,	-0.66900676
-4.395969	Thường,	-0.30103
-2.8994148	Hiệp,	-0.9194804
-3.048051	Xuyên,	-0.8239087
-4.395969	Đổng,	-0.30103
-4.395969	Mầu,	-0.30103
-3.9844797	Chi,	-0.39794
-4.1355405	Bi,	-0.30103
-4.0886354	Thị,	-0.30103
-3.9844797	Quỳ,	-0.42596874
-4.395969	Dư,	-0.30103
-4.395969	Tốn,	-0.30103
-4.0886354	Kỵ,	-0.30103
-4.0886354	Tràng,	-0.30103
-4.0886354	Lan,	-0.30103
-2.8315756	Đức,	-0.8834944
-3.9844797	Diễn,	-0.30103
-3.5919755	Liêm,	-0.45593196
-3.0786438	Phương,	-0.75099903
-3.301509	1,	-0.5563025
-3.3288255	2,	-0.5772364
-3.9844797	Mỗ,	-0.30103
-3.1115558	Văn,	-0.86033803
-4.395969	Điển,	-0.30103
-3.7100117	Triều,	-0.42596874
-3.9844797	Oai,	-0.30103
-2.7426412	Mỹ,	-0.9890046
-3.9844797	Quỳnh,	-0.42596874
-4.0886354	Hồi,	-0.30103
-4.395969	áng,	-0.30103
-3.3579762	Cát,	-0.5228787
-3.783749	Mạc,	-0.36797678
-4.1355405	Ngạc,	-0.30103
-2.7970924	Thắng,	-1.146128
-4.0886354	Tựu,	-0.30103
-4.395969	Đỉnh,	-0.30103
-3.872619	Tảo,	-0.30103
-2.840642	Thịnh,	-1.0871502
-3.7100117	Đà,	-0.44715804
-3.0630782	Lập,	-0.8159398
-2.7888832	Yên,	-1.0984864
-3.872619	Phan,	-0.5228787
-2.7500143	Phong,	-1.0791812
-3.422898	Việt,	-0.845098
-4.395969	Trãi,	-0.30103
-3.7100117	Lao,	-0.54406804
-3.872619	Quán,	-0.44715804
-4.395969	Kiêu,	-0.30103
-3.6469958	Cầu,	-0.38818017
-2.8994148	Nghĩa,	-0.9223951
-4.1355405	Lãm,	-0.30103
-2.7970924	Tây,	-0.9378521
-3.9844797	Quyền,	-0.36797678
-2.6813753	Lộc,	-1.1091444
-4.395969	Khanh,	-0.30103
-4.395969	Trầm,	-0.30103
-4.0886354	Vì,	-0.30103
-3.0630782	Vân,	-0.8893017
-2.7426412	Châu,	-1.0413927
-2.5900936	Hòa,	-1.19382
-3.005859	Thái,	-0.98741084
-3.9844797	Lại,	-0.30103
-4.0886354	Bạt,	-0.30103
-3.2515464	Lĩnh,	-0.7201593
-4.0886354	Trại,	-0.30103
-2.9926589	Thọ,	-0.86530143
-3.783749	Cốc,	-0.47712123
-3.4594028	Môn,	-0.56987536
-4.395969	Thuấn,	-0.30103
-2.840642	Thuận,	-0.96523786
-3.872619	Phùng,	-0.44715804
-3.6469958	Phượng,	-0.6532125
-4.0886354	Tháp,	-0.30103
-4.0886354	Trôi,	-0.30103
-3.7100117	Liễu,	-0.44715804
-2.967405	Trạch,	-1.0357156
-3.7100117	Quế,	-0.54406804
-3.9844797	Côn,	-0.42596874
-3.9844797	Phù,	-0.30103
-4.0886354	Cách,	-0.30103
-4.395969	Liệp,	-0.30103
-4.395969	Tuyết,	-0.30103
-4.395969	Thán,	-0.30103
-3.1859632	Hương,	-0.72699875
-2.5414662	Thành,	-1.2253093
-4.0886354	Mãn,	-0.30103
-3.5919755	Hữu,	-0.60206
-3.389225	Thạch,	-0.72699875
-4.395969	Thất,	-0.30103
-2.6221185	Bình,	-1.2141813
-4.395969	Ngải,	-0.30103
-4.0886354	Nậu,	-0.30103
-3.872619	Kiệm,	-0.5228787
-3.3579762	Bằng,	-0.69897
-4.0886354	Xã,	-0.30103
-4.0886354	Trúc,	-0.30103
-3.4594028	Tiên,	-0.5118834
-2.9798484	Điền,	-0.90309
-4.1355405	Diệu,	-0.30103
-4.0886354	Bị,	-0.30103
-4.0886354	Vực,	-0.30103
-3.048051	Lạc,	-0.8239087
-3.5431483	Cao,	-0.69897
-4.395969	Thùy,	-0.30103
-4.1355405	Thư,	-0.30103
-4.395969	Ước,	-0.30103
-3.6469958	Tín,	-0.5563025
-4.395969	Nhiên,	-0.30103
-3.6469958	Nhất,	-0.38818017
-3.9844797	Hiệu,	-0.39794
-4.0886354	Điểm,	-0.30103
-4.0886354	Dực,	-0.30103
-3.9844797	Túc,	-0.42596874
-3.49926	Hoàng,	-0.74036264
-4.1355405	Từ,	-0.30103
-2.8499017	Thủy,	-0.90309
-3.422898	Lãng,	-0.66900676
-3.9844797	Can,	-0.42596874
-4.0886354	Lộng,	-0.30103
-3.5919755	Đường,	-0.5228787
-3.5919755	Lưu,	-0.60206
-3.3288255	Lai,	-0.8325089
-4.0886354	Tế,	-0.30103
-3.9844797	Độ,	-0.30103
-3.2285671	Thiện,	-0.70851535
-3.9844797	Bảng,	-0.30103
-4.0886354	Cú,	-0.30103
-4.395969	Lé,	-0.30103
-4.395969	Táo,	-0.30103
-3.9844797	Là,	-0.42596874
-4.0886354	Tủng,	-0.30103
-3.5919755	Phìn,	-0.69897
-4.1355405	Lủng,	-0.30103
-4.395969	Cáo,	-0.30103
-4.1355405	Thầu,	-0.30103
-3.49926	Chải,	-0.71600336
-4.395969	Trái,	-0.30103
-4.395969	Vạc,	-0.30103
-4.1355405	Cái,	-0.30103
-4.1355405	Vi,	-0.30103
-3.49926	Trà,	-0.6368221
-4.395969	Máng,	-0.30103
-3.9844797	Vĩ,	-0.42596874
-4.395969	Pù,	-0.30103
-3.9844797	Chinh,	-0.30103
-4.1355405	Ngà,	-0.30103
-3.9844797	Ban,	-0.42596874
-4.0886354	Vai,	-0.30103
-3.9844797	Tòng,	-0.42596874
-4.0886354	Mố,	-0.30103
-3.783749	Lũng,	-0.54406804
-4.395969	Tráng,	-0.30103
-4.395969	Đích,	-0.30103
-4.395969	Thài,	-0.30103
-3.0786438	Vinh,	-0.7647873
-4.1355405	Duệ,	-0.30103
-4.395969	Già,	-0.30103
-4.0886354	Bạ,	-0.30103
-4.0886354	Tỷ,	-0.30103
-4.395969	Pờ,	-0.30103
-4.0886354	Vài,	-0.30103
-4.395969	Tám,	-0.30103
-4.0886354	Ván,	-0.30103
-3.7100117	Bá,	-0.44715804
-4.0886354	Ngần,	-0.30103
-4.395969	Mê,	-0.30103
-3.3288255	Nông,	-0.75332767
-4.0886354	Âm,	-0.30103
-3.49926	Luông,	-0.86530143
-4.395969	Phì,	-0.30103
-4.395969	Máy,	-0.30103
-4.395969	Lồ,	-0.30103
-4.0886354	Sán,	-0.30103
-3.783749	Phố,	-0.60206
-3.9844797	Đôn,	-0.30103
-4.1355405	Ngài,	-0.30103
-4.395969	Luốc,	-0.30103
-4.395969	Nhùng,	-0.30103
-4.395969	Choóng,	-0.30103
-4.395969	Tỵ,	-0.30103
-3.1661325	Nguyên,	-0.7447275
-4.395969	Khòa,	-0.30103
-4.395969	Pài,	-0.30103
-4.395969	Mần,	-0.30103
-4.395969	Xỉn,	-0.30103
-4.395969	Díu,	-0.30103
-4.395969	Cà,	-0.30103
-4.395969	Phàng,	-0.30103
-4.395969	Sủ,	-0.30103
-4.395969	Rế,	-0.30103
-4.395969	Tà,	-0.30103
-3.9844797	Ma,	-0.42596874
-4.395969	Nhìu,	-0.30103
-4.395969	Ngò,	-0.30103
-4.395969	Dẩn,	-0.30103
-4.395969	Chì,	-0.30103
-4.0886354	Lùng,	-0.30103
-4.395969	Sản,	-0.30103
-4.395969	Điếm,	-0.30103
-3.783749	Kiều,	-0.47712123
-3.9844797	Hảo,	-0.30103
-4.0886354	Rịa,	-0.30103
-4.395969	Trịnh,	-0.30103
-3.49926	Lang,	-0.64345264
-3.5431483	Khương,	-0.56427145
-4.0886354	Hiến,	-0.30103
-4.0886354	Thám,	-0.30103
-4.395969	Miầu,	-0.30103
-3.783749	Hạnh,	-0.44715804
-4.395969	Bôn,	-0.30103
-3.5919755	Ân,	-0.5563025
-4.1355405	Học,	-0.30103
-4.1355405	Thổ,	-0.30103
-4.395969	Pàng,	-0.30103
-3.5431483	Ba,	-0.64345264
-3.783749	Toàn,	-0.36797678
-3.1859632	Trường,	-0.81291336
-3.49926	Trị,	-0.60206
-4.0886354	Cúc,	-0.30103
-3.6469958	Giáp,	-0.72699875
-3.783749	Lộ,	-0.3467875
-3.7100117	Quảng,	-0.44715804
-3.5431483	Thông,	-0.5228787
-4.0886354	Nặm,	-0.30103
-3.872619	Thôn,	-0.5228787
-4.395969	Cọt,	-0.30103
-4.1355405	Sỹ,	-0.30103
-3.9844797	Quân,	-0.42596874
-3.9844797	Hán,	-0.30103
-4.395969	Nậm,	-0.30103
-3.5919755	Thuỷ,	-0.39794
-3.872619	Viễn,	-0.47712123
-3.5431483	Hiếu,	-0.45593196
-4.1355405	Thăng,	-0.30103
-3.9844797	Quốc,	-0.30103
-3.872619	Loan,	-0.5228787
-4.1355405	Nhật,	-0.30103
-3.49926	Quý,	-0.42596874
-4.395969	Ngân,	-0.30103
-4.395969	Toản,	-0.30103
-3.872619	Uyên,	-0.44715804
-2.6750722	Hải,	-1.065393
-4.0886354	Bộ,	-0.30103
-4.1355405	Sen,	-0.30103
-4.395969	Thảo,	-0.30103
-4.0886354	Do,	-0.30103
-3.872619	Đàn,	-0.44715804
-4.1355405	Hai,	-0.30103
-4.395969	Chủ,	-0.30103
-4.1355405	Tuấn,	-0.30103
-4.1355405	Lão,	-0.30103
-4.0886354	Tung,	-0.30103
-4.1355405	Huệ,	-0.30103
-3.9844797	Dục,	-0.30103
-3.872619	Vượng,	-0.30103
-4.0886354	Trình,	-0.30103
-4.0886354	Trọng,	-0.30103
-4.395969	Con,	-0.30103
-4.395969	Kạn,	-0.30103
-3.5919755	Kiên,	-0.56427145
-4.395969	Tụng,	-0.30103
-2.8994148	Hóa,	-1.0280287
-4.0886354	Bố,	-0.30103
-4.395969	Rã,	-0.30103
-4.395969	Bể,	-0.30103
-4.0886354	Mẫu,	-0.30103
-3.783749	Giáo,	-0.36797678
-4.395969	Trĩ,	-0.30103
-4.395969	Phặc,	-0.30103
-3.9844797	Đán,	-0.30103
-3.7100117	Tùng,	-0.66900676
-4.1355405	Lực,	-0.30103
-4.1355405	Mang,	-0.30103
-4.0886354	Muộn,	-0.30103
-3.872619	Giàng,	-0.47712123
-3.9844797	Đồn,	-0.30103
-3.9844797	Thi,	-0.30103
-4.1355405	Phái,	-0.30103
-4.395969	Sảo,	-0.30103
-4.395969	Tá,	-0.30103
-4.1355405	Mới,	-0.30103
-4.0886354	Vận,	-0.30103
-4.395969	Lạp,	-0.30103
-4.0886354	Mục,	-0.30103
-3.783749	Cư,	-0.42596874
-4.395969	Hân,	-0.30103
-4.395969	Cố,	-0.30103
-3.872619	Chu,	-0.5228787
-3.6469958	Vũ,	-0.72699875
-4.395969	Rì,	-0.30103
-4.0886354	Hỷ,	-0.30103
-3.5919755	Lư,	-0.60206
-3.2285671	Lễ,	-1
-3.9844797	Thiết,	-0.30103
-3.6469958	Khang,	-0.60206
-3.5431483	Tường,	-0.56987536
-4.0886354	Hang,	-0.30103
-4.395969	Lôn,	-0.30103
-4.0886354	Tinh,	-0.30103
-4.395969	Khả,	-0.30103
-4.0886354	Tương,	-0.30103
-3.783749	Đài,	-0.44715804
-3.033527	Lý,	-0.86530143
-3.783749	Xa,	-0.60206
-4.1355405	Quận,	-0.30103
-4.395969	Viện,	-0.30103
-4.395969	Trào,	-0.30103
-4.395969	Ấm,	-0.30103
-4.395969	Ứng,	-0.30103
-4.1355405	Kế,	-0.30103
-3.783749	Sinh,	-0.44715804
-4.1355405	Cai,	-0.30103
-4.395969	Lếu,	-0.30103
-4.395969	Lệnh,	-0.30103
-3.9844797	Tăng,	-0.30103
-4.395969	Tuyển,	-0.30103
-4.395969	Phời,	-0.30103
-3.6469958	San,	-0.50514996
-4.395969	Xát,	-0.30103
-4.1355405	Sung,	-0.30103
-4.395969	Chạc,	-0.30103
-4.395969	Lù,	-0.30103
-4.395969	Tý,	-0.30103
-4.0886354	Mỳ,	-0.30103
-4.1355405	Sáng,	-0.30103
-4.395969	Vược,	-0.30103
-4.395969	Sáo,	-0.30103
-4.395969	Qua,	-0.30103
-3.6469958	Thàng,	-0.60206
-4.395969	Xèo,	-0.30103
-4.395969	Hum,	-0.30103
-4.395969	Cheo,	-0.30103
-4.395969	Pung,	-0.30103
-4.395969	Ngan,	-0.30103
-4.395969	Sành,	-0.30103
-4.395969	Chồ,	-0.30103
-4.395969	Chin,	-0.30103
-4.395969	Khâu,	-0.30103
-4.395969	Chảy,	-0.30103
-4.0886354	Nhin,	-0.30103
-3.872619	Lầu,	-0.5228787
-4.0886354	Tẩn,	-0.30103
-4.395969	Mế,	-0.30103
-4.0886354	Thẩn,	-0.30103
-4.395969	Cấu,	-0.30103
-4.395969	Chéng,	-0.30103
-4.395969	Xín,	-0.30103
-4.395969	Cải,	-0.30103
-3.9844797	Phình,	-0.42596874
-4.395969	Chư,	-0.30103
-4.395969	Liền,	-0.30103
-4.0886354	Hối,	-0.30103
-3.9844797	Ly,	-0.42596874
-3.9844797	Mòn,	-0.42596874
-4.395969	Đét,	-0.30103
-4.1355405	Nhai,	-0.30103
-4.395969	Lúc,	-0.30103
-4.0886354	Lu,	-0.30103
-4.395969	Loỏng,	-0.30103
-4.395969	Phiệt,	-0.30103
-4.1355405	Cầm,	-0.30103
-4.0886354	Niên,	-0.30103
-3.6469958	Giao,	-0.60206
-4.1355405	Nhuận,	-0.30103
-4.395969	Ràng,	-0.30103
-4.395969	Cọn,	-0.30103
-3.9844797	Pa,	-0.38021123
-4.395969	Pả,	-0.30103
-4.0886354	Păng,	-0.30103
-4.0886354	Rồng,	-0.30103
-4.0886354	Mây,	-0.30103
-4.395969	Van,	-0.30103
-3.9844797	Bo,	-0.30103
-4.395969	Mả,	-0.30103
-4.395969	Rạng,	-0.30103
-4.395969	Chầy,	-0.30103
-4.395969	Xé,	-0.30103
-4.395969	Ken,	-0.30103
-4.395969	Tha,	-0.30103
-4.395969	Xây,	-0.30103
-4.0886354	Bua,	-0.30103
-4.0886354	Phủ,	-0.30103
-4.1355405	Lam,	-0.30103
-4.0886354	Tấu,	-0.30103
-4.0886354	Nhạn,	-0.30103
-4.395969	Phăng,	-0.30103
-4.0886354	Khoang,	-0.30103
-4.1355405	Lay,	-0.30103
-3.5919755	Nưa,	-0.6532125
-4.395969	Nhé,	-0.30103
-4.395969	Sìn,	-0.30103
-4.0886354	Kè,	-0.30103
-4.0886354	Toong,	-0.30103
-4.395969	Lếnh,	-0.30103
-4.0886354	Chà,	-0.30103
-4.0886354	Tổng,	-0.30103
-4.395969	Mí,	-0.30103
-4.395969	Ham,	-0.30103
-4.395969	Nèn,	-0.30103
-4.0886354	Lèng,	-0.30103
-4.0886354	Lông,	-0.30103
-3.783749	Sang,	-0.60206
-4.395969	Mươn,	-0.30103
-4.0886354	Chùa,	-0.30103
-4.395969	Só,	-0.30103
-4.395969	Nhè,	-0.30103
-4.395969	Đun,	-0.30103
-4.395969	Báng,	-0.30103
-4.395969	Mùn,	-0.30103
-4.395969	Xi,	-0.30103
-4.395969	Nhung,	-0.30103
-4.395969	Thín,	-0.30103
-4.0886354	Tình,	-0.30103
-4.395969	Sáy,	-0.30103
-4.395969	Khong,	-0.30103
-3.6469958	Cang,	-0.72699875
-3.9844797	Tở,	-0.42596874
-4.395969	Phông,	-0.30103
-4.395969	Pồn,	-0.30103
-3.5431483	Xương,	-0.47712123
-4.0886354	Chăn,	-0.30103
-4.0886354	Thơm,	-0.30103
-4.395969	Luống,	-0.30103
-4.395969	Hẹt,	-0.30103
-4.395969	Mứn,	-0.30103
-4.0886354	Lót,	-0.30103
-4.395969	Ngam,	-0.30103
-4.395969	Muông,	-0.30103
-4.395969	Ư,	-0.30103
-4.395969	Nhà,	-0.30103
-4.0886354	Tông,	-0.30103
-4.395969	Lói,	-0.30103
-4.395969	Son,	-0.30103
-4.0886354	Nhừ,	-0.30103
-4.0886354	Sơ,	-0.30103
-4.0886354	Luân,	-0.30103
-4.0886354	Nhi,	-0.30103
-4.395969	U,	-0.30103
-4.1355405	Dung,	-0.30103
-4.395969	Lôm,	-0.30103
-4.1355405	Giới,	-0.30103
-4.395969	Dình,	-0.30103
-4.0886354	Lìa,	-0.30103
-4.395969	Ảng,	-0.30103
-3.7100117	Đăng,	-0.54406804
-4.395969	Cáy,	-0.30103
-4.1355405	Lịch,	-0.30103
-3.9844797	Lạn,	-0.42596874
-4.395969	Tin,	-0.30103
-4.395969	Pồ,	-0.30103
-4.395969	Tần,	-0.30103
-4.1355405	Sa,	-0.30103
-4.395969	Hỳ,	-0.30103
-4.395969	Bủng,	-0.30103
-4.395969	Chua,	-0.30103
-4.395969	Khăn,	-0.30103
-4.0886354	Kết,	-0.30103
-4.395969	Phài,	-0.30103
-4.1355405	Sin,	-0.30103
-3.9844797	Nàng,	-0.42596874
-4.395969	Hon,	-0.30103
-4.0886354	Tăm,	-0.30103
-4.395969	Há,	-0.30103
-4.0886354	Tè,	-0.30103
-4.395969	Lũm,	-0.30103
-3.49926	Lăng,	-0.60206
-4.395969	ủ,	-0.30103
-4.1355405	Sử,	-0.30103
-4.1355405	Cả,	-0.30103
-4.395969	Khao,	-0.30103
-4.395969	Lin,	-0.30103
-4.395969	Quai,	-0.30103
-4.395969	Ngảo,	-0.30103
-4.395969	Cáp,	-0.30103
-4.395969	Cha,	-0.30103
-4.395969	Khoá,	-0.30103
-3.872619	Mô,	-0.39794
-4.395969	Hẻo,	-0.30103
-4.0886354	Mạ,	-0.30103
-4.395969	Co,	-0.30103
-4.395969	Cuổi,	-0.30103
-4.395969	Hăn,	-0.30103
-4.395969	Lìn,	-0.30103
-4.0886354	Pho,	-0.30103
-4.395969	Thèn,	-0.30103
-4.1355405	Lào,	-0.30103
-4.395969	Xe,	-0.30103
-4.0886354	So,	-0.30103
-3.9844797	Than,	-0.42596874
-3.9844797	Mít,	-0.42596874
-4.395969	Mu,	-0.30103
-4.395969	Nà,	-0.30103
-4.395969	Hừa,	-0.30103
-4.1355405	Mung,	-0.30103
-3.5919755	Gia,	-0.69897
-4.0886354	On,	-0.30103
-4.395969	Thuộc,	-0.30103
-3.783749	Cần,	-0.54406804
-4.395969	Sỏ,	-0.30103
-4.0886354	Ta,	-0.30103
-4.395969	Nhùn,	-0.30103
-4.395969	Bun,	-0.30103
-4.395969	Manh,	-0.30103
-4.1355405	Hàng,	-0.30103
-4.395969	Đao,	-0.30103
-4.395969	Pì,	-0.30103
-4.395969	Lề,	-0.30103
-4.0886354	Cọ,	-0.30103
-4.0886354	Đen,	-0.30103
-4.395969	Xôm,	-0.30103
-4.0886354	Cơi,	-0.30103
-4.0886354	Chiên,	-0.30103
-4.395969	Khay,	-0.30103
-4.0886354	Giôn,	-0.30103
-4.395969	Khinh,	-0.30103
-4.395969	Ơn,	-0.30103
-4.0886354	Sại,	-0.30103
-4.395969	ét,	-0.30103
-4.0886354	Lái,	-0.30103
-4.395969	é,	-0.30103
-4.1355405	Pha,	-0.30103
-4.395969	Ngàm,	-0.30103
-4.395969	Khiêng,	-0.30103
-4.395969	Bám,	-0.30103
-4.395969	Hẹ,	-0.30103
-4.395969	Bôm,	-0.30103
-4.0886354	Lạnh,	-0.30103
-4.1355405	Mười,	-0.30103
-4.0886354	Tra,	-0.30103
-4.395969	Pấc,	-0.30103
-4.395969	Phặng,	-0.30103
-4.0886354	Nọi,	-0.30103
-4.1355405	Lầm,	-0.30103
-4.395969	Ong,	-0.30103
-4.1355405	Trai,	-0.30103
-3.872619	Chiến,	-0.39794
-4.395969	Păm,	-0.30103
-4.395969	Muôn,	-0.30103
-4.0886354	Bú,	-0.30103
-4.395969	Chùm,	-0.30103
-4.395969	Chú,	-0.30103
-4.1355405	Vàng,	-0.30103
-4.395969	Xùa,	-0.30103
-4.395969	Chếu,	-0.30103
-4.395969	Vàn,	-0.30103
-4.395969	Pe,	-0.30103
-4.395969	Tọ,	-0.30103
-4.395969	Thải,	-0.30103
-4.1355405	Huy,	-0.30103
-4.395969	Bau,	-0.30103
-4.0886354	Bon,	-0.30103
-4.1355405	Bang,	-0.30103
-3.9844797	Đỏ,	-0.30103
-3.2515464	Hợp,	-0.90309
-4.0886354	Hướng,	-0.30103
-4.395969	Mường,	-0.30103
-4.395969	Hắc,	-0.30103
-4.395969	Khừa,	-0.30103
-4.0886354	Sập,	-0.30103
-4.395969	Vạt,	-0.30103
-4.0886354	Sàng,	-0.30103
-4.0886354	Pằn,	-0.30103
-4.395969	Lán,	-0.30103
-4.395969	Hặc,	-0.30103
-4.395969	Lựm,	-0.30103
-4.395969	Khoi,	-0.30103
-3.9844797	Nang,	-0.42596874
-4.395969	Phiêng,	-0.30103
-4.395969	Khoài,	-0.30103
-4.0886354	Chanh,	-0.30103
-4.395969	Pó,	-0.30103
-4.395969	Nòi,	-0.30103
-4.395969	Nơi,	-0.30103
-4.395969	Cằm,	-0.30103
-4.0886354	Dong,	-0.30103
-4.395969	Kheo,	-0.30103
-4.395969	Ve,	-0.30103
-4.395969	Ơt,	-0.30103
-4.395969	Hộc,	-0.30103
-4.395969	Pẩu,	-0.30103
-4.395969	Phung,	-0.30103
-4.395969	En,	-0.30103
-4.0886354	Ty,	-0.30103
-4.395969	Nghịu,	-0.30103
-4.395969	Mằn,	-0.30103
-4.395969	Khoong,	-0.30103
-4.1355405	Một,	-0.30103
-4.395969	Sai,	-0.30103
-4.0886354	Hung,	-0.30103
-4.1355405	Kha,	-0.30103
-4.395969	Cộp,	-0.30103
-4.395969	Bánh,	-0.30103
-4.395969	Lèo,	-0.30103
-4.395969	Và,	-0.30103
-3.872619	Bàng,	-0.30103
-4.395969	Khủa,	-0.30103
-4.395969	Múa,	-0.30103
-4.0886354	Men,	-0.30103
-3.872619	Nha,	-0.5228787
-3.872619	Bái,	-0.39794
-3.6469958	Bảo,	-0.49732465
-3.5919755	Lâu,	-0.47712123
-4.1355405	Phiên,	-0.30103
-4.395969	Trạng,	-0.30103
-4.395969	Thia,	-0.30103
-2.9553082	A,	-0.7998705
-3.783749	Nham,	-0.47712123
-4.0886354	Thế,	-0.30103
-4.0886354	Chuẩn,	-0.30103
-3.9844797	Mậu,	-0.30103
-4.395969	Thíp,	-0.30103
-4.1355405	Cuông,	-0.30103
-4.395969	Tầm,	-0.30103
-4.395969	Phác,	-0.30103
-3.872619	Ái,	-0.39794
-4.395969	Hẩu,	-0.30103
-4.395969	Bốn,	-0.30103
-4.395969	Có,	-0.30103
-4.395969	Dề,	-0.30103
-4.395969	Phạ,	-0.30103
-4.0886354	Tạo,	-0.30103
-4.395969	Khắt,	-0.30103
-4.0886354	Đáp,	-0.30103
-4.1355405	Mông,	-0.30103
-4.0886354	Ca,	-0.30103
-4.395969	Lau,	-0.30103
-4.1355405	Láng,	-0.30103
-4.0886354	Hu,	-0.30103
-3.872619	Nhì,	-0.30103
-4.395969	Mù,	-0.30103
-4.395969	Lìu,	-0.30103
-3.9844797	Chấn,	-0.30103
-3.872619	Lệ,	-0.30103
-4.395969	Búng,	-0.30103
-4.395969	Lành,	-0.30103
-4.395969	Bu,	-0.30103
-4.1355405	Bà,	-0.30103
-4.1355405	Nghị,	-0.30103
-4.395969	Nghê,	-0.30103
-4.395969	Đắt,	-0.30103
-4.395969	Chiềng,	-0.30103
-4.0886354	Pheo,	-0.30103
-4.395969	Chum,	-0.30103
-4.0886354	Ruộng,	-0.30103
-4.395969	Bôi,	-0.30103
-4.395969	Báy,	-0.30103
-4.395969	Dăm,	-0.30103
-4.1355405	Nai,	-0.30103
-4.1355405	Nê,	-0.30103
-4.0886354	Cò,	-0.30103
-4.0886354	Kia,	-0.30103
-4.395969	Đậu,	-0.30103
-4.395969	Phòn,	-0.30103
-4.395969	Khóe,	-0.30103
-4.395969	Hịch,	-0.30103
-4.1355405	Bản,	-0.30103
-4.0886354	Đồi,	-0.30103
-4.395969	Hẻm,	-0.30103
-4.1355405	Nhượng,	-0.30103
-3.872619	Nghiệp,	-0.38021123
-4.395969	Trạm,	-0.30103
-4.1355405	Dụ,	-0.30103
-4.1355405	Bồng,	-0.30103
-4.0886354	Duyên,	-0.30103
-3.872619	Vương,	-0.30103
-4.0886354	Giá,	-0.30103
-4.395969	Trìu,	-0.30103
-3.6469958	Cương,	-0.42596874
-3.6469958	Cẩm,	-0.50514996
-3.9844797	Ngạn,	-0.30103
-4.395969	Bẩm,	-0.30103
-4.395969	Chè,	-0.30103
-4.0886354	Đan,	-0.30103
-4.0886354	Vỹ,	-0.30103
-4.395969	Mặc,	-0.30103
-4.395969	Nhiêu,	-0.30103
-4.0886354	Đu,	-0.30103
-4.0886354	Đổ,	-0.30103
-3.9844797	Đạt,	-0.42596874
-4.0886354	Tranh,	-0.30103
-4.395969	Mễ,	-0.30103
-4.395969	Cau,	-0.30103
-4.395969	Mo,	-0.30103
-3.9844797	Mộc,	-0.39794
-4.1355405	Nung,	-0.30103
-4.0886354	Hiên,	-0.30103
-3.9844797	Mao,	-0.30103
-3.9844797	Ngoại,	-0.30103
-4.1355405	My,	-0.30103
-4.1355405	Kinh,	-0.30103
-4.395969	Thuật,	-0.30103
-4.395969	Sầm,	-0.30103
-4.395969	Tác,	-0.30103
-4.395969	Hoan,	-0.30103
-4.395969	Miễn,	-0.30103
-4.395969	Lòa,	-0.30103
-4.395969	Đạn,	-0.30103
-4.1355405	Yến,	-0.30103
-4.395969	He,	-0.30103
-3.783749	Năng,	-0.44715804
-4.0886354	Các,	-0.30103
-4.0886354	Đoàn,	-0.30103
-4.395969	Đống,	-0.30103
-4.395969	ý,	-0.30103
-4.0886354	Tri,	-0.30103
-4.395969	Mỏ,	-0.30103
-3.872619	Sao,	-0.47712123
-4.395969	Tịch,	-0.30103
-4.395969	Khoái,	-0.30103
-4.395969	Mịch,	-0.30103
-4.395969	Bục,	-0.30103
-4.395969	Đoạn,	-0.30103
-3.9844797	Lân,	-0.42596874
-4.0886354	Bác,	-0.30103
-4.395969	Khẩu,	-0.30103
-4.395969	Xanh,	-0.30103
-4.395969	Đáy,	-0.30103
-4.0886354	Tu,	-0.30103
-4.395969	Cháy,	-0.30103
-4.395969	Cổ,	-0.30103
-4.395969	Thực,	-0.30103
-4.395969	Phả,	-0.30103
-4.0886354	Ông,	-0.30103
-3.872619	Hanh,	-0.30103
-4.395969	Danh,	-0.30103
-4.395969	Bí,	-0.30103
-4.1355405	Liêu,	-0.30103
-4.395969	Ngại,	-0.30103
-4.395969	Hồn,	-0.30103
-4.395969	Ngũ,	-0.30103
-4.1355405	Lạng,	-0.30103
-4.395969	Rui,	-0.30103
-4.395969	Chẽ,	-0.30103
-4.395969	Đạc,	-0.30103
-4.395969	Vừng,	-0.30103
-4.395969	Khoai,	-0.30103
-3.7100117	Tô,	-0.47712123
-4.395969	Hãn,	-0.30103
-4.0886354	Hưu,	-0.30103
-4.0886354	Sỏi,	-0.30103
-4.395969	Cốt,	-0.30103
-4.395969	Vôi,	-0.30103
-4.0886354	Lục,	-0.30103
-4.395969	Kép,	-0.30103
-4.395969	Dĩnh,	-0.30103
-4.0886354	Ngô,	-0.30103
-4.0886354	Dị,	-0.30103
-4.1355405	Điện,	-0.30103
-4.395969	Chũ,	-0.30103
-4.1355405	Hựu,	-0.30103
-3.9844797	Tử,	-0.42596874
-4.0886354	Luận,	-0.30103
-4.395969	Biền,	-0.30103
-3.4594028	Dũng,	-0.54406804
-4.0886354	Hộ,	-0.30103
-3.9844797	Gián,	-0.30103
-4.395969	Mại,	-0.30103
-4.395969	Nếnh,	-0.30103
-3.7100117	Cơ,	-0.36797678
-3.5919755	Trang,	-0.5228787
-4.0886354	Hạc,	-0.30103
-4.395969	Gót,	-0.30103
-4.0886354	Lô,	-0.30103
-3.9844797	Lung,	-0.30103
-4.395969	Doãn,	-0.30103
-4.0886354	Đám,	-0.30103
-4.0886354	Kiện,	-0.30103
-4.395969	Mộng,	-0.30103
-4.0886354	Phạm,	-0.30103
-4.395969	Xạ,	-0.30103
-4.395969	Áng,	-0.30103
-4.395969	Luật,	-0.30103
-4.0886354	Côi,	-0.30103
-4.1355405	Chân,	-0.30103
-4.395969	Cù,	-0.30103
-4.395969	Thản,	-0.30103
-4.395969	Bán,	-0.30103
-4.395969	Dẫn,	-0.30103
-3.872619	Tập,	-0.39794
-4.0886354	Khúc,	-0.30103
-4.395969	Dưỡng,	-0.30103
-4.395969	Hoá,	-0.30103
-4.0886354	Húc,	-0.30103
-4.0886354	Thao,	-0.30103
-4.0886354	Quả,	-0.30103
-4.395969	Luyện,	-0.30103
-4.395969	Khoán,	-0.30103
-3.9844797	Cửu,	-0.30103
-4.0886354	Nhuệ,	-0.30103
-4.1355405	Kiệt,	-0.30103
-4.0886354	Trù,	-0.30103
-4.395969	Trắc,	-0.30103
-4.395969	Nhị,	-0.30103
-4.395969	Viêm,	-0.30103
-4.395969	Trục,	-0.30103
-4.395969	Giản,	-0.30103
-4.0886354	Ích,	-0.30103
-4.395969	Lữ,	-0.30103
-3.9844797	Tĩnh,	-0.30103
-4.395969	Đảo,	-0.30103
-3.5431483	Đại,	-0.49732465
-4.395969	Tang,	-0.30103
-4.395969	Di,	-0.30103
-4.0886354	Lựu,	-0.30103
-4.395969	Khoan,	-0.30103
-4.0886354	Niệm,	-0.30103
-4.395969	Chờ,	-0.30103
-4.395969	Thống,	-0.30103
-4.395969	Giả,	-0.30103
-4.395969	Lim,	-0.30103
-4.395969	Bão,	-0.30103
-4.1355405	Vệ,	-0.30103
-4.395969	Tích,	-0.30103
-3.9844797	Ngàn,	-0.30103
-4.395969	Chẩn,	-0.30103
-4.395969	Ngâm,	-0.30103
-4.395969	Cứu,	-0.30103
-4.395969	Thứa,	-0.30103
-3.7100117	Tài,	-0.42596874
-3.783749	Kênh,	-0.38021123
-4.395969	Hàn,	-0.30103
-4.0886354	Khôi,	-0.30103
-4.395969	Tắm,	-0.30103
-4.0886354	Sách,	-0.30103
-4.395969	Thứ,	-0.30103
-4.0886354	Vu,	-0.30103
-4.395969	Đính,	-0.30103
-4.0886354	Chế,	-0.30103
-4.395969	Lỗi,	-0.30103
-4.1355405	Đoài,	-0.30103
-4.395969	Sặt,	-0.30103
-4.0886354	Kháng,	-0.30103
-4.395969	Bì,	-0.30103
-4.0886354	Trấn,	-0.30103
-4.1355405	Phục,	-0.30103
-4.395969	Khải,	-0.30103
-4.1355405	Tố,	-0.30103
-4.395969	Hoè,	-0.30103
-4.395969	Miện,	-0.30103
-4.395969	Toan,	-0.30103
-3.9844797	Dầu,	-0.30103
-4.395969	Chuối,	-0.30103
-4.395969	Chai,	-0.30103
-4.1355405	Tơ,	-0.30103
-3.872619	Tre,	-0.30103
-4.0886354	Đất,	-0.30103
-4.395969	Tray,	-0.30103
-4.1355405	Dài,	-0.30103
-4.395969	Trữ,	-0.30103
-4.395969	Ngọ,	-0.30103
-4.395969	Đẩu,	-0.30103
-4.395969	Liễn,	-0.30103
-4.395969	Đèo,	-0.30103
-4.395969	Đối,	-0.30103
-4.395969	Thuỵ,	-0.30103
-4.395969	Đoan,	-0.30103
-4.0886354	Am,	-0.30103
-3.9844797	Hiền,	-0.42596874
-3.872619	Hào,	-0.39794
-3.872619	Chiểu,	-0.30103
-4.395969	Dù,	-0.30103
-4.1355405	Trụ,	-0.30103
-4.0886354	Sam,	-0.30103
-4.395969	Ủng,	-0.30103
-4.395969	Sậy,	-0.30103
-4.395969	Phiến,	-0.30103
-4.0886354	Cừ,	-0.30103
-4.0886354	Trân,	-0.30103
-4.395969	Ấp,	-0.30103
-3.872619	Quí,	-0.39794
-4.1355405	Á,	-0.30103
-3.9844797	Tuyền,	-0.30103
-4.395969	Tiết,	-0.30103
-4.395969	Úy,	-0.30103
-4.0886354	Triệu,	-0.30103
-4.395969	Gôi,	-0.30103
-4.395969	Cồn,	-0.30103
-4.395969	Điệp,	-0.30103
-4.0886354	Me,	-0.30103
-4.0886354	Tôn,	-0.30103
-4.395969	Nhạc,	-0.30103
-4.0886354	Diệm,	-0.30103
-4.395969	Thoi,	-0.30103
-4.395969	Trạo,	-0.30103
-4.0886354	Lát,	-0.30103
-4.0886354	Nghiêm,	-0.30103
-4.395969	Thước,	-0.30103
-4.395969	Niêm,	-0.30103
-3.9844797	Nho,	-0.42596874
-4.395969	Ống,	-0.30103
-4.395969	Mèo,	-0.30103
-4.395969	Mìn,	-0.30103
-3.2758095	Chánh,	-0.64345264
-4.395969	Lặc,	-0.30103
-4.395969	Ấn,	-0.30103
-4.1355405	Tượng,	-0.30103
-4.395969	Toại,	-0.30103
-4.1355405	Diên,	-0.30103
-4.395969	Mọt,	-0.30103
-4.395969	Lẹ,	-0.30103
-4.395969	Duy,	-0.30103
-4.395969	Toán,	-0.30103
-4.0886354	Vịnh,	-0.30103
-4.395969	Trành,	-0.30103
-4.0886354	Nghi,	-0.30103
-4.395969	Cống,	-0.30103
-3.5919755	Vĩnh,	-0.49732465
-4.395969	Bàu,	-0.30103
-4.0886354	Cung,	-0.30103
-4.395969	Lò,	-0.30103
-4.395969	Giải,	-0.30103
-4.395969	Nọc,	-0.30103
-4.395969	Nhoóng,	-0.30103
-4.395969	Bính,	-0.30103
-3.9844797	Nga,	-0.30103
-4.0886354	Hoàn,	-0.30103
-4.395969	Xén,	-0.30103
-4.395969	Mạy,	-0.30103
-4.0886354	Tụ,	-0.30103
-4.395969	Lống,	-0.30103
-4.395969	Loi,	-0.30103
-4.395969	Cắn,	-0.30103
-4.395969	Đánh,	-0.30103
-4.395969	Cạ,	-0.30103
-4.395969	Típ,	-0.30103
-4.395969	Ải,	-0.30103
-4.395969	Ngoi,	-0.30103
-4.395969	Càn,	-0.30103
-4.395969	Khuông,	-0.30103
-3.872619	Na,	-0.39794
-4.395969	Kiền,	-0.30103
-4.395969	Lượng,	-0.30103
-4.395969	Giát,	-0.30103
-3.9844797	Tam,	-0.30103
-4.395969	Đôi,	-0.30103
-4.1355405	Dạ,	-0.30103
-4.1355405	Vạn,	-0.30103
-4.0886354	Kỷ,	-0.30103
-4.1355405	Bích,	-0.30103
-4.395969	Nài,	-0.30103
-4.0886354	Hàm,	-0.30103
-4.395969	Ảnh,	-0.30103
-4.0886354	Phổ,	-0.30103
-4.395969	Đạm,	-0.30103
-4.395969	Nghèn,	-0.30103
-4.395969	Hới,	-0.30103
-4.1355405	Lê,	-0.30103
-4.0886354	Nẫm,	-0.30103
-4.395969	Hàu,	-0.30103
-3.9844797	,	-0.42596874
-4.0886354	4,	-0.30103
-4.0886354	5,	-0.30103
-3.783749	3,	-0.36797678
-4.395969	Chấp,	-0.30103
-4.0886354	Ô,	-0.30103
-4.0886354	Sanh,	-0.30103
-4.395969	Tầng,	-0.30103
-4.0886354	Dơi,	-0.30103
-4.395969	Xy,	-0.30103
-4.395969	Klang,	-0.30103
-4.395969	Krông,	-0.30103
-4.395969	Ó,	-0.30103
-4.395969	Lòng,	-0.30103
-4.395969	Nghì,	-0.30103
-4.395969	Vao,	-0.30103
-4.395969	Rụt,	-0.30103
-4.0886354	Bung,	-0.30103
-4.0886354	Ngo,	-0.30103
-3.005859	Phước,	-0.86832786
-4.1355405	Quy,	-0.30103
-4.395969	Đúc,	-0.30103
-4.395969	Cựu,	-0.30103
-4.395969	Biều,	-0.30103
-4.395969	Sịa,	-0.30103
-4.0886354	Vang,	-0.30103
-4.0886354	Chữ,	-0.30103
-4.395969	Lưới,	-0.30103
-4.0886354	Nhâm,	-0.30103
-4.395969	Roàng,	-0.30103
-4.395969	Đớt,	-0.30103
-4.395969	Cô,	-0.30103
-4.0886354	Bổn,	-0.30103
-4.395969	Thang,	-0.30103
-4.1355405	I,	-0.30103
-3.9844797	II,	-0.30103
-4.0886354	Phát,	-0.30103
-3.4594028	Nhơn,	-0.5118834
-2.9100327	Thạnh,	-0.8893017
-4.395969	Phô,	-0.30103
-4.395969	Ch'ơm,	-0.30103
-4.0886354	Ri,	-0.30103
-4.395969	Xan,	-0.30103
-4.395969	Tr'Hy,	-0.30103
-4.395969	Tiêng,	-0.30103
-4.0886354	Dang,	-0.30103
-4.0886354	Rao,	-0.30103
-4.395969	Kôn,	-0.30103
-4.395969	Ngây,	-0.30103
-4.395969	Ting,	-0.30103
-4.395969	Tư,	-0.30103
-4.395969	Rooi,	-0.30103
-4.395969	Cooi,	-0.30103
-4.395969	Dăng,	-0.30103
-3.7100117	Lãnh,	-0.44715804
-4.395969	Laêê,	-0.30103
-4.395969	Chun,	-0.30103
-4.395969	Zuôich,	-0.30103
-4.395969	Pơơ,	-0.30103
-4.395969	Dêê,	-0.30103
-4.395969	Tôi,	-0.30103
-4.395969	Vàl,	-0.30103
-4.395969	Bhinh,	-0.30103
-4.395969	Dy,	-0.30103
-4.395969	Pre,	-0.30103
-4.395969	Pring,	-0.30103
-3.9844797	Cảnh,	-0.30103
-4.395969	Kót,	-0.30103
-4.395969	Nú,	-0.30103
-4.395969	Bui,	-0.30103
-4.1355405	Đốc,	-0.30103
-4.395969	Giác,	-0.30103
-4.1355405	Ka,	-0.30103
-4.395969	Leng,	-0.30103
-4.395969	Dơn,	-0.30103
-4.0886354	Don,	-0.30103
-3.4594028	Ngãi,	-0.56987536
-4.395969	Dõng,	-0.30103
-4.395969	Ổ,	-0.30103
-4.395969	Bùi,	-0.30103
-4.395969	Xinh,	-0.30103
-3.9844797	Tịnh,	-0.30103
-4.0886354	Thương,	-0.30103
-4.0886354	Bao,	-0.30103
-4.395969	Mùa,	-0.30103
-4.395969	Màu,	-0.30103
-3.9844797	Dinh,	-0.30103
-4.395969	Khâm,	-0.30103
-4.0886354	Tiêu,	-0.30103
-4.395969	Lế,	-0.30103
-4.395969	Cảng,	-0.30103
-4.395969	Nại,	-0.30103
-4.395969	Ráng,	-0.30103
-4.395969	Tới,	-0.30103
-4.0886354	Đá,	-0.30103
-4.0886354	Hiển,	-0.30103
-4.0886354	8,	-0.30103
-4.395969	9,	-0.30103
-4.0886354	7,	-0.30103
-4.0886354	6,	-0.30103
-4.1355405	Kiến,	-0.30103
-4.395969	Mỡ,	-0.30103
-4.395969	Lúi,	-0.30103
-4.395969	Rang,	-0.30103
-4.0886354	Riêng,	-0.30103
-4.395969	Hinh,	-0.30103
-4.395969	EaBar,	-0.30103
-4.395969	EaBia,	-0.30103
-4.395969	EaTrol,	-0.30103
-4.395969	Ealy,	-0.30103
-4.0886354	Huân,	-0.30103
-4.395969	Sài,	-0.30103
-4.395969	Ranh,	-0.30103
-4.395969	Ngòi,	-0.30103
-4.395969	Sim,	-0.30103
-4.395969	Thân,	-0.30103
-4.0886354	Diêm,	-0.30103
-4.395969	Hạp,	-0.30103
-4.0886354	Tồn,	-0.30103
-4.395969	Chàm,	-0.30103
-4.395969	Nới,	-0.30103
-4.395969	Ná,	-0.30103
-4.0886354	Né,	-0.30103
-4.395969	Hài,	-0.30103
-4.395969	Gi,	-0.30103
-4.395969	Cửa,	-0.30103
-4.395969	Thể,	-0.30103
-4.395969	Lũy,	-0.30103
-4.395969	Mi,	-0.30103
-4.395969	Mán,	-0.30103
-4.395969	Tánh,	-0.30103
-4.395969	Ngâu,	-0.30103
-4.395969	Khiêm,	-0.30103
-4.1355405	Kho,	-0.30103
-4.395969	Huynh,	-0.30103
-3.9844797	Kiết,	-0.42596874
-4.395969	Xu,	-0.30103
-4.395969	Kai,	-0.30103
-4.395969	Pu,	-0.30103
-4.395969	Tum,	-0.30103
-4.395969	Cấm,	-0.30103
-4.395969	Kroong,	-0.30103
-4.395969	Bay,	-0.30103
-4.395969	Blà,	-0.30103
-4.0886354	Chim,	-0.30103
-4.395969	Hreng,	-0.30103
-4.395969	Wa,	-0.30103
-4.395969	Glei,	-0.30103
-4.395969	Blô,	-0.30103
-4.395969	Man,	-0.30103
-4.395969	Nhoong,	-0.30103
-4.395969	Pék,	-0.30103
-4.395969	Choong,	-0.30103
-4.395969	Xốp,	-0.30103
-4.395969	Hoong,	-0.30103
-4.395969	KRoong,	-0.30103
-4.395969	Kần,	-0.30103
-4.395969	Ang,	-0.30103
-4.395969	Xú,	-0.30103
-4.0886354	Kan,	-0.30103
-4.395969	Y,	-0.30103
-4.395969	Loong,	-0.30103
-4.395969	Trăm,	-0.30103
-4.395969	Lem,	-0.30103
-4.395969	Kô,	-0.30103
-4.395969	Nên,	-0.30103
-4.395969	Plông,	-0.30103
-4.395969	Ring,	-0.30103
-4.395969	Buk,	-0.30103
-4.395969	Tem,	-0.30103
-4.395969	Ê,	-0.30103
-4.395969	Cành,	-0.30103
-4.395969	Rve,	-0.30103
-4.395969	Rẫy,	-0.30103
-4.395969	Kôi,	-0.30103
-4.395969	Ruồng,	-0.30103
-4.0886354	Pne,	-0.30103
-4.395969	Re,	-0.30103
-4.395969	PXi,	-0.30103
-4.395969	HRing,	-0.30103
-4.395969	Ui,	-0.30103
-4.395969	Ngọk,	-0.30103
-4.395969	Mar,	-0.30103
-4.395969	Wang,	-0.30103
-4.395969	Réo,	-0.30103
-4.395969	Thầy,	-0.30103
-4.395969	Kơi,	-0.30103
-4.395969	Moong,	-0.30103
-4.0886354	Rai,	-0.30103
-4.395969	Xiêr,	-0.30103
-4.395969	ly,	-0.30103
-4.0886354	Lây,	-0.30103
-4.0886354	Rông,	-0.30103
-4.395969	Yêu,	-0.30103
-4.395969	Xăng,	-0.30103
-4.395969	Xuôi,	-0.30103
-4.395969	Đal,	-0.30103
-4.395969	Drai,	-0.30103
-4.395969	Dom,	-0.30103
-4.395969	Tơi,	-0.30103
-4.395969	Đỗ,	-0.30103
-4.395969	Pleiku,	-0.30103
-4.395969	Kring,	-0.30103
-4.395969	Gào,	-0.30103
-4.395969	Reo,	-0.30103
-4.395969	Bờ,	-0.30103
-4.395969	RBol,	-0.30103
-4.395969	Băh,	-0.30103
-4.395969	RTô,	-0.30103
-4.1355405	KBang,	-0.30103
-4.395969	Roong,	-0.30103
-4.395969	KRong,	-0.30103
-4.395969	Pai,	-0.30103
-4.395969	Ku,	-0.30103
-4.395969	SMar,	-0.30103
-4.395969	Khơng,	-0.30103
-4.395969	Pla,	-0.30103
-4.395969	HLơ,	-0.30103
-4.395969	Đoa,	-0.30103
-4.395969	Sơmei,	-0.30103
-4.395969	Krong,	-0.30103
-3.872619	Yang,	-0.39794
-4.395969	Gang,	-0.30103
-4.395969	Bầu,	-0.30103
-4.395969	Neng,	-0.30103
-4.395969	Glar,	-0.30103
-4.0886354	Dơk,	-0.30103
-4.395969	HNol,	-0.30103
-4.395969	Pết,	-0.30103
-4.395969	Băng,	-0.30103
-4.395969	Păh,	-0.30103
-4.395969	Khươl,	-0.30103
-4.395969	Phí,	-0.30103
-4.395969	Kreng,	-0.30103
-4.395969	Ver,	-0.30103
-4.0886354	Ya,	-0.30103
-4.395969	Grai,	-0.30103
-4.395969	Yok,	-0.30103
-4.395969	Hrung,	-0.30103
-4.395969	Bă,	-0.30103
-4.395969	KRai,	-0.30103
-4.395969	Grăng,	-0.30103
-4.395969	O,	-0.30103
-4.395969	Dêr,	-0.30103
-4.395969	Chia,	-0.30103
-4.395969	Pếch,	-0.30103
-4.395969	Dơng,	-0.30103
-4.395969	Ayun,	-0.30103
-4.395969	Ley,	-0.30103
-4.395969	Hra,	-0.30103
-4.395969	Yă,	-0.30103
-4.395969	Djrăng,	-0.30103
-4.0886354	Pang,	-0.30103
-4.395969	Thụp,	-0.30103
-4.395969	Ar,	-0.30103
-4.395969	Chiêng,	-0.30103
-4.395969	Chro,	-0.30103
-4.395969	Krêy,	-0.30103
-4.395969	SRó,	-0.30103
-4.0886354	Ning,	-0.30103
-4.0886354	Song,	-0.30103
-4.395969	Pling,	-0.30103
-4.395969	Krêl,	-0.30103
-4.395969	Din,	-0.30103
-4.395969	Kla,	-0.30103
-4.395969	Kriêng,	-0.30103
-4.395969	Pnôn,	-0.30103
-4.395969	Nan,	-0.30103
-4.0886354	Prông,	-0.30103
-4.0886354	Kly,	-0.30103
-4.1355405	Drăng,	-0.30103
-4.0886354	Cạn,	-0.30103
-4.395969	Tôr,	-0.30103
-4.395969	Boòng,	-0.30103
-4.395969	Púch,	-0.30103
-4.395969	Vê,	-0.30103
-4.395969	Pia,	-0.30103
-4.395969	Ga,	-0.30103
-4.395969	Piơr,	-0.30103
-4.0886354	Mơ,	-0.30103
-4.395969	Sê,	-0.30103
-4.395969	Tiêm,	-0.30103
-4.0886354	Pơng,	-0.30103
-4.395969	Măih,	-0.30103
-4.395969	Ngoong,	-0.30103
-4.395969	Glai,	-0.30103
-4.395969	HTok,	-0.30103
-4.395969	AYun,	-0.30103
-4.395969	HLốp,	-0.30103
-4.0886354	Blang,	-0.30103
-4.395969	Dun,	-0.30103
-4.0886354	Pal,	-0.30103
-4.395969	Ko,	-0.30103
-4.0886354	Pơ,	-0.30103
-4.395969	Tó,	-0.30103
-4.0886354	Răng,	-0.30103
-4.395969	KDăm,	-0.30103
-4.0886354	Tul,	-0.30103
-4.395969	Rơn,	-0.30103
-4.395969	Broăi,	-0.30103
-4.395969	Trok,	-0.30103
-4.395969	RSai,	-0.30103
-4.395969	RSươm,	-0.30103
-4.395969	Gu,	-0.30103
-4.395969	Mláh,	-0.30103
-4.395969	HDreh,	-0.30103
-4.395969	RMok,	-0.30103
-4.395969	Uar,	-0.30103
-4.395969	Rcăm,	-0.30103
-4.395969	Thai,	-0.30103
-4.395969	Ake,	-0.30103
-4.0886354	Sol,	-0.30103
-4.395969	Piar,	-0.30103
-4.395969	Peng,	-0.30103
-4.395969	Pơnan,	-0.30103
-4.0886354	Hiao,	-0.30103
-4.395969	Yeng,	-0.30103
-4.395969	Pưh,	-0.30103
-4.395969	Hrú,	-0.30103
-4.0886354	Rong,	-0.30103
-4.395969	Dreng,	-0.30103
-4.395969	Hla,	-0.30103
-4.395969	Phang,	-0.30103
-4.395969	Le,	-0.30103
-4.395969	BLứ,	-0.30103
-4.395969	Thuột,	-0.30103
-4.395969	ÊBur,	-0.30103
-4.0886354	Kao,	-0.30103
-4.395969	Drông,	-0.30103
-4.395969	Siên,	-0.30103
-4.395969	H'leo,	-0.30103
-4.395969	Ral,	-0.30103
-4.395969	Wy,	-0.30103
-4.0886354	Mốt,	-0.30103
-4.395969	Khal,	-0.30103
-4.395969	Tir,	-0.30103
-4.395969	Súp,	-0.30103
-4.395969	Lốp,	-0.30103
-4.395969	JLơi,	-0.30103
-4.395969	Rốk,	-0.30103
-4.395969	RVê,	-0.30103
-4.395969	M'Lan,	-0.30103
-4.395969	Huar,	-0.30103
-4.0886354	Wer,	-0.30103
-4.395969	KNia,	-0.30103
-4.395969	Bar,	-0.30103
-4.395969	Nuôl,	-0.30103
-4.395969	Pốk,	-0.30103
-4.395969	M'gar,	-0.30103
-4.395969	Kuêh,	-0.30103
-4.395969	Tar,	-0.30103
-4.395969	M'nông,	-0.30103
-4.395969	H'đinh,	-0.30103
-4.395969	KPam,	-0.30103
-4.395969	M'DRóh,	-0.30103
-4.395969	D'Rơng,	-0.30103
-4.395969	M'nang,	-0.30103
-4.395969	Suê,	-0.30103
-4.0886354	Búk,	-0.30103
-4.395969	KBô,	-0.30103
-4.395969	Drang,	-0.30103
-4.395969	Ngai,	-0.30103
-4.395969	Tóh,	-0.30103
-4.395969	Puk,	-0.30103
-4.395969	Dăh,	-0.30103
-4.395969	Klông,	-0.30103
-4.395969	Kar,	-0.30103
-4.395969	Knốp,	-0.30103
-4.395969	Sô,	-0.30103
-4.0886354	Sar,	-0.30103
-4.395969	Huê,	-0.30103
-4.395969	Tih,	-0.30103
-4.395969	Đar,	-0.30103
-4.395969	Kmút,	-0.30103
-4.395969	Ni,	-0.30103
-4.395969	Păl,	-0.30103
-4.395969	ELang,	-0.30103
-4.395969	Jang,	-0.30103
-4.0886354	M'Đrắk,	-0.30103
-4.395969	Prao,	-0.30103
-4.395969	Pil,	-0.30103
-4.395969	H'MLay,	-0.30103
-4.395969	Jing,	-0.30103
-4.395969	Doal,	-0.30103
-4.395969	M'ta,	-0.30103
-4.395969	Róa,	-0.30103
-4.395969	Kmar,	-0.30103
-4.395969	Kang,	-0.30103
-4.395969	KTy,	-0.30103
-4.395969	Reh,	-0.30103
-4.395969	Trul,	-0.30103
-4.395969	Pui,	-0.30103
-4.395969	Drăm,	-0.30103
-4.395969	Pắc,	-0.30103
-4.395969	Phê,	-0.30103
-4.395969	KNuec,	-0.30103
-4.395969	Yông,	-0.30103
-4.395969	Kuăng,	-0.30103
-4.395969	Hiu,	-0.30103
-4.395969	Uy,	-0.30103
-4.395969	Yiêng,	-0.30103
-4.395969	Trấp,	-0.30103
-4.395969	Sáp,	-0.30103
-4.395969	Drênh,	-0.30103
-4.395969	KMăl,	-0.30103
-4.395969	Lắk,	-0.30103
-4.395969	Tao,	-0.30103
-4.395969	Krang,	-0.30103
-4.0886354	Liêng,	-0.30103
-4.395969	Triết,	-0.30103
-4.395969	Tría,	-0.30103
-4.395969	Phơi,	-0.30103
-4.395969	Nuê,	-0.30103
-4.395969	Nô,	-0.30103
-4.395969	R'Bin,	-0.30103
-4.395969	Kuin,	-0.30103
-4.395969	Wi,	-0.30103
-4.395969	Ktur,	-0.30103
-4.395969	BHốk,	-0.30103
-4.395969	Bhăng,	-0.30103
-4.395969	R'Moan,	-0.30103
-4.395969	Nia,	-0.30103
-4.395969	Glong,	-0.30103
-4.395969	Ha,	-0.30103
-4.395969	R'Măng,	-0.30103
-4.395969	Plao,	-0.30103
-4.395969	Som,	-0.30103
-4.395969	T'Ling,	-0.30103
-4.395969	Jút,	-0.30103
-4.395969	Wil,	-0.30103
-4.395969	Pô,	-0.30103
-4.395969	DRông,	-0.30103
-4.395969	Knia,	-0.30103
-4.395969	Mil,	-0.30103
-4.395969	R'La,	-0.30103
-4.395969	Gằn,	-0.30103
-4.395969	Mạnh,	-0.30103
-4.395969	N'Drót,	-0.30103
-4.395969	Sắk,	-0.30103
-4.395969	Mâm,	-0.30103
-4.395969	Sôr,	-0.30103
-4.395969	Choah,	-0.30103
-4.395969	Drô,	-0.30103
-4.395969	N'Đir,	-0.30103
-4.395969	Môl,	-0.30103
-4.395969	N'Dung,	-0.30103
-4.395969	N'Jang,	-0.30103
-4.395969	R'Lấp,	-0.30103
-4.395969	Ru,	-0.30103
-4.395969	R'Tíh,	-0.30103
-4.395969	Lạt,	-0.30103
-4.0886354	12,	-0.30103
-4.1355405	10,	-0.30103
-4.0886354	11,	-0.30103
-4.395969	B'lao,	-0.30103
-4.395969	Bri,	-0.30103
-4.395969	Srônh,	-0.30103
-4.395969	Rsal,	-0.30103
-4.395969	Chais,	-0.30103
-4.395969	Nhim,	-0.30103
-4.395969	KNớ,	-0.30103
-4.395969	Đờn,	-0.30103
-4.395969	D'Ran,	-0.30103
-4.395969	Ròn,	-0.30103
-4.395969	Đơn,	-0.30103
-4.395969	Pró,	-0.30103
-4.395969	Quyn,	-0.30103
-4.395969	Hine,	-0.30103
-4.395969	Đầm,	-0.30103
-4.395969	Ré,	-0.30103
-4.395969	Lá,	-0.30103
-4.395969	M'ri,	-0.30103
-4.395969	Huoai,	-0.30103
-4.395969	Guôi,	-0.30103
-4.395969	Ploa,	-0.30103
-4.395969	Tẻh,	-0.30103
-4.0886354	Xoài,	-0.30103
-4.395969	Mập,	-0.30103
-4.395969	Ơ,	-0.30103
-4.1355405	Tấn,	-0.30103
-4.395969	Đốp,	-0.30103
-4.0886354	Quản,	-0.30103
-4.395969	Nơ,	-0.30103
-4.395969	Nhau,	-0.30103
-4.1355405	Riềng,	-0.30103
-4.395969	Vong,	-0.30103
-4.395969	Dây,	-0.30103
-4.0886354	Khởi,	-0.30103
-4.395969	Củi,	-0.30103
-4.0886354	Đước,	-0.30103
-4.395969	Chỉ,	-0.30103
-4.395969	Thố,	-0.30103
-4.395969	Tiếng,	-0.30103
-4.395969	Thiêu,	-0.30103
-4.395969	Cuốc,	-0.30103
-4.395969	Trâm,	-0.30103
-4.395969	Gòn,	-0.30103
-4.395969	Lua,	-0.30103
-4.395969	Lài,	-0.30103
-4.395969	Bom,	-0.30103
-4.395969	Gáo,	-0.30103
-4.395969	Trầu,	-0.30103
-4.395969	61,	-0.30103
-4.0886354	25,	-0.30103
-4.395969	Giây,	-0.30103
-4.0886354	Ray,	-0.30103
-4.395969	Thiền,	-0.30103
-4.0886354	Tàu,	-0.30103
-4.0886354	Nghệ,	-0.30103
-4.395969	Lớn,	-0.30103
-4.1355405	Bửu,	-0.30103
-4.1355405	Nhứt,	-0.30103
-4.395969	Tỉnh,	-0.30103
-4.395969	Nghé,	-0.30103
-4.395969	15,	-0.30103
-4.395969	Vấp,	-0.30103
-4.395969	13,	-0.30103
-4.395969	17,	-0.30103
-4.395969	16,	-0.30103
-4.395969	14,	-0.30103
-4.395969	05,	-0.30103
-4.395969	07,	-0.30103
-4.395969	04,	-0.30103
-4.395969	01,	-0.30103
-4.395969	03,	-0.30103
-4.395969	27,	-0.30103
-4.395969	26,	-0.30103
-4.395969	24,	-0.30103
-4.395969	06,	-0.30103
-4.395969	02,	-0.30103
-4.395969	21,	-0.30103
-4.395969	22,	-0.30103
-4.395969	19,	-0.30103
-4.395969	28,	-0.30103
-4.395969	08,	-0.30103
-4.395969	09,	-0.30103
-3.1859632	B,	-0.7596679
-4.395969	Thiêm,	-0.30103
-4.0886354	Sáu,	-0.30103
-4.395969	18,	-0.30103
-4.395969	Kiểng,	-0.30103
-4.395969	Cội,	-0.30103
-4.0886354	Nhựt,	-0.30103
-4.0886354	Bè,	-0.30103
-4.395969	Kiển,	-0.30103
-3.422898	Thới,	-0.57403123
-4.395969	Giờ,	-0.30103
-4.395969	Lức,	-0.30103
-4.395969	Thừa,	-0.30103
-4.395969	Giuộc,	-0.30103
-3.5919755	Quới,	-0.5563025
-4.395969	Tho,	-0.30103
-4.395969	Lậy,	-0.30103
-4.395969	Hy,	-0.30103
-4.395969	Điềm,	-0.30103
-4.395969	Gạo,	-0.30103
-4.395969	Lách,	-0.30103
-4.395969	Thiềng,	-0.30103
-4.395969	Cày,	-0.30103
-4.395969	Trôm,	-0.30103
-4.395969	Tôm,	-0.30103
-4.395969	Ngang,	-0.30103
-4.395969	Thít,	-0.30103
-4.395969	Nhum,	-0.30103
-4.395969	Tứ,	-0.30103
-4.395969	Vồn,	-0.30103
-4.395969	Ôn,	-0.30103
-4.395969	Lược,	-0.30103
-4.395969	Thảnh,	-0.30103
-4.395969	Đéc,	-0.30103
-4.395969	Ngự,	-0.30103
-4.395969	Rài,	-0.30103
-4.395969	Chí,	-0.30103
-4.395969	Sính,	-0.30103
-4.395969	Biển,	-0.30103
-4.395969	Giồng,	-0.30103
-4.395969	Huề,	-0.30103
-4.395969	Vò,	-0.30103
-4.395969	Vung,	-0.30103
-4.395969	Ngươn,	-0.30103
-4.0886354	Vàm,	-0.30103
-4.395969	Voi,	-0.30103
-4.0886354	Chúc,	-0.30103
-4.395969	Phi,	-0.30103
-4.395969	Đảnh,	-0.30103
-4.0886354	Tức,	-0.30103
-4.395969	Tuyến,	-0.30103
-4.395969	Eo,	-0.30103
-4.395969	Thê,	-0.30103
-4.395969	Huỳnh,	-0.30103
-4.395969	Quao,	-0.30103
-4.395969	Điều,	-0.30103
-4.395969	Khế,	-0.30103
-4.395969	Nóc,	-0.30103
-4.395969	Nốt,	-0.30103
-4.395969	Qưới,	-0.30103
-4.395969	III,	-0.30103
-4.395969	IV,	-0.30103
-4.395969	V,	-0.30103
-4.395969	VII,	-0.30103
-4.395969	Bảy,	-0.30103
-4.395969	Gòi,	-0.30103
-4.395969	Tắc,	-0.30103
-4.395969	Dầm,	-0.30103
-4.395969	Cùng,	-0.30103
-4.0886354	Mau,	-0.30103
-4.395969	Lồng,	-0.30103
-4.395969	Trăng,	-0.30103
-4.395969	Năm,	-0.30103
-4.395969	Mát,	-0.30103
-4.395969	Phòng,	-0.30103
-4.395969	Tròn,	-0.30103
-4.395969	Phích,	-0.30103
-4.395969	Phải,	-0.30103
-4.395969	Thời,	-0.30103
-4.395969	Hợi,	-0.30103
-4.395969	Nước,	-0.30103
-4.395969	Phán,	-0.30103
-4.395969	Duyệt,	-0.30103
-4.395969	Phẩm,	-0.30103
-4.395969	Căn,	-0.30103
-4.395969	Chèo,	-0.30103
-4.395969	Khái,	-0.30103
-4.395969	Gốc,	-0.30103
-4.395969	Mũi,	-0.30103

\2-grams:
-0.30003408	Ngõ </s>	0
-1.967713	Đường </s>	0
-0.30003408	Số </s>	0
-0.9950431	Tổ </s>	0
-0.30003408	Ngách </s>	0
-0.30003408	Khu </s>	0
-0.89912	Hẻm </s>	0
-1.5425633	Thôn </s>	0
-0.89912	Ấp </s>	0
-0.30003408	Xóm </s>	0
-0.30003408	số </s>	0
-0.30003408	ngách </s>	0
-0.30003408	ngõ </s>	0
-0.30003408	hẻm </s>	0
-0.30003408	thôn </s>	0
-0.30003408	tổ </s>	0
-0.30003408	ấp </s>	0
-0.30003408	xóm </s>	0
-0.30003408	khu </s>	0
-0.30003408	đường </s>	0
-0.30003408	đg </s>	0
-0.30003408	kcn </s>	0
-0.30003408	ng </s>	0
-0.30003408	tdp </s>	0
-0.30003408	KCN </s>	0
-0.30003408	Ng </s>	0
-0.30003408	TDP </s>	0
-0.30003408	NVH </s>	0
-0.30003408	nvh </s>	0
-2.6070127	Phúc </s>	0
-1.817105	Nội </s>	0
-2.0347173	Biên </s>	0
-2.750867	Đồng </s>	0
-2.3212228	Dương </s>	0
-2.614333	Nam </s>	0
-2.7663317	An </s>	0
-2.2585404	La </s>	0
-2.7783275	Yên </s>	0
-2.8567774	Long </s>	0
-1.7305591	Giang </s>	0
-2.6292832	Quang </s>	0
-1.139204	Huế </s>	0
-2.7336385	Minh </s>	0
-2.2929175	Định </s>	0
-3.0648847	Sơn </s>	0
-2.4097898	Ninh </s>	0
-2.3226671	Nguyên </s>	0
-2.7925787	Châu </s>	0
-2.8698223	Hòa </s>	0
-2.5892885	Thọ </s>	0
-2.4732614	Thuận </s>	0
-1.6124178	Tháp </s>	0
-2.5472937	Bình </s>	0
-2.244799	Bằng </s>	0
-2.2763186	Lai </s>	0
-2.3308196	Vinh </s>	0
-2.2778869	Nông </s>	0
-2.0160177	Trị </s>	0
-1.9083792	Cai </s>	0
-1.6220533	Tĩnh </s>	0
-0.89912	Kạn </s>	0
-2.4784873	Hóa </s>	0
-1.4914107	Bái </s>	0
-1.3684083	Nai </s>	0
-1.561241	Liêu </s>	0
-0.6000705	Phòng </s>	0
-1.4334188	Tre </s>	0
-2.7512674	Phước </s>	0
-0.30003408	Nẵng </s>	0
-2.02738	Ngãi </s>	0
-0.89912	Tum </s>	0
-1.4412165	Lắk </s>	0
-1.2463903	Tàu </s>	0
-0.30003408	Thơ </s>	0
-1.139204	Mau </s>	0
-0.89912	Trăng </s>	0
-4.8954797	<s> Ngõ	-0.09682809
-3.8609927	<s> Đường	-0.09682809
-2.3400471	Ngọc Đường	-0.16834475
-2.3845391	Kim Đường	-0.09682809
-2.680531	Xuân Đường	-0.09682809
-3.0959623	Xã Đường	-0.09682809
-2.5998285	Hải Đường	-0.09682809
-1.3243957	Tam Đường	-0.6933996
-3.1247604	xã Đường	-0.09682809
-2.4042213	Cẩm Đường	-0.09682809
-1.9356859	Cam Đường	-0.16834475
-0.96933365	Cúc Đường	-0.09682809
-1.7136973	Thuỷ Đường	-0.09682809
-4.8954797	<s> Số	-0.09682809
-4.8699985	<s> Tổ	-0.09682809
-1.8761297	Đình Tổ	-0.16834475
-2.7854924	Thái Tổ	-0.09682809
-4.8954797	<s> Ngách	-0.09682809
-4.8954797	<s> Khu	-0.09682809
-4.863785	<s> Hẻm	-0.09682809
-2.8622565	Bình Hẻm	-0.09682809
-4.8064084	<s> Thôn	-0.09682809
-1.3672866	Nội Thôn	-0.09682809
-2.323803	Thượng Thôn	-0.09682809
-2.1145742	Tam Thôn	-0.1260488
-2.5047014	Châu Thôn	-0.09682809
-2.6847541	Lạc Thôn	-0.09682809
-4.863785	<s> Ấp	-0.09682809
-2.8073618	An Ấp	-0.09682809
-4.8954797	<s> Xóm	-0.09682809
-4.8954797	<s> số	-0.09682809
-4.8954797	<s> ngách	-0.09682809
-4.8954797	<s> ngõ	-0.09682809
-4.8954797	<s> hẻm	-0.09682809
-4.8954797	<s> thôn	-0.09682809
-4.8954797	<s> tổ	-0.09682809
-4.8954797	<s> ấp	-0.09682809
-4.8954797	<s> xóm	-0.09682809
-4.8954797	<s> khu	-0.09682809
-4.8954797	<s> đường	-0.09682809
-4.8954797	<s> đg	-0.09682809
-4.8954797	<s> kcn	-0.09682809
-4.8954797	<s> ng	-0.09682809
-4.8954797	<s> tdp	-0.09682809
-4.8954797	<s> KCN	-0.09682809
-4.8954797	<s> Ng	-0.09682809
-4.8954797	<s> TDP	-0.09682809
-4.8954797	<s> NVH	-0.09682809
-4.8954797	<s> nvh	-0.09682809
-1.3797617	<s> Phường	-0.60238934
-2.819388	Phường Phường	-0.09682809
-2.9256575	<s> Phúc	-0.23701343
-2.6180358	Phường Phúc	-0.09682809
-2.6323154	Phúc Phúc	-0.09682809
-2.292869	Đình Phúc	-0.09682809
-2.1435864	phố Phúc	-0.9922535
-2.8075044	Hà Phúc	-0.09682809
-1.6660728	Vĩnh Phúc	-1.8709961
-1.5729623	Nguyễn Phúc	-0.16834475
-2.4675426	Trung Phúc	-0.1260488
-2.75064	Tân Phúc	-0.21749204
-2.4405088	Đồng Phúc	-0.30012965
-2.5822837	Xuân Phúc	-0.09682809
-2.2691572	Thái Phúc	-0.09682809
-2.1770823	Dương Phúc	-0.09682809
-2.3079524	Nam Phúc	-0.1383108
-2.1707773	Hưng Phúc	-0.13111596
-2.7241347	Phú Phúc	-0.09682809
-2.6554103	Thượng Phúc	-0.09682809
-2.1410797	Quảng Phúc	-0.13111596
-2.678659	An Phúc	-0.09682809
-2.6809864	Yên Phúc	-0.30012965
-2.6044838	Giang Phúc	-0.09682809
-2.4148006	Nghĩa Phúc	-0.13111596
-1.3225224	Đa Phúc	-0.09682809
-2.4924526	Phương Phúc	-0.09682809
-1.9285944	Đại Phúc	-0.13111596
-2.5898232	trấn Phúc	-0.30012965
-2.5591898	Huyện Phúc	-1.0134428
-2.8060627	Xã Phúc	-0.20410623
-2.2631006	Hồng Phúc	-0.09682809
-2.423822	Ninh Phúc	-0.16834475
-1.8917248	Nguyên Phúc	-0.09682809
-2.1743443	Vân Phúc	-0.09682809
-1.7036624	Cổ Phúc	-0.09682809
-2.5341816	Hải Phúc	-0.09682809
-2.4372313	Hiệp Phúc	-0.45409814
-2.0570219	Xuyên Phúc	-0.45409814
-2.0711713	Diễn Phúc	-0.09682809
-2.5465865	Mỹ Phúc	-0.09682809
-2.280192	Tam Phúc	-0.09682809
-1.5106041	Ngũ Phúc	-0.30012965
-1.6088749	Vạn Phúc	-0.22131194
-1.4923495	Tảo Phúc	-0.09682809
-2.820597	xã Phúc	-0.21555156
-2.6227112	Lộc Phúc	-0.45409814
-2.9105215	Hòa Phúc	-0.09682809
-2.3515124	Cẩm Phúc	-0.09682809
-1.912385	Cam Phúc	-0.14933157
-2.612536	Thọ Phúc	-0.09682809
-1.9797108	Cốc Phúc	-0.09682809
-1.8908837	Môn Phúc	-0.09682809
-0.7757222	Thuấn Phúc	-0.09682809
-2.7248015	Thuận Phúc	-0.09682809
-2.7384322	Bình Phúc	-0.09682809
-1.8226817	Bằng Phúc	-0.09682809
-1.4469482	Hạnh Phúc	-0.09682809
-2.0696392	Vũ Phúc	-0.16834475
-2.0481439	Hóa Phúc	-0.09682809
-1.9136533	Thiệu Phúc	-0.09682809
-2.0148861	Nhơn Phúc	-0.16834475
-2.6497009	phường Phúc	-0.09682809
-2.54799	huyện Phúc	-1.0134428
-4.25365	<s> Xá	-0.09682809
-2.2511675	Phúc Xá	-0.09682809
-2.555791	Vĩnh Xá	-0.09682809
-2.304039	Ngọc Xá	-0.16834475
-2.349966	Kim Xá	-0.09682809
-1.4396191	Đào Xá	-0.30012965
-2.6298838	Đông Xá	-0.30012965
-1.5815716	Chương Xá	-0.09682809
-2.187466	Dương Xá	-0.09682809
-1.6526695	Tràng Xá	-0.09682809
-2.4430625	Phú Xá	-0.13111596
-2.020586	Hồ Xá	-0.09682809
-2.630158	Thanh Xá	-0.09682809
-2.5761094	Long Xá	-0.09682809
-2.2816598	Thạch Xá	-0.09682809
-2.4328442	Nghĩa Xá	-0.09682809
-2.4057293	Văn Xá	-0.09682809
-2.2530687	Quỳnh Xá	-0.09682809
-2.123801	Hoàng Xá	-0.09682809
-2.8796413	Xã Xá	-0.09682809
-2.4404342	Ninh Xá	-0.16834475
-1.896481	Nguyên Xá	-0.30012965
-0.42516896	Tàm Xá	-0.09682809
-0.86310565	Đổng Xá	-0.09682809
-1.3967439	Lệ Xá	-0.09682809
-1.0248384	Đặng Xá	-0.09682809
-2.5699651	Mỹ Xá	-0.16834475
-2.8969128	xã Xá	-0.09682809
-1.4211922	Ngô Xá	-0.09682809
-2.6039011	Hòa Xá	-0.09682809
-2.3676937	Cẩm Xá	-0.16834475
-1.4293504	Phùng Xá	-0.30012965
-2.0539565	Điền Xá	-0.30012965
-2.1111896	Cao Xá	-0.30012965
-0.42516896	Xuy Xá	-0.09682809
-0.86310565	Trịnh Xá	-0.16834475
